4.886488616466522217e-02,1.791631057858467102e-02,-2.515568770468235016e-02,1.296389754861593246e-02,-1.795989274978637695e-02,3.312310948967933655e-02,-1.991552114486694336e-02,-1.112966891378164291e-02,-7.767299562692642212e-02,-5.600123479962348938e-02,4.423657804727554321e-02,6.823194772005081177e-02,-6.420824676752090454e-02,-6.164148077368736267e-02,4.294200614094734192e-02,4.595045372843742371e-02,5.999600887298583984e-02,6.079930812120437622e-02,-4.779945686459541321e-02,-6.476848572492599487e-02,-6.706390529870986938e-03,5.112630501389503479e-02,-2.202310599386692047e-02,9.125694632530212402e-03,-1.545176561921834946e-02,-7.320872973650693893e-03,1.676095649600028992e-03,3.639926388859748840e-02,-3.454572707414627075e-02,1.428730040788650513e-02,1.449241191148757935e-01,4.501901566982269287e-02,-2.969209477305412292e-02,1.208270341157913208e-02,-4.482410848140716553e-02,-3.994545713067054749e-02,-1.443613041192293167e-02,-1.335678156465291977e-02,-3.921299427747726440e-02,-6.472565978765487671e-02,-3.140984103083610535e-02,2.420432865619659424e-02,-1.118511520326137543e-02,-1.685782521963119507e-02,9.901712834835052490e-02,5.214009433984756470e-03,-4.891999438405036926e-02,2.754116617143154144e-02,-4.435218498110771179e-02,1.007821410894393921e-02,-5.880787037312984467e-03,-1.463187206536531448e-02,-3.633959591388702393e-02,-5.519824568182229996e-03,-4.544069245457649231e-02,2.212066436186432838e-03,1.954296138137578964e-03,-1.371706929057836533e-02,-2.110633812844753265e-02,6.043922621756792068e-03,1.139707211405038834e-02,4.843152314424514771e-02,5.308592226356267929e-03,-1.212107669562101364e-02,-2.681873738765716553e-02,-2.817689813673496246e-02,1.485190005041658878e-03,1.546500250697135925e-02,3.662899136543273926e-02,-2.478003874421119690e-02,-3.858404234051704407e-02,2.472143918275833130e-01,1.461321022361516953e-02,-3.041976504027843475e-02,-8.112093061208724976e-02,5.217744410037994385e-02,-1.800897903740406036e-02,4.954703524708747864e-02,-1.291843950748443604e-01,-3.863421082496643066e-02,7.826403528451919556e-02,-1.404631230980157852e-02,6.054930854588747025e-03,1.549196150153875351e-02,-8.178314566612243652e-02,4.660960286855697632e-02,-1.216323953121900558e-02,-6.961727980524301529e-03,-3.064858168363571167e-02,7.173376157879829407e-03,3.124904818832874298e-02,-6.064547691494226456e-03,-3.457688167691230774e-02,1.104802172631025314e-02,-1.992024667561054230e-02,4.042903333902359009e-02,3.070581704378128052e-02,1.823685690760612488e-02,-4.002967104315757751e-02,-2.694476209580898285e-02,3.066235594451427460e-02,6.437294930219650269e-02,-4.086490347981452942e-02,-5.692901834845542908e-02,-3.437844291329383850e-02,3.116897866129875183e-02,1.676360890269279480e-02,3.283701092004776001e-02,-7.763186097145080566e-02,-7.008800283074378967e-03,8.681723475456237793e-02,1.394849121570587158e-01,4.558848962187767029e-02,-6.001176685094833374e-02,-1.371645629405975342e-01,1.258139908313751221e-01,3.208467736840248108e-02,-2.993795648217201233e-02,-8.679647743701934814e-02,-3.114820457994937897e-02,-4.181588441133499146e-02,2.052265703678131104e-01,1.226731389760971069e-01,-9.747810661792755127e-02,-1.804125308990478516e-02,8.208481222391128540e-02,-6.215030793100595474e-03,3.549544885754585266e-02,-1.771323382854461670e-01,-3.545364737510681152e-02,-4.159999638795852661e-02,5.312434863299131393e-03,-2.482336200773715973e-02,-3.184876590967178345e-02,-1.399382110685110092e-02,-3.860891237854957581e-02,1.861905120313167572e-02,1.100297737866640091e-02,1.676565967500209808e-02,1.914718933403491974e-02,2.866422873921692371e-04,1.999294618144631386e-03,2.227813750505447388e-02,2.230581082403659821e-02,-2.056859619915485382e-02,-3.180242329835891724e-02,-2.038193680346012115e-02,7.390395272523164749e-03,-1.458485145121812820e-02,-2.489174529910087585e-02,-1.213384326547384262e-02,2.264240384101867676e-02,3.643572330474853516e-03,6.650357972830533981e-03,1.756022684276103973e-02,-1.029653847217559814e-02,-1.623666658997535706e-02,-2.117618714692071080e-04,-2.372488938271999359e-02,-9.972124360501766205e-03,-6.585588306188583374e-02,5.331780016422271729e-02,-1.513464003801345825e-02,-1.466121431440114975e-02,8.756915107369422913e-03,5.089563876390457153e-02,3.965599898947402835e-05,4.134025424718856812e-02,-3.558080643415451050e-02,-1.505628693848848343e-02,-1.830192282795906067e-02,3.632846474647521973e-02,9.958088397979736328e-03,-2.655626274645328522e-02,9.023132734000682831e-03,4.255258664488792419e-02,2.339917607605457306e-02,6.920299492776393890e-03,-3.733123093843460083e-02,1.805792748928070068e-02,-1.112089827656745911e-01,1.816581934690475464e-01,3.606300801038742065e-02,3.023377805948257446e-02,-3.188057243824005127e-02,1.518292445689439774e-02,-3.378881514072418213e-02,6.964322179555892944e-02,-8.599082380533218384e-02,-9.938751906156539917e-02,3.817313164472579956e-02,1.748294979333877563e-01,-2.788803353905677795e-02,-2.267540059983730316e-02,9.490458294749259949e-03,1.149856764823198318e-02,-1.903080567717552185e-02,1.049903929233551025e-01,-1.812445670366287231e-01,-2.562942169606685638e-02,4.762202873826026917e-02,4.439143836498260498e-02,-1.527116075158119202e-02,-2.309691533446311951e-02,-2.287686988711357117e-02,2.364001981914043427e-02,-4.661430418491363525e-02,-3.155194595456123352e-02,-5.177878588438034058e-02,1.426963601261377335e-02,1.392795890569686890e-02,4.019815102219581604e-02,1.157813705503940582e-02,-2.003020234405994415e-02,2.213020250201225281e-02,5.785326287150382996e-02,-4.270992067176848650e-04,-1.140543725341558456e-02,-6.082533393055200577e-03,-5.350707098841667175e-02,-3.545042127370834351e-02,1.280297897756099701e-02,-2.529644966125488281e-02,5.751230288296937943e-03,-3.336846083402633667e-02,-2.006158232688903809e-02,-1.014949940145015717e-02,-1.707784272730350494e-02,-3.304300084710121155e-02,-2.537382242735475302e-04,-7.336508017033338547e-03,3.113397955894470215e-02,-2.088785357773303986e-02,1.558646210469305515e-03,2.609725482761859894e-02,-4.158565029501914978e-02,5.599442403763532639e-03,-1.603589020669460297e-02,5.452510900795459747e-03,3.334976732730865479e-02,-1.006355509161949158e-02,4.935271572321653366e-03,-3.408776223659515381e-02,1.926455274224281311e-02,6.750735919922590256e-03,-2.738520875573158264e-02,-6.286352872848510742e-03,1.060767471790313721e-02,-4.483442008495330811e-02,-1.356914173811674118e-02,3.729648515582084656e-02,5.893386434763669968e-03,-3.805370256304740906e-02,-6.804189644753932953e-03,-2.378998696804046631e-02,2.632390335202217102e-02,1.739634573459625244e-02,-2.489805780351161957e-02,-4.219489172101020813e-02,-1.690474525094032288e-02,-3.678495995700359344e-03,2.347214333713054657e-02,-3.598388656973838806e-02,2.432404831051826477e-02,-4.163962975144386292e-02,4.885308444499969482e-02,-3.655362129211425781e-02,3.466660901904106140e-02,-9.563225321471691132e-03,-4.168281704187393188e-02,2.941171638667583466e-02,2.469960413873195648e-02,9.004561230540275574e-03,-3.340880200266838074e-02,-3.164614783599972725e-03,-5.635439418256282806e-03,-2.004656754434108734e-02,-2.352590113878250122e-02,-3.595556691288948059e-02,1.093447301536798477e-02,-9.421121329069137573e-03,5.615328252315521240e-02,-1.296160928905010223e-02,-2.636628411710262299e-02,3.957029059529304504e-02,3.957127407193183899e-02,1.003170572221279144e-02,2.170986309647560120e-02,-8.438092470169067383e-02,-2.892958745360374451e-02,7.278037071228027344e-02,8.598642796277999878e-02,6.684713065624237061e-03,-3.983841091394424438e-02,-8.677471429109573364e-02,1.836019940674304962e-02,-2.989543974399566650e-02,3.415326774120330811e-02,-5.950952880084514618e-03,-1.632406376302242279e-02,-1.231983304023742676e-02,1.559092197567224503e-03,1.279473025351762772e-02,-3.670937567949295044e-02,6.902744062244892120e-03,2.585558407008647919e-02,-3.260957822203636169e-02,-1.867495849728584290e-02,2.502010669559240341e-03,-1.572502590715885162e-02,-3.113572893198579550e-04,4.498802870512008667e-02,2.158360788598656654e-03,3.340000659227371216e-02,-3.860949724912643433e-02,2.340570650994777679e-02,2.682299539446830750e-02,-2.095896936953067780e-02,1.201639417558908463e-02,1.719394885003566742e-02,9.909706562757492065e-02,5.093525350093841553e-02,-1.624309341423213482e-03,-5.114869773387908936e-02,-1.407067179679870605e-01,7.888674736022949219e-03,4.629399627447128296e-02,-1.515414752066135406e-02,-1.785944961011409760e-02,-1.008241623640060425e-02,7.977596670389175415e-02,1.184791103005409241e-01,-1.055361405014991760e-01,-7.235509902238845825e-02,-1.272416114807128906e-01,-1.715295203030109406e-02,4.357068613171577454e-02,1.860040798783302307e-02,1.966732926666736603e-02,-2.141995355486869812e-03,-3.561679972335696220e-03,4.540369659662246704e-02,-3.362152352929115295e-02,4.208611696958541870e-02,-5.834217742085456848e-02,-7.795608602464199066e-03,3.229517117142677307e-02,-2.159066312015056610e-02,-4.092491045594215393e-02,1.478086411952972412e-02,1.372718513011932373e-01,8.341719955205917358e-02,-4.241710156202316284e-02,5.244930274784564972e-03,-1.649944037199020386e-01,-1.753173209726810455e-02,4.755792021751403809e-02,-4.337496683001518250e-02,-6.547024846076965332e-02,-1.449296541977673769e-04,1.254533231258392334e-01,3.181899338960647583e-02,6.194965168833732605e-02,-1.035726293921470642e-01,-1.280678659677505493e-01,2.323261648416519165e-02,2.809740416705608368e-02,5.595564376562833786e-03,-4.598511755466461182e-02,-5.432301759719848633e-02,-2.395146153867244720e-02,1.044323947280645370e-02,-2.186666801571846008e-02,-1.447106432169675827e-02,-1.909331232309341431e-02,8.059875108301639557e-03,5.009015277028083801e-02,1.819892972707748413e-02,3.541943151503801346e-04,-2.336034551262855530e-02,-2.627997472882270813e-02,-3.021023876499384642e-04,-2.306177467107772827e-02,6.542245857417583466e-03,-9.456618875265121460e-02,7.382993353530764580e-04,6.821253150701522827e-02,-1.805164664983749390e-02,-3.456781804561614990e-02,1.475524250417947769e-02,-5.242187902331352234e-02,1.679652333259582520e-01,-3.357391338795423508e-03,4.419462755322456360e-02,-1.121022775769233704e-01,5.987559258937835693e-02,-2.610599622130393982e-02,8.907135576009750366e-02,-1.238260567188262939e-01,6.270414683967828751e-03,2.583418972790241241e-02,-3.323021158576011658e-02,1.408145017921924591e-02,-6.418690085411071777e-02,-4.563195258378982544e-02,1.127570308744907379e-02,1.018812134861946106e-01,-3.400988131761550903e-02,-6.910674273967742920e-03,-1.775859482586383820e-02,-1.857639476656913757e-02,6.512552965432405472e-03,-7.058985531330108643e-02,3.772433474659919739e-02,-8.465364575386047363e-02,-8.060010522603988647e-02,4.909712448716163635e-02,-2.839161083102226257e-02,-2.976093068718910217e-02,8.781391195952892303e-03,3.386314213275909424e-02,3.490386158227920532e-02,-2.047710865736007690e-02,-3.904913365840911865e-02,-1.358093041926622391e-02,-1.225114450789988041e-03,4.816919937729835510e-02,-6.477138027548789978e-03,-4.105662181973457336e-02,1.488226000219583511e-02,1.035441160202026367e-01,1.388260815292596817e-02,-3.498841449618339539e-02,5.938888713717460632e-02,-2.082130759954452515e-01,1.939809322357177734e-02,7.774183899164199829e-02,-6.354617327451705933e-02,-1.434063352644443512e-02,-2.232026681303977966e-02,-1.545854937285184860e-02,1.729022711515426636e-01,4.900819063186645508e-02,-3.250356763601303101e-02,-5.506932735443115234e-02,4.730921611189842224e-02,2.559604821726679802e-03,7.117778062820434570e-02,-1.613166481256484985e-01,-7.419635355472564697e-02,-7.446966320276260376e-02,1.404228340834379196e-02,-2.997827902436256409e-02,-2.779659070074558258e-02,-5.386663973331451416e-02,-4.138802178204059601e-03,4.120809584856033325e-02,-5.239530652761459351e-02,3.727329021785408258e-04,9.897447191178798676e-03,-6.778196431696414948e-03,2.904269471764564514e-02,-6.399755366146564484e-03,4.348299279808998108e-02,-6.435222178697586060e-02,-5.711348354816436768e-02,1.629681698977947235e-02,-6.343653798103332520e-02,-4.866426065564155579e-02,-3.822758048772811890e-02,-5.085821077227592468e-02,-1.984782284125685692e-03,-6.356406211853027344e-02,3.012474253773689270e-02,-4.800641164183616638e-02,-1.554070273414254189e-03,6.456997711211442947e-03,8.999547921121120453e-03,3.135963575914502144e-03,5.596632603555917740e-03,9.766685217618942261e-02,1.403726544231176376e-02,-1.267073489725589752e-02,2.415502443909645081e-02,-9.467243403196334839e-02,4.223046824336051941e-02,1.323211286216974258e-02,5.811716988682746887e-02,-7.297506928443908691e-02,-2.775907702744007111e-02,1.055593509227037430e-02,3.658790886402130127e-02,-1.691021770238876343e-02,-1.560412999242544174e-02,-1.736312545835971832e-02,3.087722137570381165e-02,8.105951710604131222e-04,2.654675766825675964e-02,-3.546262905001640320e-02,-4.959583748131990433e-05,-6.946648005396127701e-03,1.619651764631271362e-01,3.253796370700001717e-03,-2.631858550012111664e-02,-5.645952001214027405e-02,5.792245268821716309e-02,1.028711535036563873e-02,6.818621605634689331e-02,-1.253485828638076782e-01,-6.641576439142227173e-02,-5.887522175908088684e-02,1.840513944625854492e-01,3.787179291248321533e-02,-8.839545398950576782e-02,6.531000882387161255e-02,5.471576377749443054e-02,-4.619862884283065796e-02,7.974255830049514771e-02,-1.566537618637084961e-01,-1.119404807686805725e-01,-2.179656364023685455e-02,-8.925828151404857635e-03,-5.934075638651847839e-02,1.697676628828048706e-02,-4.568966850638389587e-02,-1.217663194984197617e-02,5.777342990040779114e-02,-2.465508179739117622e-03,1.235377974808216095e-02,-1.672417297959327698e-02,-4.924215003848075867e-02,5.376911535859107971e-02,-1.618684642016887665e-02,-4.390361253172159195e-03,-1.451809890568256378e-02,-6.501478608697652817e-03,-4.763667937368154526e-03,4.637981764972209930e-03,-7.724603638052940369e-03,-3.026350773870944977e-02,-7.037229370325803757e-03,2.027402073144912720e-02,-4.462022334337234497e-02,-4.229317605495452881e-02,-9.349599480628967285e-02,-1.983780786395072937e-02,4.396114125847816467e-02,-2.291819825768470764e-02,-3.966943919658660889e-02,2.024638839066028595e-02,-6.177468970417976379e-02,8.365148678421974182e-03,-8.770877867937088013e-02,6.377673149108886719e-02,-5.018261447548866272e-02,-4.280146956443786621e-02,-1.614257693290710449e-03,-3.176499158143997192e-02,-3.428465873003005981e-02,-3.528296202421188354e-02,-5.537845566868782043e-02,4.419416561722755432e-02,-5.776604637503623962e-02,-1.332257688045501709e-02,-5.872154235839843750e-02,1.528045907616615295e-02,8.076223731040954590e-02,-5.244450643658638000e-02,-1.845846511423587799e-02,9.144921787083148956e-03,-6.811936199665069580e-02,-1.784995570778846741e-02,-3.775973618030548096e-02,5.712224915623664856e-02,-3.076386265456676483e-02,-3.171403426676988602e-03,3.053151443600654602e-02,-1.265580765902996063e-02,-5.213080346584320068e-02,-3.934714570641517639e-02,1.445587631314992905e-02,1.712903380393981934e-02,-5.174755677580833435e-02,2.651894651353359222e-02,-7.095894962549209595e-02,-3.530849516391754150e-02,3.238489851355552673e-02,2.815662138164043427e-02,1.018143724650144577e-02,-1.131664612330496311e-03,-1.698666065931320190e-02,5.988531559705734253e-02,4.234914667904376984e-03,9.573323652148246765e-03,-3.011154197156429291e-02,2.725864574313163757e-02,-6.274831295013427734e-02,3.593118861317634583e-02,-1.570921763777732849e-02,-4.597299266606569290e-03,3.246719762682914734e-02,5.212360620498657227e-02,5.452510435134172440e-03,3.148810192942619324e-02,-3.294002264738082886e-02,-1.693364791572093964e-02,3.704872354865074158e-02,4.307979717850685120e-02,-5.736554786562919617e-02,1.777142100036144257e-02,-7.559743709862232208e-03,7.787464559078216553e-02,1.463596057146787643e-02,-1.880970969796180725e-02,-8.326940983533859253e-02,3.230881318449974060e-02,3.708537667989730835e-02,8.182188868522644043e-02,-4.321371018886566162e-02,2.904183603823184967e-02,3.289083484560251236e-03,5.238694325089454651e-02,-2.141551487147808075e-02,-2.877262793481349945e-02,-3.105160966515541077e-02,-2.114283107221126556e-02,-1.337826158851385117e-02,-3.902838379144668579e-02,2.863638568669557571e-03,-7.756155449897050858e-03,3.640353307127952576e-02,-8.733635768294334412e-03,-2.000456862151622772e-02,1.828621700406074524e-02,-1.000522896647453308e-01,2.579667605459690094e-03,1.774731837213039398e-02,1.863414887338876724e-03,-5.368091538548469543e-02,-1.103566586971282959e-02,-1.312548965215682983e-01,-6.122129037976264954e-02,-2.962580695748329163e-02,-1.280092820525169373e-02,-2.092729955911636353e-01,-7.827238738536834717e-02,2.629578709602355957e-01,-9.304552525281906128e-02,-3.045031614601612091e-02,-2.621562220156192780e-02,1.116114556789398193e-01,7.271552085876464844e-02,-3.260690718889236450e-02,-7.673068344593048096e-02,-1.129106581211090088e-01,8.737224154174327850e-03,8.784873038530349731e-02,4.160721972584724426e-02,-3.500106558203697205e-02,3.117229230701923370e-02,-7.163975387811660767e-02,-9.013438224792480469e-02,-2.694129757583141327e-02,6.697230786085128784e-02,-1.481139063835144043e-01,-1.324127335101366043e-02,9.511591494083404541e-02,-1.742665842175483704e-02,-9.492788463830947876e-03,-2.858443371951580048e-02,-2.091623544692993164e-01,-6.327776610851287842e-02,-8.930487558245658875e-03,7.216081023216247559e-02,-1.598383486270904541e-02,-1.139351055026054382e-01,1.462961286306381226e-01,-7.707498222589492798e-02,-9.553604573011398315e-02,-5.526471510529518127e-02,-5.266180261969566345e-02,-2.916731871664524078e-02,-8.291961997747421265e-02,2.764586359262466431e-02,-1.266245692968368530e-01,-3.730704635381698608e-02,1.122694537043571472e-01,-4.307318478822708130e-02,-1.502348110079765320e-02,-7.209533452987670898e-02,-5.538893397897481918e-03,1.541875302791595459e-02,-5.301389377564191818e-03,-2.578314766287803650e-02,-5.474334955215454102e-02,1.349881663918495178e-02,3.624822199344635010e-02,8.203592151403427124e-03,-4.839047789573669434e-02,1.678253029240295291e-04,-1.491308510303497314e-01,-1.091834381222724915e-01,-6.690474599599838257e-02,1.234366442076861858e-03,-1.793556362390518188e-01,-7.968912273645401001e-02,1.886783093214035034e-01,-6.441628932952880859e-02,-4.303443431854248047e-02,-8.724492043256759644e-02,2.019121870398521423e-02,1.708963066339492798e-01,-4.827931150794029236e-02,3.441832959651947021e-02,-5.966804921627044678e-02,5.963055416941642761e-02,6.497683376073837280e-02,5.299985036253929138e-02,-1.496605724096298218e-01,-8.739486336708068848e-02,-2.083986550569534302e-01,-8.157696574926376343e-03,-7.675743103027343750e-02,9.330283850431442261e-02,-8.664122968912124634e-02,-5.800289288163185120e-02,1.539467722177505493e-01,-2.877113223075866699e-02,-4.694736748933792114e-02,-4.922053590416908264e-02,-1.433456242084503174e-01,-1.735070496797561646e-01,-5.842489004135131836e-02,1.003576368093490601e-01,4.023191053420305252e-03,-1.057016253471374512e-01,2.297187410295009613e-02,-6.553032249212265015e-02,-5.188063159584999084e-02,-7.466119527816772461e-02,1.547979116439819336e-01,5.610049515962600708e-02,-5.702892690896987915e-02,-5.507738888263702393e-02,-9.810016304254531860e-02,-2.804561154334805906e-05,5.110569298267364502e-02,4.189715906977653503e-02,-5.116419494152069092e-02,-2.968035079538822174e-02,-1.191220059990882874e-01,-1.650819629430770874e-01,-1.087612584233283997e-01,2.115658521652221680e-01,-2.071512490510940552e-01,-1.734597086906433105e-01,1.915301829576492310e-01,-1.630576103925704956e-01,-1.847648918628692627e-01,-6.236656382679939270e-02,-7.616895437240600586e-02,1.177576184272766113e-01,1.694184169173240662e-02,-1.043485681293532252e-04,-1.484727859497070312e-01,4.543557763099670410e-02,9.082664549350738525e-02,1.159678176045417786e-01,-2.002011686563491821e-01,3.440424799919128418e-02,-9.449384361505508423e-02,-6.238806992769241333e-02,-3.663716092705726624e-02,7.342341542243957520e-02,-1.095951497554779053e-01,-1.022806689143180847e-01,3.666994720697402954e-02,-7.206310331821441650e-02,-6.821148842573165894e-02,-4.129337891936302185e-02,-6.566716730594635010e-02,-4.170093312859535217e-02,-2.544733881950378418e-02,-1.036773715168237686e-02,-1.490765661001205444e-01,-6.658232957124710083e-02,1.567530483007431030e-01,-5.583107471466064453e-02,-6.555844843387603760e-02,-1.112059652805328369e-01,-4.923733649775385857e-04,1.630801893770694733e-02,9.706998243927955627e-03,-1.080382335931062698e-02,-1.355265974998474121e-01,-2.121085487306118011e-02,1.026884168386459351e-01,-7.897257804870605469e-02,-2.224112674593925476e-02,-1.008301004767417908e-01,-4.179590940475463867e-02,1.799521408975124359e-02,-3.347008896525949240e-04,1.953958533704280853e-02,-4.847417026758193970e-02,4.245538637042045593e-02,7.192432135343551636e-02,-4.426367580890655518e-03,3.054413537029176950e-04,2.617567079141736031e-03,-1.172767058014869690e-01,-3.527443483471870422e-02,-5.741269793361425400e-03,3.938501700758934021e-02,-1.352156251668930054e-01,-6.457397341728210449e-02,1.543607711791992188e-01,-5.797681864351034164e-03,-5.313139781355857849e-02,-1.547930482774972916e-02,-5.048241000622510910e-04,1.564636081457138062e-01,4.290549829602241516e-02,-5.149712413549423218e-02,-2.983502857387065887e-02,-3.653559088706970215e-02,1.082705333828926086e-01,4.258858039975166321e-02,-1.418101340532302856e-01,-6.327515468001365662e-03,2.473045513033866882e-02,2.120141983032226562e-01,4.405629634857177734e-02,-6.543386727571487427e-02,-8.644878119230270386e-02,9.790662676095962524e-02,2.323374524712562561e-02,7.580681890249252319e-02,-1.574038714170455933e-01,-4.364754259586334229e-02,-5.320159345865249634e-02,-5.800651013851165771e-02,-5.280997976660728455e-02,5.287161096930503845e-03,-1.287630796432495117e-01,-3.863750025629997253e-02,7.988819479942321777e-02,-6.544873863458633423e-02,-6.252924352884292603e-02,-2.290688268840312958e-02,-2.288976684212684631e-02,6.295029888860881329e-04,-8.962980657815933228e-02,6.757816672325134277e-02,-6.643541902303695679e-02,2.042406797409057617e-02,1.029565110802650452e-01,-1.750993193127214909e-03,-4.118146374821662903e-02,-2.802848070859909058e-02,-6.353276222944259644e-02,-1.639197813346982002e-03,-9.338055737316608429e-03,2.060896158218383789e-02,-6.731142103672027588e-02,-1.468224264681339264e-02,1.092463806271553040e-01,1.739888265728950500e-02,1.213058363646268845e-02,-1.620293594896793365e-02,-6.641907244920730591e-02,-1.916330866515636444e-02,-4.948554560542106628e-02,4.521687328815460205e-02,-7.296477258205413818e-02,-8.332847803831100464e-02,2.693408727645874023e-02,-3.434448316693305969e-02,-8.692691917531192303e-04,-1.321080774068832397e-01,-9.708222746849060059e-02,-2.600130811333656311e-02,-1.064445525407791138e-01,2.753574773669242859e-02,-1.301697194576263428e-01,-4.979669675230979919e-02,1.754772067070007324e-01,-3.868433088064193726e-02,-2.003696188330650330e-02,-8.395984023809432983e-02,-1.254334300756454468e-01,-1.026175096631050110e-01,-5.539602786302566528e-02,7.568039000034332275e-02,-1.099138036370277405e-01,-1.192975416779518127e-01,1.575870066881179810e-01,-7.051514834165573120e-02,-1.008687913417816162e-01,-9.732237458229064941e-02,-3.140199929475784302e-02,-3.736702352762222290e-02,-6.984875351190567017e-02,8.603025227785110474e-02,-6.862133741378784180e-02,-7.189965248107910156e-02,8.283193409442901611e-02,-5.020614713430404663e-03,-1.374055724591016769e-02,-1.205681189894676208e-01,-3.771720826625823975e-02,5.234616249799728394e-02,-1.560035347938537598e-02,-2.022400312125682831e-02,-9.240310639142990112e-03,7.242123037576675415e-02,4.247289896011352539e-02,1.040924899280071259e-02,-9.239642322063446045e-02,3.637493774294853210e-02,-8.345084637403488159e-02,-2.745731733739376068e-02,-4.482786357402801514e-02,9.949272125959396362e-02,-2.913863398134708405e-02,4.561576619744300842e-02,9.772372990846633911e-02,-8.524863980710506439e-03,-7.666002213954925537e-02,-4.464430361986160278e-02,-7.796806097030639648e-02,-5.941066890954971313e-03,-1.211818773299455643e-02,5.687239766120910645e-02,-9.956192970275878906e-02,3.461532294750213623e-02,1.306077092885971069e-01,2.188424393534660339e-02,-3.181918337941169739e-02,-1.642904430627822876e-02,1.409794948995113373e-02,1.080562453716993332e-02,-3.811145946383476257e-02,-3.893589228391647339e-02,-3.643035516142845154e-02,1.301112491637468338e-02,8.914190344512462616e-03,-1.654453016817569733e-02,-1.161904726177453995e-02,-2.537004649639129639e-02,-1.237855106592178345e-01,-2.473093569278717041e-02,-1.218243762850761414e-01,4.516653344035148621e-02,-1.753488928079605103e-01,-4.203433543443679810e-02,1.846167892217636108e-01,-1.050402522087097168e-01,-5.326466262340545654e-02,-3.796589374542236328e-02,-3.448397666215896606e-02,-1.931868940591812134e-01,-1.900042220950126648e-02,2.263060957193374634e-01,-1.185642108321189880e-01,-1.890384256839752197e-01,1.390616148710250854e-01,-1.958595961332321167e-01,-3.041749596595764160e-01,-1.688051968812942505e-01,-4.670776892453432083e-03,-4.183700680732727051e-02,1.242731139063835144e-01,-1.385089159011840820e-01,-1.913651376962661743e-01,-3.925264254212379456e-02,1.297785639762878418e-01,1.862031593918800354e-02,-1.204308867454528809e-02,-8.251226693391799927e-02,-9.808037430047988892e-02,-1.200314536690711975e-01,8.116498589515686035e-02,-4.990966245532035828e-02,-1.225956827402114868e-01,-3.934303298592567444e-02,9.848439693450927734e-02,-5.922352895140647888e-02,-9.158618748188018799e-03,-2.092863805592060089e-02,-6.523270159959793091e-02,-2.562841475009918213e-01,-3.558145463466644287e-02,5.349328368902206421e-02,-1.630176752805709839e-01,-6.214997544884681702e-02,2.108063846826553345e-01,-1.929490566253662109e-01,8.576598018407821655e-03,-1.673433184623718262e-01,-2.186224311590194702e-01,-9.470444917678833008e-02,-3.170985355973243713e-02,1.310296952724456787e-01,-1.383855640888214111e-01,-1.015934720635414124e-01,1.770951449871063232e-01,-1.642190814018249512e-01,-1.113506928086280823e-01,-1.193175092339515686e-01,1.100353077054023743e-01,4.651965573430061340e-03,1.677355146966874599e-03,-9.273783117532730103e-02,-2.070558071136474609e-01,3.581701219081878662e-02,2.063091546297073364e-01,-2.347200736403465271e-02,-2.223132178187370300e-02,-7.041319459676742554e-02,-1.209110394120216370e-01,-2.583257555961608887e-01,1.232592985033988953e-01,8.687286823987960815e-02,-1.247559785842895508e-01,-1.331078112125396729e-01,1.419226080179214478e-01,-2.455530464649200439e-01,-6.935926526784896851e-02,-8.672924339771270752e-02,-4.304474592208862305e-02,1.602239161729812622e-01,3.674063086509704590e-02,8.091852813959121704e-02,-3.871139511466026306e-02,2.290782518684864044e-02,2.416469715535640717e-02,6.149447709321975708e-02,-1.623831838369369507e-01,-6.440755724906921387e-02,3.083465155214071274e-03,-3.684469684958457947e-02,1.558285504579544067e-01,-7.159836590290069580e-02,-3.963326513767242432e-01,-1.652820780873298645e-02,1.988186985254287720e-01,-1.770492047071456909e-01,-2.151917964220046997e-01,-4.903027787804603577e-02,-1.578084379434585571e-01,-1.532509028911590576e-01,1.136310845613479614e-01,1.017427258193492889e-02,-1.233615353703498840e-01,2.620028518140316010e-02,1.377226263284683228e-01,-2.156352847814559937e-01,-7.410614192485809326e-02,-3.977926820516586304e-02,9.994732216000556946e-03,1.000618189573287964e-01,-6.077590212225914001e-02,3.644100576639175415e-02,-7.289361953735351562e-02,-3.805531188845634460e-02,4.057611152529716492e-02,7.544972002506256104e-03,-5.134972557425498962e-02,2.915649674832820892e-02,-1.105407029390335083e-01,-1.911056339740753174e-01,2.191343605518341064e-01,6.546675413846969604e-02,-2.676825523376464844e-01,-8.399140834808349609e-02,3.442041575908660889e-02,-2.464270442724227905e-01,-1.217228397727012634e-01,-1.642077416181564331e-01,-1.560509055852890015e-01,6.842025555670261383e-03,1.438385844230651855e-01,6.241941824555397034e-02,-1.227817162871360779e-01,3.899360448122024536e-02,1.383676379919052124e-01,-3.427394852042198181e-02,-2.592602968215942383e-01,1.099182409234344959e-03,-3.560508415102958679e-02,-2.418810129165649414e-02,4.931301623582839966e-02,-2.000668458640575409e-02,-1.759445965290069580e-01,-2.807332575321197510e-02,1.124169453978538513e-01,-7.001654803752899170e-02,-6.517521291971206665e-02,-1.853711158037185669e-02,-1.029359996318817139e-01,-1.640421301126480103e-01,8.637756854295730591e-02,1.958949118852615356e-02,-1.212559267878532410e-01,-1.038758158683776855e-01,3.671297430992126465e-02,-7.956490665674209595e-02,-6.855469942092895508e-02,-5.895185843110084534e-02,-3.862918913364410400e-02,-1.183894425630569458e-01,2.157031558454036713e-02,2.874775230884552002e-02,-1.351154148578643799e-01,-2.830567304044961929e-03,5.818971991539001465e-02,-9.418091922998428345e-02,-1.085571646690368652e-01,-3.489341959357261658e-02,-1.245366781949996948e-01,3.516765683889389038e-02,-1.391642391681671143e-01,2.028267830610275269e-01,-1.093881018459796906e-02,9.912905283272266388e-03,1.023873090744018555e-01,-2.243902534246444702e-02,-1.212747767567634583e-01,-3.697229549288749695e-02,-1.092007532715797424e-01,-1.336781233549118042e-01,-5.495758354663848877e-02,1.287380605936050415e-01,-4.725389927625656128e-02,-1.330091506242752075e-01,8.505709469318389893e-02,-1.124842688441276550e-01,-1.915924102067947388e-01,-6.960193812847137451e-02,-2.739969082176685333e-02,6.230078637599945068e-02,6.687588989734649658e-02,1.262109540402889252e-02,-1.467956751585006714e-01,1.248189713805913925e-02,7.138124108314514160e-02,1.334526836872100830e-01,-1.874323338270187378e-01,-5.721509456634521484e-02,-4.332100600004196167e-02,2.533958256244659424e-01,6.829010695219039917e-02,-2.398243919014930725e-02,-2.622839622199535370e-02,-4.190549626946449280e-02,-5.704573914408683777e-02,5.477727949619293213e-02,-9.161793440580368042e-02,-6.037846952676773071e-02,-7.281086593866348267e-02,-1.441568583250045776e-01,9.988570958375930786e-02,-5.601282045245170593e-02,-1.935446709394454956e-01,-2.828044630587100983e-02,7.834881544113159180e-02,-1.297186464071273804e-01,-8.133003860712051392e-02,-2.135606855154037476e-02,-1.260825991630554199e-01,-1.070207506418228149e-01,2.386017143726348877e-01,-7.245740294456481934e-02,-1.318176090717315674e-01,3.675260022282600403e-02,6.330747157335281372e-02,-7.102050632238388062e-02,-3.737516328692436218e-02,1.611592806875705719e-02,-1.374868750572204590e-01,-1.288541108369827271e-01,-3.275031223893165588e-02,6.403621286153793335e-02,-1.110121160745620728e-01,-6.221772357821464539e-02,1.236501857638359070e-01,-1.587346941232681274e-01,-1.196221783757209778e-01,-9.359553456306457520e-02,-1.069696918129920959e-01,-1.153194531798362732e-01,1.078512370586395264e-01,-9.606441855430603027e-02,-2.053327113389968872e-01,-3.346844762563705444e-02,5.560033768415451050e-02,-1.105981692671775818e-01,-9.903597831726074219e-02,-2.376860380172729492e-02,-1.206746026873588562e-01,-2.359296530485153198e-01,2.153148502111434937e-01,-7.824233919382095337e-02,-2.792313098907470703e-01,-4.396840929985046387e-02,7.606957852840423584e-02,-1.621918380260467529e-01,-9.042456746101379395e-02,-1.263226866722106934e-01,-1.258958429098129272e-01,-1.836506277322769165e-01,1.230166852474212646e-01,3.977086860686540604e-03,-1.307910531759262085e-01,-6.782243400812149048e-02,1.740508899092674255e-02,-2.017722278833389282e-01,-3.548549860715866089e-02,-9.384437650442123413e-02,-7.496980577707290649e-02,-1.112741157412528992e-01,1.137364059686660767e-01,-3.045705333352088928e-02,-1.711342483758926392e-01,-5.817715078592300415e-02,1.153033450245857239e-01,-8.126214891672134399e-02,-5.825440585613250732e-02,-6.136129796504974365e-02,-8.622312918305397034e-03,4.928760230541229248e-02,9.884108789265155792e-03,5.564022436738014221e-02,-6.291547417640686035e-02,-7.574851159006357193e-03,9.957659989595413208e-03,-5.797053687274456024e-03,-1.306062340736389160e-01,3.943676128983497620e-02,-1.017854437232017517e-01,-6.345732510089874268e-02,9.091705083847045898e-03,8.043161779642105103e-02,-1.038402840495109558e-01,-4.958157986402511597e-02,1.348584890365600586e-01,-6.374755501747131348e-02,-6.044167652726173401e-02,-5.818469822406768799e-02,3.846583515405654907e-02,-2.223986573517322540e-02,2.636003494262695312e-01,-1.147278919816017151e-01,-3.388135731220245361e-01,2.507922798395156860e-02,7.766655832529067993e-02,-3.460697829723358154e-02,-1.286681294441223145e-01,-2.235659398138523102e-02,-1.749378442764282227e-02,1.566113531589508057e-02,-8.956809341907501221e-02,-4.328493773937225342e-02,-1.132944524288177490e-01,3.598845377564430237e-02,1.034313291311264038e-01,-5.489756911993026733e-02,-5.633357912302017212e-02,-3.642324358224868774e-03,-1.050558984279632568e-01,-1.958608925342559814e-01,-9.502252191305160522e-02,1.554097831249237061e-01,-1.458533555269241333e-01,-1.253302544355392456e-01,1.091237738728523254e-01,-2.038979977369308472e-01,-2.073730826377868652e-01,-1.237792074680328369e-01,-1.651353836059570312e-01,-7.042507082223892212e-02,3.257314488291740417e-02,-6.794108543545007706e-03,-1.877052485942840576e-01,1.598416827619075775e-02,9.957777708768844604e-02,-2.703717052936553955e-01,-3.240717202425003052e-02,-1.657534241676330566e-01,-2.055984437465667725e-01,-9.154690802097320557e-02,2.257035225629806519e-01,-4.665952548384666443e-02,-3.075013458728790283e-01,-1.803650707006454468e-01,7.447038590908050537e-02,-5.138431489467620850e-02,-1.232286617159843445e-01,-7.972560077905654907e-02,4.770877584815025330e-02,-1.654827743768692017e-01,1.065801754593849182e-01,1.500606629997491837e-02,-1.899963170289993286e-01,-8.504542708396911621e-02,6.366923917084932327e-03,-1.215903982520103455e-01,-6.479386985301971436e-02,-4.319512471556663513e-02,4.140009358525276184e-02,-1.015160903334617615e-01,3.490136563777923584e-02,5.762409418821334839e-02,-2.037580758333206177e-01,-3.464442491531372070e-02,-3.072604164481163025e-02,-1.995304971933364868e-01,-2.512999251484870911e-02,-2.476572692394256592e-01,-2.915655970573425293e-01,-3.711919113993644714e-02,1.780074089765548706e-01,2.759051136672496796e-02,-2.315524518489837646e-01,-5.421778559684753418e-02,1.648725867271423340e-01,-2.523830831050872803e-01,-2.291873097419738770e-01,-1.634417325258255005e-01,-6.853802502155303955e-02,-4.161540046334266663e-02,-8.262643218040466309e-02,7.593317329883575439e-02,-1.524426937103271484e-01,-7.616955786943435669e-02,2.711231112480163574e-01,-1.132102161645889282e-01,-9.581237286329269409e-02,-2.617644146084785461e-03,-4.545263480395078659e-03,-1.826301217079162598e-01,1.052576899528503418e-01,-3.680667653679847717e-02,-2.496856451034545898e-01,-2.766981022432446480e-03,5.072721466422080994e-02,-2.125672101974487305e-01,2.879535034298896790e-02,-1.338852345943450928e-01,2.080030925571918488e-02,1.404381990432739258e-01,9.403651207685470581e-02,3.062604367733001709e-02,-9.450799226760864258e-02,9.606777131557464600e-02,-4.437135532498359680e-02,-2.869514375925064087e-02,-1.422888040542602539e-01,-6.302737444639205933e-02,-2.459193766117095947e-01,-8.183391392230987549e-02,-2.055196091532707214e-02,2.166239619255065918e-01,-3.484022021293640137e-01,-2.060465961694717407e-01,4.005590677261352539e-01,-2.231229990720748901e-01,-2.449449300765991211e-01,-1.459509581327438354e-01,-1.689277030527591705e-02,-1.864013671875000000e-01,1.101831197738647461e-01,-6.501770764589309692e-02,-3.101579248905181885e-01,-4.962109401822090149e-02,6.084004417061805725e-02,-1.941785216331481934e-01,7.620644755661487579e-03,-1.332837343215942383e-01,1.250878721475601196e-01,1.108114570379257202e-01,-1.440811902284622192e-01,-1.502528935670852661e-01,-1.048182994127273560e-01,-2.721549570560455322e-02,2.151595428586006165e-02,-3.848922625184059143e-02,-4.810790717601776123e-02,-1.155640110373497009e-01,-4.594947397708892822e-02,-1.364780366420745850e-01,4.078578948974609375e-02,-3.101722151041030884e-02,-2.520704567432403564e-01,5.719943717122077942e-02,6.978468596935272217e-02,-2.336076647043228149e-01,3.902915120124816895e-02,-2.193458676338195801e-01,-3.889049589633941650e-02,9.491200745105743408e-02,1.894341707229614258e-01,-4.568669572472572327e-02,-2.463752776384353638e-01,-4.810731112957000732e-02,-6.408888846635818481e-02,-6.552275270223617554e-02,-4.911854863166809082e-02,2.658201009035110474e-02,-4.017825424671173096e-02,-1.841274946928024292e-01,1.418158560991287231e-01,2.165461890399456024e-03,-1.519149392843246460e-01,-4.766131192445755005e-02,1.639128848910331726e-02,-1.688570976257324219e-01,-4.215225577354431152e-02,-1.172414124011993408e-01,-1.219642609357833862e-01,-1.324493885040283203e-01,1.757343262434005737e-01,1.847732998430728912e-02,-2.370543628931045532e-01,-8.199714869260787964e-02,6.661326438188552856e-02,-1.387027502059936523e-01,-5.260189250111579895e-02,-8.765416592359542847e-02,-2.225575409829616547e-02,-2.967819944024085999e-02,1.046220958232879639e-01,3.566624596714973450e-03,-1.465129703283309937e-01,-1.686629354953765869e-01,4.452413693070411682e-02,-1.159250885248184204e-01,-7.126475125551223755e-02,-9.607372432947158813e-02,-1.884129941463470459e-01,1.156065147370100021e-02,1.708740741014480591e-02,3.505888581275939941e-02,-2.188042551279067993e-01,9.475400298833847046e-02,1.596779674291610718e-01,-8.913216739892959595e-02,-5.518479645252227783e-02,-3.326658532023429871e-02,-2.367075160145759583e-02,-2.664749026298522949e-01,2.048435807228088379e-01,4.488257691264152527e-03,-3.307444155216217041e-01,-4.364145547151565552e-02,-3.593537257984280586e-05,-1.526636630296707153e-01,-4.998994991183280945e-02,-5.354316160082817078e-02,-1.117900386452674866e-01,2.149985581636428833e-01,1.213186606764793396e-01,-1.630267687141895294e-02,-1.875360310077667236e-01,5.398483201861381531e-02,6.653397530317306519e-02,4.476174339652061462e-02,-1.836623549461364746e-01,-1.312182098627090454e-02,3.806164488196372986e-02,8.013869822025299072e-02,1.519802492111921310e-02,1.648764498531818390e-02,-3.685450181365013123e-02,-1.440999098122119904e-02,-5.409872531890869141e-02,6.381937116384506226e-02,-1.044782772660255432e-01,-2.112817950546741486e-02,-1.402935832738876343e-01,-8.380895853042602539e-02,1.537022143602371216e-01,1.560110598802566528e-02,-1.387527883052825928e-01,-2.010849267244338989e-01,4.708144813776016235e-02,-1.185178458690643311e-01,-1.184696629643440247e-01,-1.250043064355850220e-01,-2.281883955001831055e-01,-5.671531707048416138e-02,1.772440522909164429e-01,6.463310867547988892e-02,-2.615661621093750000e-01,-1.095132380723953247e-01,6.639231741428375244e-02,-1.042642816901206970e-01,-1.614045500755310059e-01,-9.583409875631332397e-02,-1.456364840269088745e-01,-1.693246699869632721e-02,1.466350406408309937e-01,-9.198290854692459106e-02,-2.452895343303680420e-01,-5.913926288485527039e-02,1.003183573484420776e-01,-1.463916301727294922e-01,-1.422220021486282349e-01,-1.088958084583282471e-01,-1.198228672146797180e-01,-1.514694094657897949e-01,1.576902717351913452e-01,2.171996980905532837e-03,-2.685338258743286133e-01,-1.804585903882980347e-01,5.963755771517753601e-02,-1.488117873668670654e-01,-1.011643260717391968e-01,-1.334408670663833618e-01,-1.696681082248687744e-01,-2.633603215217590332e-01,2.223267108201980591e-01,-6.079223752021789551e-02,-2.902018129825592041e-01,-8.575419336557388306e-02,1.750471070408821106e-02,-1.558473706245422363e-01,-1.723894476890563965e-01,-1.291139274835586548e-01,-4.868558049201965332e-02,-1.968954503536224365e-01,1.384910941123962402e-01,9.180270880460739136e-02,-3.276777863502502441e-01,-1.495046913623809814e-02,3.072694316506385803e-02,-2.454360723495483398e-01,-8.230878412723541260e-02,-1.746777743101119995e-01,-9.132150560617446899e-02,-1.965668499469757080e-01,1.709866672754287720e-01,1.704668998718261719e-02,-3.149963319301605225e-01,-5.506689846515655518e-02,4.915019124746322632e-02,-1.433337479829788208e-01,-7.688602805137634277e-02,-1.315128654241561890e-01,-3.191465139389038086e-02,5.558403581380844116e-02,-4.158398602157831192e-03,-1.139411702752113342e-03,-1.250684559345245361e-01,3.025901736691594124e-03,8.789695054292678833e-02,-1.059066876769065857e-02,-2.592009678483009338e-02,-3.554048715159296989e-03,-2.314944565296173096e-02,-1.389606744050979614e-01,7.789624482393264771e-02,8.719006925821304321e-02,-2.343385368585586548e-01,6.002987176179885864e-02,6.575661152601242065e-02,-1.619307100772857666e-01,-9.451404213905334473e-02,-8.616427332162857056e-02,-1.407843530178070068e-01,7.152189314365386963e-02,-1.125324293971061707e-01,1.902748048305511475e-01,-2.384400516748428345e-01,-1.218566298484802246e-01,3.662218749523162842e-01,-5.576647445559501648e-02,-2.455302625894546509e-01,-1.011342704296112061e-01,-6.015945971012115479e-02,-2.612517215311527252e-02,5.678032524883747101e-03,1.089646201580762863e-02,-1.589017510414123535e-01,-6.373689323663711548e-02,1.854707896709442139e-01,-7.013877481222152710e-02,-4.035766795277595520e-02,-1.890214905142784119e-02,-1.575606167316436768e-01,-1.064882725477218628e-01,1.559541821479797363e-01,-3.576937317848205566e-02,-2.303509414196014404e-01,-2.067198976874351501e-02,8.011764287948608398e-02,-1.552363485097885132e-01,-1.942512392997741699e-01,-7.215033471584320068e-02,-9.321668744087219238e-02,-1.474699229001998901e-01,6.216473504900932312e-02,3.290953859686851501e-02,-1.853463649749755859e-01,-7.959152758121490479e-02,2.196995355188846588e-02,-2.646033465862274170e-01,-4.358968883752822876e-02,-3.271483480930328369e-01,-1.500055193901062012e-01,1.006623506546020508e-01,2.209116816520690918e-01,-1.691861301660537720e-01,-9.576975554227828979e-02,-4.349070787429809570e-01,-1.145498752593994141e-01,-5.183664709329605103e-02,-2.278223335742950439e-01,-7.105972617864608765e-02,-4.103155434131622314e-02,-1.188718304038047791e-01,1.541041731834411621e-01,3.030088730156421661e-03,-1.868026554584503174e-01,-1.827477365732192993e-01,2.390940859913825989e-02,-9.132153540849685669e-02,-9.997904300689697266e-02,-1.115858256816864014e-01,-4.429185763001441956e-02,-1.889000833034515381e-01,1.767804026603698730e-01,8.903478737920522690e-05,-2.323270887136459351e-01,-4.934825748205184937e-02,-6.469623185694217682e-03,-3.306210041046142578e-01,-4.116489365696907043e-02,-3.653530776500701904e-01,-1.446111351251602173e-01,1.151752620935440063e-01,9.782537817955017090e-02,-1.712642610073089600e-02,-1.707930117845535278e-01,-5.515383929014205933e-02,4.836739506572484970e-03,-2.210901677608489990e-01,-1.342961192131042480e-01,-2.928300797939300537e-01,-5.436502024531364441e-02,3.518498688936233521e-02,1.729752123355865479e-01,-1.590981036424636841e-01,-1.790788024663925171e-01,-6.712623685598373413e-02,6.329865753650665283e-02,-8.715386688709259033e-02,-2.795711755752563477e-01,-5.525796115398406982e-02,-6.661575287580490112e-02,-1.007972732186317444e-01,1.500768819823861122e-03,7.866615802049636841e-02,-2.191096842288970947e-01,-2.585152722895145416e-02,4.528766125440597534e-02,-2.009620815515518188e-01,-2.618891745805740356e-02,-2.688944041728973389e-01,-1.183734834194183350e-01,5.277608335018157959e-02,8.786536753177642822e-02,-9.766725450754165649e-02,-1.343103498220443726e-01,1.288232058286666870e-01,4.416767507791519165e-02,1.162200421094894409e-01,-1.199164241552352905e-01,-5.266141518950462341e-02,-2.584267556667327881e-01,7.754860818386077881e-02,2.162308543920516968e-01,-1.372718214988708496e-01,-2.030690461397171021e-01,-1.983013451099395752e-01,6.555665284395217896e-02,-2.044226974248886108e-01,-2.367054373025894165e-01,-2.062896192073822021e-01,-2.268213313072919846e-03,5.751128774136304855e-03,1.007903069257736206e-01,4.242358729243278503e-02,-2.734797000885009766e-01,-1.284695714712142944e-01,3.283849358558654785e-02,-1.287090033292770386e-01,-1.332845725119113922e-02,-1.802209615707397461e-01,6.585072726011276245e-02,5.637479573488235474e-02,-2.310897596180438995e-02,-3.831246122717857361e-02,-1.236569061875343323e-01,-2.697274647653102875e-02,8.338757907040417194e-04,-6.200340390205383301e-02,-1.110634133219718933e-01,-9.823334217071533203e-02,-8.716274052858352661e-02,3.206065669655799866e-02,1.189181581139564514e-01,-5.553527548909187317e-02,-2.523585855960845947e-01,-4.098920151591300964e-02,9.760208427906036377e-02,-2.696313560009002686e-01,-2.703884057700634003e-02,-3.111006319522857666e-01,-6.526185199618339539e-03,1.061807423830032349e-01,2.061059921979904175e-01,-8.491854369640350342e-02,-1.673231869935989380e-01,2.589600160717964172e-03,5.598466843366622925e-02,-1.163370558060705662e-03,-1.451678872108459473e-01,-1.124818995594978333e-01,-2.637059986591339111e-02,-1.062940284609794617e-01,9.814608842134475708e-02,1.104953736066818237e-01,-2.469047158956527710e-01,-1.240572407841682434e-01,6.000703573226928711e-02,-1.128554269671440125e-01,-3.888824582099914551e-02,-1.298818290233612061e-01,-1.339898556470870972e-01,3.583329170942306519e-02,1.054570153355598450e-01,-1.103885844349861145e-02,-1.479667425155639648e-01,-1.551404893398284912e-01,1.306068059056997299e-02,-1.187913119792938232e-01,-9.326931834220886230e-02,-1.183704510331153870e-01,4.032288119196891785e-02,1.259420253336429596e-02,5.081643164157867432e-02,1.759661734104156494e-02,-8.813993632793426514e-02,-3.783722221851348877e-02,-1.576852425932884216e-02,-8.549278974533081055e-02,-8.642947673797607422e-02,-1.703671813011169434e-01,-7.800090312957763672e-02,-6.366013735532760620e-02,4.216047376394271851e-02,6.527563184499740601e-02,-1.917571127414703369e-01,1.836727606132626534e-03,7.054582238197326660e-02,-3.738877922296524048e-02,-1.606892198324203491e-01,-6.095613539218902588e-02,-1.461973413825035095e-02,-2.011364251375198364e-01,1.251771748065948486e-01,1.754672974348068237e-01,-2.737640440464019775e-01,-1.233763992786407471e-01,2.387779578566551208e-02,-2.046693265438079834e-01,-1.224253028631210327e-01,-1.836832910776138306e-01,-1.021430715918540955e-01,1.769202351570129395e-01,6.152819097042083740e-02,-5.070158839225769043e-02,-1.269343495368957520e-01,1.892174780368804932e-02,6.491474807262420654e-02,6.668251752853393555e-02,-1.655052304267883301e-01,-1.317717283964157104e-01,-2.269450388848781586e-02,1.366124749183654785e-01,-2.497652545571327209e-02,8.340276032686233521e-02,-3.428450971841812134e-02,4.592786356806755066e-02,-4.160519316792488098e-02,-1.015596650540828705e-02,-1.248442754149436951e-01,-5.643988028168678284e-02,-4.066248238086700439e-02,3.065589442849159241e-02,5.503171682357788086e-02,5.350001156330108643e-02,-1.524976342916488647e-01,-1.795819997787475586e-01,-3.293333575129508972e-02,-1.242061257362365723e-01,-8.405968546867370605e-02,-1.114202290773391724e-01,-8.967596292495727539e-02,1.818278580904006958e-01,1.004305761307477951e-02,-1.089390646666288376e-02,-8.006599731743335724e-03,-1.545446664094924927e-01,-6.381737533956766129e-03,-1.307608187198638916e-01,-1.953784227371215820e-01,-1.484159976243972778e-01,-9.407009184360504150e-02,-1.089257895946502686e-01,1.378935724496841431e-01,1.937249116599559784e-02,-1.087516397237777710e-01,-1.372680664062500000e-01,2.424968843115493655e-04,-1.685955226421356201e-01,-1.084401533007621765e-01,-1.746355295181274414e-01,-4.109917208552360535e-02,1.398125290870666504e-01,1.263823639601469040e-02,1.450760848820209503e-02,-2.625369429588317871e-01,-1.238554194569587708e-01,7.080024480819702148e-02,-1.048126742243766785e-01,-7.435798645019531250e-02,-1.834279745817184448e-01,-1.181753203272819519e-01,7.219956070184707642e-02,9.984270483255386353e-02,8.716405369341373444e-03,-9.254787117242813110e-02,-2.623551189899444580e-01,-2.695142477750778198e-02,-1.615258306264877319e-01,-1.771451681852340698e-01,-1.945791840553283691e-01,-5.739149451255798340e-02,1.200820412486791611e-02,3.579343855381011963e-02,1.028913725167512894e-02,-2.342805117368698120e-01,-3.822553157806396484e-02,1.185871288180351257e-02,-1.805531084537506104e-01,-3.944872692227363586e-02,-2.099598050117492676e-01,-5.509570986032485962e-02,-1.877462677657604218e-02,9.746599197387695312e-02,3.308188542723655701e-02,-1.957740783691406250e-01,-2.015833556652069092e-01,-3.616678342223167419e-02,-1.084699481725692749e-01,-9.409008920192718506e-02,-1.419741213321685791e-01,-1.072315052151679993e-01,1.044712066650390625e-01,-1.572349108755588531e-02,-2.355681173503398895e-02,-7.816372811794281006e-02,-2.389583922922611237e-02,1.229444295167922974e-01,-7.461998611688613892e-03,-6.055902689695358276e-02,-5.954017862677574158e-02,-1.608793390914797783e-03,-1.195673421025276184e-01,1.532110720872879028e-01,5.104905739426612854e-02,-3.215847015380859375e-01,-2.452420070767402649e-03,-1.208020560443401337e-02,-1.393253952264785767e-01,-1.667237877845764160e-01,-2.036134302616119385e-01,-1.553442627191543579e-01,1.341873556375503540e-01,2.063513398170471191e-01,-1.690064221620559692e-01,-1.334930807352066040e-01,-4.537072032690048218e-02,1.241316087543964386e-02,-4.374587908387184143e-02,-2.619774639606475830e-01,-4.989219829440116882e-02,-1.115722656250000000e-01,8.041528053581714630e-03,6.295838207006454468e-02,-1.122102607041597366e-02,-2.071105241775512695e-01,-1.508620381355285645e-01,1.756316721439361572e-01,-3.840144351124763489e-02,-1.810439527034759521e-01,-8.303353935480117798e-02,-1.032026335597038269e-01,-1.423298716545104980e-01,7.657580077648162842e-02,6.305891275405883789e-02,-2.520460486412048340e-01,-8.955613523721694946e-02,1.177830994129180908e-01,-2.326148301362991333e-01,-4.007185623049736023e-02,-2.148905247449874878e-01,-4.276762902736663818e-02,-4.728271067142486572e-02,-5.761628039181232452e-03,5.984931066632270813e-02,-2.366521507501602173e-01,-7.027502357959747314e-02,1.273799240589141846e-01,-3.339784443378448486e-01,2.340320311486721039e-02,-3.294381499290466309e-01,-2.736877799034118652e-01,1.877615004777908325e-01,5.136236548423767090e-02,-1.298876106739044189e-01,6.894744001328945160e-03,-4.337123632431030273e-01,-3.710710629820823669e-02,-4.699237644672393799e-02,-2.938897311687469482e-01,-2.399968355894088745e-01,-7.821756601333618164e-02,-2.286672405898571014e-02,5.275943502783775330e-02,7.627435028553009033e-02,-8.335527032613754272e-02,-1.866181790828704834e-01,-2.523263357579708099e-02,-6.189028918743133545e-02,-1.138298064470291138e-01,-8.688404411077499390e-02,-3.640159592032432556e-02,-1.357538402080535889e-01,3.141205012798309326e-02,-5.111549794673919678e-02,-2.190319895744323730e-01,-3.506301343441009521e-02,1.527781784534454346e-01,-3.110170364379882812e-01,-1.057389285415410995e-02,-3.612752258777618408e-01,-1.557742655277252197e-01,1.156024634838104248e-01,3.412820771336555481e-02,-8.905411511659622192e-02,-1.719825565814971924e-01,-1.083694547414779663e-01,5.508311465382575989e-02,-1.742386519908905029e-01,-1.608350430615246296e-04,-2.717576622962951660e-01,-1.074738278985023499e-01,3.189917802810668945e-01,-1.752732545137405396e-01,-2.330193668603897095e-01,-8.403083682060241699e-02,-1.919668614864349365e-01,5.972777679562568665e-02,-8.003138750791549683e-02,-1.402512788772583008e-01,-1.807743459939956665e-01,-1.222261860966682434e-01,-4.762094095349311829e-02,4.264435917139053345e-02,1.772789168171584606e-03,-1.075884178280830383e-01,-7.199209928512573242e-02,9.297909587621688843e-02,-2.354736030101776123e-01,-3.834563493728637695e-02,-2.720351815223693848e-01,-2.087112516164779663e-02,5.957446619868278503e-02,4.213382676243782043e-02,-2.763947844505310059e-02,-1.054584681987762451e-01,-1.565396226942539215e-02,4.765513166785240173e-02,1.475656521506607533e-03,-8.380758017301559448e-02,-1.223619878292083740e-01,-8.947172760963439941e-02,2.309867143630981445e-01,-7.446309179067611694e-02,-1.338517963886260986e-01,-1.634118556976318359e-01,-5.572681128978729248e-02,1.431611031293869019e-01,-2.381334453821182251e-01,-1.032054498791694641e-01,-3.058616220951080322e-01,-4.065040498971939087e-02,-9.560944885015487671e-02,1.279613673686981201e-01,-1.235729176551103592e-02,-1.133399903774261475e-01,-9.647914767265319824e-02,4.086833819746971130e-02,-1.004900261759757996e-01,-1.071275621652603149e-01,-1.545927673578262329e-01,1.562415510416030884e-01,-8.903601765632629395e-02,1.275429576635360718e-01,-2.025918848812580109e-02,-1.931867152452468872e-01,-1.603168547153472900e-01,-1.136871334165334702e-02,-8.446136862039566040e-02,-1.159152612090110779e-01,-2.362481653690338135e-01,-3.205178678035736084e-02,-9.535587579011917114e-02,-4.692525544669479132e-04,-4.715473204851150513e-02,-1.423441171646118164e-01,-2.155558578670024872e-02,1.371823400259017944e-01,-2.331084609031677246e-01,8.443129062652587891e-02,-3.224244415760040283e-01,-8.083990216255187988e-02,1.682396233081817627e-01,1.835922710597515106e-03,3.754039481282234192e-02,-1.051505878567695618e-01,-1.525409054011106491e-02,6.562988460063934326e-02,-4.842554032802581787e-02,-9.681535512208938599e-02,-1.154215410351753235e-01,-4.739055037498474121e-02,6.764645129442214966e-02,1.634122058749198914e-02,8.227670192718505859e-02,-1.428934037685394287e-01,-1.633691936731338501e-01,1.227574981749057770e-02,-6.476776301860809326e-02,-1.253905445337295532e-01,-9.134267270565032959e-02,-5.182015150785446167e-02,7.485690712928771973e-02,3.127327188849449158e-02,1.645679958164691925e-02,-1.079819947481155396e-01,-9.062130749225616455e-02,4.302746430039405823e-02,-6.691230088472366333e-02,-1.039373204112052917e-01,-1.386979371309280396e-01,-8.216962451115250587e-04,7.000920921564102173e-02,9.074658155441284180e-02,-1.772283576428890228e-02,-2.251994609832763672e-01,-5.120807513594627380e-02,-2.425957098603248596e-02,-1.317984145134687424e-02,-7.793826609849929810e-02,-9.062109142541885376e-02,-8.251413702964782715e-02,3.322535194456577301e-03,-6.413175910711288452e-02,9.493548423051834106e-02,-1.582173854112625122e-01,-8.408908545970916748e-02,1.745948791503906250e-01,-7.029271870851516724e-02,-4.859463777393102646e-03,-1.657958477735519409e-01,-9.204395115375518799e-02,-8.219720795750617981e-03,1.055856496095657349e-01,2.554110996425151825e-02,-1.394141614437103271e-01,-1.837150305509567261e-01,4.621058702468872070e-02,-1.721099466085433960e-01,-4.425746202468872070e-02,-2.750019729137420654e-01,-6.501249037683010101e-03,3.687302395701408386e-02,4.024634137749671936e-02,-8.634851127862930298e-02,-1.227732747793197632e-01,8.391638100147247314e-02,1.110340356826782227e-01,1.184782758355140686e-01,-1.689198464155197144e-01,-9.258146584033966064e-02,1.354227866977453232e-02,2.503914833068847656e-01,8.185056596994400024e-02,-1.632046326994895935e-02,-4.862736910581588745e-02,5.378570035099983215e-02,-9.356558322906494141e-02,5.526759475469589233e-02,-1.940886974334716797e-01,-2.634644880890846252e-02,-1.404176205396652222e-01,9.671451151371002197e-02,6.729770451784133911e-02,7.235419936478137970e-03,-4.942024126648902893e-02,-7.209549099206924438e-02,-2.748928591609001160e-02,-7.005660980939865112e-02,-7.555773854255676270e-02,-1.046906933188438416e-01,-7.759823650121688843e-02,1.104698404669761658e-01,-2.428057976067066193e-02,-1.334941294044256210e-02,-1.460260152816772461e-01,-8.929421752691268921e-02,2.257400006055831909e-01,-1.006352379918098450e-01,-4.046865552663803101e-02,-1.827041506767272949e-01,-1.476511061191558838e-01,8.578975498676300049e-02,3.051015548408031464e-02,3.235720098018646240e-02,-7.521041482686996460e-02,-1.151092201471328735e-01,8.072745986282825470e-03,-8.488429337739944458e-02,-6.498539447784423828e-02,-1.471463441848754883e-01,-1.444648653268814087e-01,1.398012340068817139e-01,-3.405649214982986450e-02,-5.408364161849021912e-02,-1.336661279201507568e-01,-4.192581772804260254e-02,4.046313464641571045e-02,-8.521712571382522583e-02,-8.745083957910537720e-02,-8.025416731834411621e-02,-2.219928503036499023e-01,1.530743390321731567e-01,1.987702399492263794e-02,1.270370371639728546e-02,-2.097192704677581787e-01,-1.182164549827575684e-01,-2.011671289801597595e-02,-9.756790846586227417e-02,-7.211940735578536987e-02,-2.263545393943786621e-01,-1.431731432676315308e-01,5.430442094802856445e-02,-4.721821472048759460e-02,2.971931919455528259e-02,-2.520683407783508301e-01,-6.574795395135879517e-02,8.382311463356018066e-02,-1.284710764884948730e-01,-2.058893255889415741e-02,-1.818532049655914307e-01,-1.714862436056137085e-01,1.071750298142433167e-01,-6.859974563121795654e-02,5.613445490598678589e-02,-2.590006589889526367e-01,-1.717789024114608765e-01,8.228106051683425903e-02,-1.207948103547096252e-01,-4.957790300250053406e-02,-1.530556529760360718e-01,3.202520310878753662e-02,1.700694561004638672e-01,-8.494874089956283569e-02,-4.558923840522766113e-02,-1.635817140340805054e-01,-1.857647858560085297e-02,1.268827915191650391e-01,1.973670534789562225e-02,-1.031361743807792664e-01,-5.773853138089179993e-02,-7.811437547206878662e-02,-9.939822554588317871e-02,9.602472186088562012e-02,-5.508380755782127380e-02,-1.469368040561676025e-01,-2.929770573973655701e-02,1.302713900804519653e-01,-1.040853336453437805e-01,-5.099955946207046509e-02,-2.254195362329483032e-01,-1.004538834095001221e-01,2.449658960103988647e-01,-9.957989305257797241e-02,-3.225484862923622131e-02,-2.430431246757507324e-01,-4.599976353347301483e-03,1.819749921560287476e-01,-3.790211305022239685e-02,-1.536608636379241943e-01,-1.697576642036437988e-01,-7.696770876646041870e-02,2.266885340213775635e-01,-6.584187597036361694e-02,-8.501362055540084839e-02,-3.116154372692108154e-01,-1.865523457527160645e-01,4.587197303771972656e-02,-1.116666346788406372e-01,-1.494172066450119019e-01,-1.581946015357971191e-01,6.118160858750343323e-02,-2.391961030662059784e-02,-7.119274232536554337e-03,9.207998402416706085e-03,-2.145708352327346802e-01,-5.500418320298194885e-02,2.344782091677188873e-02,-1.713164746761322021e-01,4.723903164267539978e-02,-1.671034693717956543e-01,-7.299922406673431396e-03,-1.145762577652931213e-01,-1.496626250445842743e-02,7.143601775169372559e-02,-1.198219954967498779e-01,7.489178329706192017e-02,-8.004580624401569366e-03,-2.595928907394409180e-01,4.249066114425659180e-02,-4.249451160430908203e-01,-3.856308162212371826e-01,1.606047451496124268e-01,5.423098336905241013e-03,-6.837977468967437744e-02,-1.351372003555297852e-01,-1.310119628906250000e-01,8.143824338912963867e-02,-7.627750188112258911e-02,-3.316923379898071289e-01,-2.118176072835922241e-01,-8.626268059015274048e-02,5.268519371747970581e-02,1.511703897267580032e-02,7.021529227495193481e-02,-1.209170222282409668e-01,-1.162574067711830139e-01,-4.446289036422967911e-03,-6.266466528177261353e-02,-1.168944686651229858e-02,-8.848659694194793701e-02,-6.000844389200210571e-02,-1.633423566818237305e-01,6.623435765504837036e-02,-2.877736091613769531e-02,-2.261685580015182495e-02,-6.664809584617614746e-02,5.900226905941963196e-02,-2.466687411069869995e-01,1.096423901617527008e-02,-4.346902966499328613e-01,-7.192648947238922119e-02,4.150349646806716919e-02,-6.463865935802459717e-02,-2.722118981182575226e-02,-8.246850967407226562e-02,7.746349275112152100e-02,5.628935620188713074e-02,-1.688204556703567505e-01,-8.314155787229537964e-02,-3.122743070125579834e-01,-2.225510030984878540e-01,2.410680800676345825e-01,-2.421652674674987793e-01,-8.571456372737884521e-02,-1.024763435125350952e-01,-1.590463519096374512e-01,2.191481143236160278e-01,-9.008468687534332275e-02,-6.658730655908584595e-02,-1.463354825973510742e-01,-1.501189768314361572e-01,-2.137607783079147339e-01,6.456412374973297119e-02,8.743447810411453247e-02,-4.449619725346565247e-02,8.335672318935394287e-02,7.067728787660598755e-02,-1.540025174617767334e-01,-9.547666460275650024e-02,-2.572100162506103516e-01,-9.872543811798095703e-02,-7.640377432107925415e-02,1.876836828887462616e-02,5.609295517206192017e-02,-8.396495878696441650e-02,-3.680645301938056946e-02,5.740822106599807739e-02,8.713631331920623779e-02,-1.264849007129669189e-01,2.046035230159759521e-02,-9.242010861635208130e-02,1.916965842247009277e-02,2.280874177813529968e-02,-7.542544510215520859e-03,-9.406851977109909058e-02,-1.085465252399444580e-01,8.354837447404861450e-02,-1.665857583284378052e-01,-2.319617122411727905e-01,-2.728452980518341064e-01,-2.292817831039428711e-02,-5.686851590871810913e-02,6.594585627317428589e-02,-9.565125219523906708e-03,-1.016326919198036194e-01,-1.011470630764961243e-01,8.751820027828216553e-02,-7.866942137479782104e-02,-3.766385093331336975e-02,-1.358951777219772339e-01,7.547983527183532715e-02,-3.563010320067405701e-02,1.220968458801507950e-02,-7.868313044309616089e-02,-1.444953083992004395e-01,-9.077919274568557739e-02,7.174500823020935059e-02,-6.923716864548623562e-04,-1.012636125087738037e-01,-2.030729204416275024e-01,-1.085750907659530640e-01,-3.748604282736778259e-02,2.472957223653793335e-02,6.036287546157836914e-02,-1.848641224205493927e-02,-1.878822222352027893e-02,-1.688279770314693451e-02,-1.140795648097991943e-01,3.323719138279557228e-03,-3.224323391914367676e-01,-5.228310450911521912e-02,9.425777941942214966e-02,-8.450371772050857544e-02,7.121133804321289062e-02,-4.324046149849891663e-02,9.298980981111526489e-02,6.402536481618881226e-02,-1.118409074842929840e-02,-1.626118421554565430e-01,-9.267555177211761475e-02,-3.695391491055488586e-02,-4.820081405341625214e-03,1.180673167109489441e-01,4.080043174326419830e-03,-1.651674360036849976e-01,-7.769896835088729858e-02,-5.362827703356742859e-02,-6.764560937881469727e-02,-5.774669349193572998e-02,-1.551124304533004761e-01,2.008884213864803314e-02,-1.054969206452369690e-01,1.919470429420471191e-01,5.826550349593162537e-02,-2.207647711038589478e-01,-8.946536481380462646e-02,3.399145975708961487e-02,-6.388076394796371460e-02,-8.537729829549789429e-02,-2.277406305074691772e-01,4.620161652565002441e-02,-3.297032117843627930e-01,2.896751165390014648e-01,-5.066414549946784973e-02,-2.410756498575210571e-01,-5.805069208145141602e-02,1.220310572534799576e-03,-7.953282445669174194e-02,-1.007621884346008301e-01,-1.581980884075164795e-01,-5.406131967902183533e-02,8.097994327545166016e-02,1.511615235358476639e-02,-6.408841907978057861e-02,-2.845664881169795990e-02,5.229723453521728516e-02,3.334111068397760391e-03,-2.536591887474060059e-02,-1.260246187448501587e-01,-1.818150281906127930e-01,-1.185693591833114624e-01,-5.679027177393436432e-03,9.605940431356430054e-02,1.120516210794448853e-01,-1.568652503192424774e-02,-9.447348117828369141e-02,-7.917986251413822174e-03,-1.085952818393707275e-01,-2.767964899539947510e-01,-2.067744284868240356e-01,-3.178087249398231506e-02,1.503778547048568726e-01,-4.740317538380622864e-02,7.856829464435577393e-02,-6.685739755630493164e-02,-4.815816506743431091e-02,5.683274194598197937e-02,1.832597330212593079e-02,-1.736857146024703979e-01,-7.827197760343551636e-02,4.319068789482116699e-02,1.177258715033531189e-01,8.271921426057815552e-03,-1.036909176036715508e-03,-6.099413149058818817e-04,1.029740944504737854e-01,-1.612369716167449951e-02,7.664562016725540161e-02,-1.424359828233718872e-01,-5.650971457362174988e-02,-1.547171175479888916e-02,-7.033596187829971313e-02,1.752766817808151245e-01,-1.872558146715164185e-02,-1.396127492189407349e-01,3.790507093071937561e-02,5.493502132594585419e-03,-8.531327545642852783e-02,-9.880603849887847900e-02,-2.220100015401840210e-01,-5.706768855452537537e-02,4.801632836461067200e-02,-8.880116045475006104e-02,1.334306783974170685e-02,-2.310259938240051270e-01,6.952436640858650208e-03,9.673690050840377808e-02,-8.448648452758789062e-02,4.562097787857055664e-02,-1.754011809825897217e-01,-1.562006771564483643e-01,1.105581820011138916e-01,-2.995922416448593140e-02,1.196544803678989410e-02,-1.311968117952346802e-01,8.250281214714050293e-03,1.019346714019775391e-01,-7.260895520448684692e-02,2.129523456096649170e-02,-2.346636950969696045e-01,-3.632035478949546814e-02,-1.177762597799301147e-01,1.763814091682434082e-01,7.290002703666687012e-02,-2.437774389982223511e-01,7.687414996325969696e-03,4.000551253557205200e-02,-6.789740920066833496e-02,-9.206046909093856812e-02,-1.453475654125213623e-01,-5.031495541334152222e-02,8.524964004755020142e-02,-4.459557682275772095e-02,1.531763467937707901e-02,-1.867269575595855713e-01,4.682738333940505981e-02,2.410547249019145966e-02,-1.471825689077377319e-01,-1.375163793563842773e-01,-2.150711566209793091e-01,-8.621560782194137573e-02,-1.271990835666656494e-01,1.460436265915632248e-02,1.443207114934921265e-01,-4.973384365439414978e-02,-5.872645601630210876e-02,7.849951833486557007e-02,-9.577152878046035767e-02,-1.238853763788938522e-02,-1.899655163288116455e-01,-6.671969592571258545e-02,4.583453014492988586e-02,1.832623593509197235e-02,-3.560361266136169434e-02,-1.705590784549713135e-01,1.180644035339355469e-01,-8.292156271636486053e-03,-5.235483124852180481e-02,-1.088425964117050171e-01,-2.020887732505798340e-01,-2.122563719749450684e-01,1.444880217313766479e-01,-1.317890286445617676e-01,-8.984424918889999390e-02,4.982318729162216187e-02,-6.384005397558212280e-02,1.043543443083763123e-01,2.191108837723731995e-02,-5.674635991454124451e-02,-8.361102640628814697e-02,-1.153685450553894043e-01,-7.485719025135040283e-02,9.959043003618717194e-03,6.547676026821136475e-02,-7.977607846260070801e-02,9.875102341175079346e-02,2.265687845647335052e-02,-1.155042350292205811e-01,-6.487082690000534058e-02,-2.379667311906814575e-01,-1.532921642065048218e-01,-4.743818938732147217e-02,-5.631015449762344360e-02,-4.029686376452445984e-02,2.567187882959842682e-02,5.080585554242134094e-02,2.058617323637008667e-01,-5.616727471351623535e-02,-2.040599137544631958e-01,-2.042585760354995728e-01,-2.954203486442565918e-01,2.426507920026779175e-01,-2.101449817419052124e-01,-1.655668169260025024e-01,-4.529643431305885315e-02,-3.029803037643432617e-01,1.529395580291748047e-01,-9.223712980747222900e-02,-1.354443877935409546e-01,-1.412037611007690430e-01,-2.903325296938419342e-02,-9.918066859245300293e-02,5.421820282936096191e-02,-5.284524057060480118e-03,-8.735512942075729370e-02,-4.341569542884826660e-02,8.184147626161575317e-02,-8.482241630554199219e-02,-2.012499608099460602e-02,-1.861101090908050537e-01,-7.419184595346450806e-02,1.776904426515102386e-02,-2.103676088154315948e-03,7.889310270547866821e-02,-3.160897642374038696e-02,-5.546915903687477112e-02,-1.750515773892402649e-02,-1.335904151201248169e-01,2.705151960253715515e-02,-1.893234550952911377e-01,-1.320664733648300171e-01,2.690039277076721191e-01,-1.174949854612350464e-01,-2.779158651828765869e-01,-2.961288690567016602e-01,1.509105265140533447e-01,1.535546779632568359e-01,-3.061345219612121582e-02,-2.031286656856536865e-01,-2.358109503984451294e-01,-7.302971184253692627e-02,-8.632870763540267944e-02,4.071750119328498840e-02,1.376940906047821045e-01,-2.459868639707565308e-01,1.943864673376083374e-02,1.005406584590673447e-02,-4.024805128574371338e-02,-1.236761957406997681e-01,-9.268175810575485229e-02,-7.767979800701141357e-02,-5.422063171863555908e-02,4.443112015724182129e-02,4.115637764334678650e-02,-1.161665171384811401e-01,-5.864479020237922668e-02,-1.351609174162149429e-02,-1.875910460948944092e-01,3.171833977103233337e-02,-2.902306616306304932e-01,-2.741921134293079376e-02,4.529680684208869934e-02,-3.432299999985843897e-04,1.768397912383079529e-02,-1.434420645236968994e-01,6.605410575866699219e-02,-3.756472840905189514e-02,-1.137372851371765137e-01,-4.873784258961677551e-02,-2.264945060014724731e-01,-5.175600945949554443e-02,2.255812585353851318e-01,-1.202206611633300781e-01,-2.118797600269317627e-02,-1.526449918746948242e-01,-2.568474411964416504e-01,2.634909935295581818e-02,-8.603380620479583740e-02,1.386655960232019424e-02,-1.505577862262725830e-01,-3.750665858387947083e-02,-1.514292061328887939e-01,4.166965931653976440e-02,1.414034068584442139e-01,-1.391005516052246094e-01,-2.810226008296012878e-02,5.659584328532218933e-02,-6.868050992488861084e-02,-8.961980789899826050e-02,-1.316247731447219849e-01,3.231704607605934143e-02,-1.912157167680561543e-03,8.092515170574188232e-02,5.896297097206115723e-02,-2.100124023854732513e-02,-5.383648350834846497e-02,-2.553896978497505188e-03,2.127385698258876801e-02,-7.330826669931411743e-02,-1.239044368267059326e-01,-1.475143432617187500e-01,1.126935109496116638e-01,2.175145596265792847e-02,-1.822840571403503418e-01,-2.337934821844100952e-01,-2.075640410184860229e-01,1.107770279049873352e-01,-1.570139229297637939e-01,5.527436360716819763e-02,-2.402756959199905396e-01,-9.618104994297027588e-02,-7.810793817043304443e-02,4.354141652584075928e-02,3.417756780982017517e-02,-1.841936111450195312e-01,-3.363802284002304077e-02,8.070018142461776733e-02,-3.197701647877693176e-02,-1.985925994813442230e-02,-1.213397905230522156e-01,2.157520502805709839e-02,6.882775574922561646e-03,-6.480231881141662598e-02,-3.867019340395927429e-02,-2.885714471340179443e-01,-1.745075546205043793e-02,1.477355957031250000e-01,-6.153316795825958252e-02,-6.321148574352264404e-02,-1.873219162225723267e-01,-1.042789369821548462e-01,-2.034528367221355438e-02,-1.464938670396804810e-01,-1.946465298533439636e-02,-1.395637840032577515e-01,-2.073301561176776886e-02,1.326026767492294312e-01,-1.945082843303680420e-01,-2.112588286399841309e-02,-1.769664883613586426e-01,-1.566871702671051025e-01,9.023275226354598999e-02,-9.087706916034221649e-03,3.575489670038223267e-02,-1.199537515640258789e-01,1.126095559448003769e-02,7.337930798530578613e-02,-1.571359671652317047e-02,-1.604056656360626221e-01,-1.383897811174392700e-01,-2.856491692364215851e-02,-8.793697506189346313e-02,2.472704276442527771e-02,1.251954119652509689e-02,-2.376178801059722900e-01,9.599755704402923584e-02,5.764266103506088257e-02,-4.793419316411018372e-02,-8.709922432899475098e-02,-8.683609962463378906e-02,1.501507777720689774e-02,-1.147393360733985901e-01,1.367331715300679207e-03,6.106826476752758026e-03,-2.450374662876129150e-01,6.185376644134521484e-02,3.462516888976097107e-02,-6.330201774835586548e-02,-6.123224645853042603e-02,-1.800982803106307983e-01,5.942266434431076050e-02,-1.309987157583236694e-01,-7.041369378566741943e-02,-7.063969969749450684e-02,-1.406582295894622803e-01,-1.925100386142730713e-02,1.718593239784240723e-01,-5.244212597608566284e-02,5.008228588849306107e-03,-2.102693021297454834e-01,-6.353516876697540283e-02,-4.501719027757644653e-02,8.151274174451828003e-02,9.530158340930938721e-02,-9.498474746942520142e-02,-7.426131516695022583e-02,1.080185640603303909e-03,-4.289953038096427917e-02,-4.124434664845466614e-02,-1.588980704545974731e-01,-1.324246376752853394e-01,-1.394180208444595337e-01,1.558202058076858521e-01,9.041653573513031006e-02,-2.410888820886611938e-01,2.211189595982432365e-03,1.927431114017963409e-02,-1.233031526207923889e-01,-9.049281477928161621e-02,-2.556651830673217773e-01,-1.342346146702766418e-02,1.121636480093002319e-01,-6.366427987813949585e-02,-3.795139119029045105e-02,-7.511105388402938843e-02,1.464467346668243408e-01,6.744138151407241821e-02,6.777820736169815063e-02,-1.726129353046417236e-01,-8.152117580175399780e-02,7.667973637580871582e-02,8.812948316335678101e-02,2.525930106639862061e-02,-1.671584509313106537e-02,-5.198885500431060791e-02,2.676867321133613586e-02,-6.534845381975173950e-02,2.602368034422397614e-02,-1.173729896545410156e-01,-3.818093612790107727e-02,6.211080029606819153e-02,-1.451577097177505493e-01,-6.311202794313430786e-02,-7.218983769416809082e-02,-2.810411453247070312e-01,1.086918562650680542e-01,7.926888763904571533e-02,-7.446616888046264648e-02,-3.332135826349258423e-02,-2.459565550088882446e-01,-1.334416121244430542e-01,3.278030781075358391e-03,-7.626050710678100586e-02,-4.159160703420639038e-02,-2.495595514774322510e-01,5.657312273979187012e-02,1.912049800157546997e-01,-5.477249622344970703e-02,-1.743264049291610718e-01,-5.818907171487808228e-02,-1.247346624732017517e-01,4.309337213635444641e-02,3.834120556712150574e-02,-2.940521389245986938e-02,-1.938726305961608887e-01,4.525327682495117188e-02,7.836168631911277771e-03,-5.295406281948089600e-02,-7.751934975385665894e-02,-1.281162351369857788e-01,2.273183688521385193e-02,-2.981822565197944641e-02,-1.810952648520469666e-02,1.522071775980293751e-03,-1.536495089530944824e-01,5.121180787682533264e-03,5.692442879080772400e-02,-8.085063099861145020e-02,-3.539231792092323303e-02,-2.166440039873123169e-01,-6.041444092988967896e-02,-4.186638817191123962e-02,-1.248790547251701355e-01,-1.431567072868347168e-01,-2.831031084060668945e-01,1.745687574148178101e-01,7.326662540435791016e-02,-1.146173328161239624e-01,-1.371825635433197021e-01,-1.762815862894058228e-01,-4.537429660558700562e-02,-3.331483155488967896e-02,1.716507971286773682e-02,6.523850373923778534e-03,-1.195965185761451721e-01,1.089900806546211243e-01,5.644544027745723724e-03,-9.742638468742370605e-02,-5.028321593999862671e-02,-1.604420244693756104e-01,-3.915943205356597900e-02,-5.846934020519256592e-02,-1.021177694201469421e-02,-3.198741748929023743e-02,-2.048962265253067017e-01,1.175515279173851013e-01,6.063697487115859985e-02,-4.293344542384147644e-02,-8.552838116884231567e-02,-1.489163637161254883e-01,-2.566939406096935272e-02,1.447142511606216431e-01,-8.566003292798995972e-02,-8.037173002958297729e-02,-1.589649319648742676e-01,-3.969017788767814636e-02,2.519357204437255859e-01,1.039004698395729065e-02,-1.032740995287895203e-01,-1.033092886209487915e-01,-5.339896306395530701e-02,-4.374232515692710876e-02,6.627453025430440903e-03,8.806800842285156250e-02,-1.497313082218170166e-01,-4.635379463434219360e-02,2.660991437733173370e-02,-4.727692529559135437e-02,-4.329469054937362671e-02,-2.099353224039077759e-01,-4.905234649777412415e-02,9.190588444471359253e-02,5.105473473668098450e-02,-1.847121566534042358e-01,-1.962807625532150269e-01,-8.609118312597274780e-02,1.206606328487396240e-01,-3.733295574784278870e-02,-1.137975826859474182e-01,-1.642061173915863037e-01,-7.361760735511779785e-02,1.876326501369476318e-01,8.220833726227283478e-03,-2.161197513341903687e-01,-2.721343636512756348e-01,-6.089999899268150330e-02,2.373240143060684204e-01,-6.979384273290634155e-02,-1.038712412118911743e-01,-1.818874031305313110e-01,-7.385572791099548340e-02,-9.765009582042694092e-02,1.073156222701072693e-01,5.777566507458686829e-02,-9.329388290643692017e-02,-4.906902834773063660e-02,-6.612735986709594727e-02,-9.138137847185134888e-02,1.699415594339370728e-02,-1.314647793769836426e-01,-8.672700822353363037e-02,-5.473478510975837708e-02,-5.067358538508415222e-02,5.881625413894653320e-02,-7.683186978101730347e-02,-1.396415568888187408e-02,1.232646480202674866e-01,-2.039489001035690308e-01,-1.866348385810852051e-01,-1.782097816467285156e-01,-3.156794011592864990e-01,-1.914605870842933655e-02,-1.265872418880462646e-01,-2.032230049371719360e-01,-3.756556808948516846e-01,5.664139986038208008e-02,1.715839058160781860e-01,-1.919070258736610413e-02,-2.058737725019454956e-01,-7.193019986152648926e-02,-5.208341404795646667e-02,-1.373520642518997192e-01,-1.355874165892601013e-02,5.350368469953536987e-02,-1.664449721574783325e-01,2.579656988382339478e-02,8.592237532138824463e-02,-3.489852324128150940e-02,-8.693166077136993408e-02,-9.063094109296798706e-02,-8.225917071104049683e-02,-7.127533853054046631e-02,-1.115434989333152771e-01,8.360457420349121094e-02,-9.744439274072647095e-02,9.592033177614212036e-02,1.894372515380382538e-02,-1.252242475748062134e-01,-8.176364749670028687e-02,-1.303302347660064697e-01,-1.980105191469192505e-01,9.499257802963256836e-02,-1.546390354633331299e-01,-1.739625446498394012e-02,-1.494686156511306763e-01,1.674787998199462891e-01,7.452555000782012939e-02,-1.419376879930496216e-01,-8.527291566133499146e-02,-6.208171695470809937e-02,-2.816084027290344238e-01,2.680361084640026093e-02,-1.284658312797546387e-01,-2.056539654731750488e-01,-2.966797351837158203e-01,2.461410909891128540e-01,7.504797726869583130e-02,-4.006878286600112915e-02,-9.126710891723632812e-02,-8.482077717781066895e-02,-1.725070029497146606e-01,-1.507687121629714966e-01,-1.572165638208389282e-01,1.358064115047454834e-01,4.220470041036605835e-02,-1.505500730127096176e-02,1.002095043659210205e-01,-8.602219820022583008e-02,-1.223172172904014587e-01,-1.545964032411575317e-01,-1.058144122362136841e-01,1.953831687569618225e-02,-2.912423945963382721e-02,-5.682080611586570740e-02,-1.068823039531707764e-01,3.261658549308776855e-02,8.338866382837295532e-02,7.421890646219253540e-02,-1.069127768278121948e-01,-2.390220016241073608e-02,-2.561332583427429199e-01,-6.522381305694580078e-02,-1.659220159053802490e-01,-1.529041398316621780e-02,-2.167656421661376953e-01,1.465523391962051392e-01,1.888603270053863525e-01,-1.307777911424636841e-01,-7.146989554166793823e-02,-5.601463839411735535e-02,-6.405156850814819336e-02,-1.874549537897109985e-01,-1.152192279696464539e-01,1.592852473258972168e-01,-1.106955781579017639e-01,-3.949687257409095764e-02,9.620646387338638306e-02,-6.821955740451812744e-02,-1.397662162780761719e-01,-1.071755513548851013e-01,-9.898431599140167236e-02,-6.001099199056625366e-02,-1.043213382363319397e-01,-1.005612313747406006e-01,-2.481880784034729004e-01,-6.660364568233489990e-02,1.477636992931365967e-01,-1.621006987988948822e-02,-1.319570094347000122e-01,9.446268901228904724e-03,-7.648359239101409912e-02,-8.754060417413711548e-02,-1.033626571297645569e-01,5.729559063911437988e-02,2.283014915883541107e-02,1.356075424700975418e-02,1.147971078753471375e-01,-1.362951397895812988e-01,-1.014454886317253113e-01,-2.174401581287384033e-01,-8.752050995826721191e-02,8.556362241506576538e-02,-1.219756156206130981e-01,-1.535440562292933464e-03,-9.028597921133041382e-02,5.459738895297050476e-02,9.719417244195938110e-02,8.738087117671966553e-02,-1.934061348438262939e-01,-5.992006137967109680e-02,-5.452898889780044556e-02,-1.265685707330703735e-01,-1.062724292278289795e-01,8.761155605316162109e-02,-4.646265879273414612e-02,6.025640759617090225e-03,1.206813678145408630e-01,-7.287709414958953857e-02,-6.168820336461067200e-02,-1.210812181234359741e-01,-8.785074949264526367e-02,-8.683544397354125977e-02,-7.121641933917999268e-02,-1.110963448882102966e-01,-1.449996978044509888e-01,-4.143893718719482422e-02,1.785005629062652588e-01,-5.633319914340972900e-02,-3.629593923687934875e-02,-9.908564388751983643e-02,-7.787290215492248535e-02,-9.921145439147949219e-02,-7.860817015171051025e-02,-3.542867675423622131e-02,-4.489386454224586487e-02,-7.629610598087310791e-02,1.046567037701606750e-01,-2.036878280341625214e-02,-2.763506025075912476e-02,-3.769520670175552368e-02,-1.640099883079528809e-01,-5.672255903482437134e-02,-5.852823704481124878e-02,6.319770216941833496e-02,-1.227126270532608032e-01,1.318189054727554321e-01,1.158269569277763367e-01,4.884043335914611816e-02,-1.451155841350555420e-01,-9.259808808565139771e-02,-1.372109502553939819e-01,-1.762350201606750488e-01,-1.285748332738876343e-01,1.476525813341140747e-01,-1.396904140710830688e-01,-4.622650332748889923e-03,1.051817461848258972e-01,-3.266529738903045654e-02,-1.724616289138793945e-01,-1.704805493354797363e-01,-5.074335262179374695e-02,1.527637988328933716e-01,-2.890597842633724213e-02,-7.111109793186187744e-02,-3.798938542604446411e-02,1.058827936649322510e-01,7.338805496692657471e-02,1.447041630744934082e-01,-1.977624297142028809e-01,-4.102442413568496704e-02,2.699118666350841522e-02,1.852466762065887451e-01,7.548481225967407227e-03,7.396080344915390015e-02,-7.395818829536437988e-02,-2.604953199625015259e-02,-3.310690820217132568e-02,9.599941968917846680e-02,-8.069880306720733643e-02,-8.954526856541633606e-03,-1.002287566661834717e-01,4.992035217583179474e-03,-9.757003933191299438e-02,-8.671140670776367188e-02,-1.706127971410751343e-01,3.057187423110008240e-02,1.300547569990158081e-01,-5.662337690591812134e-02,-6.717145442962646484e-02,-7.974721491336822510e-02,-2.156709283590316772e-01,-1.615873351693153381e-02,-1.948194801807403564e-01,-2.013405412435531616e-01,1.495900601148605347e-01,1.875138841569423676e-02,2.352559715509414673e-01,-2.316910214722156525e-02,-1.423083394765853882e-01,-9.714436531066894531e-02,-8.553279936313629150e-02,1.344413589686155319e-02,-1.264820396900177002e-01,-2.599170990288257599e-02,-1.721501499414443970e-01,4.184205457568168640e-02,1.230468451976776123e-01,-7.244837284088134766e-02,-6.595141440629959106e-02,-9.936846047639846802e-02,-8.073436468839645386e-02,-1.234383583068847656e-01,-5.715247243642807007e-02,-3.839435800909996033e-02,-5.259016901254653931e-02,-3.761324658989906311e-02,1.253600120544433594e-01,-8.998442441225051880e-02,-7.163026928901672363e-02,-7.412982732057571411e-02,-1.352531462907791138e-01,-6.041222810745239258e-02,-1.478296667337417603e-01,-1.072897613048553467e-01,-1.539062559604644775e-01,-1.272129118442535400e-01,2.163155376911163330e-01,-3.889438509941101074e-02,-3.184791654348373413e-02,-1.254938840866088867e-01,-1.231620609760284424e-01,-7.430829852819442749e-02,-1.118134409189224243e-01,9.713982790708541870e-02,-4.361110553145408630e-02,2.448374032974243164e-02,8.952832221984863281e-02,-1.073035895824432373e-01,-1.609036326408386230e-01,-1.879565715789794922e-01,-5.542477592825889587e-02,-1.166026294231414795e-01,-3.966296091675758362e-02,6.104972679167985916e-03,-1.710275113582611084e-01,-3.009762242436408997e-02,6.617869436740875244e-02,-3.450017049908638000e-02,-8.274010568857192993e-02,-9.532999992370605469e-02,-1.141289547085762024e-01,3.536050021648406982e-02,-6.773686408996582031e-02,-9.941794723272323608e-02,-1.967702209949493408e-01,1.666689068078994751e-01,7.718396186828613281e-02,2.336516790091991425e-02,-1.688476353883743286e-01,-4.197338223457336426e-02,-1.275855749845504761e-01,-9.353282861411571503e-03,-1.034958437085151672e-01,1.584420166909694672e-02,-2.802334167063236237e-02,1.624578237533569336e-01,6.945812702178955078e-02,-7.052028924226760864e-02,-1.513483077287673950e-01,-1.632176637649536133e-01,-2.484764605760574341e-01,1.087596341967582703e-01,-3.054316937923431396e-01,-9.692252427339553833e-02,-1.889972090721130371e-01,2.065467238426208496e-01,1.816489249467849731e-01,-7.008039392530918121e-03,1.045545749366283417e-02,-4.010934010148048401e-02,-2.136483788490295410e-01,1.998594775795936584e-02,-1.533135771751403809e-01,-1.674051880836486816e-01,-3.203538358211517334e-01,1.635937094688415527e-01,1.394093781709671021e-01,-6.007723137736320496e-02,-1.697681844234466553e-01,-8.469273149967193604e-02,-1.737639904022216797e-01,-4.181443899869918823e-02,-8.384627848863601685e-02,1.186610385775566101e-01,-6.305410712957382202e-02,9.139881283044815063e-02,6.348851323127746582e-02,-7.516030967235565186e-02,-1.111952215433120728e-01,-9.113140404224395752e-02,-1.481778472661972046e-01,-2.585351765155792236e-01,-9.925457835197448730e-02,3.683258220553398132e-02,-8.570735156536102295e-02,1.661514677107334137e-02,1.836171150207519531e-01,-1.052356511354446411e-01,-2.502281405031681061e-02,-2.722626030445098877e-01,-4.502524435520172119e-02,8.553740382194519043e-02,-1.512959152460098267e-01,-1.952282637357711792e-01,-2.709783911705017090e-01,-9.800152480602264404e-02,3.142188489437103271e-01,-3.439866006374359131e-03,-1.656769216060638428e-01,-1.201602444052696228e-01,-1.229572296142578125e-01,-1.103210821747779846e-01,-2.242589369416236877e-02,-6.205137446522712708e-02,-9.101843088865280151e-02,-7.201553136110305786e-02,1.196255907416343689e-01,-3.490555286407470703e-02,-3.007619269192218781e-02,-7.862628251314163208e-02,-1.701375693082809448e-01,-2.503968179225921631e-01,-9.423861652612686157e-02,1.075666248798370361e-01,6.323700654320418835e-04,9.590267203748226166e-03,7.286141067743301392e-02,-1.242571920156478882e-01,-6.983727961778640747e-02,-2.560401558876037598e-01,1.776469312608242035e-02,-1.080677509307861328e-01,-1.668382734060287476e-01,9.718166291713714600e-02,-2.103048563003540039e-02,4.010337870568037033e-03,1.277370005846023560e-01,-1.400998532772064209e-01,-3.244706988334655762e-01,-2.263720780611038208e-01,-1.189461275935173035e-01,-1.358879506587982178e-01,-9.405669569969177246e-02,-4.979749768972396851e-02,-5.024016648530960083e-02,-1.406075358390808105e-01,3.210348188877105713e-01,-4.689694941043853760e-02,-2.480416148900985718e-01,-6.109955906867980957e-02,-2.083350270986557007e-01,-1.907411813735961914e-01,3.861634805798530579e-02,-1.366412788629531860e-01,4.298269003629684448e-02,1.795568130910396576e-02,1.189578399062156677e-01,-6.431008130311965942e-02,-1.834805496037006378e-02,-2.294856160879135132e-01,4.434373229742050171e-02,5.859099701046943665e-02,-2.800518274307250977e-02,6.950457394123077393e-02,2.502992283552885056e-04,-5.900050327181816101e-02,1.020591333508491516e-01,3.518621623516082764e-02,-1.689291447401046753e-01,-7.177285104990005493e-02,-6.706102192401885986e-02,-1.250410526990890503e-01,-1.205428689718246460e-01,1.227612718939781189e-01,-8.764449506998062134e-02,-1.747580319643020630e-01,3.568370044231414795e-01,-4.917352274060249329e-02,-1.579858064651489258e-01,-2.005124390125274658e-01,-1.161291599273681641e-01,-2.001982629299163818e-01,6.414505839347839355e-02,-9.782067686319351196e-02,-3.831448778510093689e-02,6.476636976003646851e-02,5.607973411679267883e-02,-3.030415251851081848e-02,-8.566266298294067383e-02,-5.519571900367736816e-02,-1.949746045283973217e-03,-5.531539767980575562e-02,-1.074000820517539978e-01,-5.326480418443679810e-02,-1.045928299427032471e-01,5.530954152345657349e-02,1.344885826110839844e-01,-2.023213170468807220e-02,-1.294119805097579956e-01,2.928189188241958618e-02,-1.537870466709136963e-01,-3.162300884723663330e-01,1.237339973449707031e-01,-3.199261426925659180e-01,-5.233639478683471680e-02,2.365505881607532501e-02,1.323351263999938965e-01,-1.005439162254333496e-01,-1.535930484533309937e-02,-1.355352252721786499e-01,5.193582922220230103e-02,-2.151306159794330597e-02,-1.490107327699661255e-01,8.632818236947059631e-03,-7.101477682590484619e-02,-4.853355884552001953e-02,1.763144135475158691e-01,1.144409403204917908e-01,-6.046766042709350586e-02,-5.032500997185707092e-02,-1.152922362089157104e-01,-1.220943778753280640e-01,1.593174226582050323e-02,-4.328090697526931763e-02,-1.059121713042259216e-01,-3.924988955259323120e-02,9.773256629705429077e-02,-4.885783046483993530e-02,3.073560819029808044e-02,-8.100198209285736084e-02,-9.648924320936203003e-02,-6.271618604660034180e-02,-8.615102618932723999e-02,-1.948667615652084351e-01,-1.706260591745376587e-01,-6.189452856779098511e-02,2.000297904014587402e-01,-4.151389002799987793e-02,-1.129082366824150085e-01,-1.033155322074890137e-01,-9.716067463159561157e-03,-9.428856521844863892e-02,2.731298841536045074e-02,-1.119001507759094238e-01,-1.189550831913948059e-01,-3.996214643120765686e-02,1.507822871208190918e-01,-5.549561977386474609e-02,-1.122960001230239868e-01,-5.806162953376770020e-02,-8.944002538919448853e-02,-1.220732033252716064e-01,-1.504097580909729004e-01,1.265164613723754883e-01,1.245103776454925537e-02,-2.755839563906192780e-02,2.197161018848419189e-01,-1.073483936488628387e-02,-9.109368920326232910e-02,-9.035030752420425415e-02,-1.943988054990768433e-01,-2.117157727479934692e-01,7.573290169239044189e-02,-1.217292025685310364e-01,-1.449872702360153198e-01,-1.068674121052026749e-02,1.412053853273391724e-01,-7.656016200780868530e-02,-1.212839409708976746e-02,-8.856724202632904053e-02,-2.351547405123710632e-02,2.012824416160583496e-01,6.804247200489044189e-02,-9.948504716157913208e-02,-3.183442726731300354e-02,3.325224295258522034e-02,4.362884163856506348e-02,6.724864244461059570e-02,-1.449542641639709473e-01,1.738690026104450226e-02,-4.976547788828611374e-03,1.942003667354583740e-01,7.211806625127792358e-02,-2.210230566561222076e-02,-2.086195535957813263e-02,-5.179475061595439911e-03,-1.229332294315099716e-02,9.667766094207763672e-02,-1.580626964569091797e-01,-4.481910541653633118e-02,-9.103441238403320312e-02,-9.740106016397476196e-02,-1.699746213853359222e-02,-2.059177011251449585e-01,-1.436783522367477417e-01,-7.621141523122787476e-02,1.961696296930313110e-01,-5.425279587507247925e-02,-1.063813939690589905e-01,-5.852316319942474365e-02,3.086587600409984589e-02,-4.523488506674766541e-02,1.835366524755954742e-02,-7.077953219413757324e-02,-6.377530097961425781e-02,-4.585033655166625977e-02,1.534877121448516846e-01,3.463203832507133484e-02,-1.074492260813713074e-01,1.167415454983711243e-02,-1.167669966816902161e-01,-1.641594469547271729e-01,2.670927159488201141e-02,-1.889485307037830353e-02,-5.636876076459884644e-02,-1.481772307306528091e-02,1.980093866586685181e-01,-4.087434709072113037e-02,-1.090977415442466736e-01,-1.394912153482437134e-01,-5.010040849447250366e-02,-1.152016147971153259e-01,2.821565791964530945e-02,-8.689102530479431152e-02,-1.044237613677978516e-01,-1.135581452399492264e-02,1.179072633385658264e-01,-3.378570452332496643e-02,-1.379432678222656250e-01,-8.865538984537124634e-02,-1.002580374479293823e-01,-1.578928232192993164e-01,-5.994043126702308655e-02,-6.657162308692932129e-02,-1.441281139850616455e-01,-1.201177239418029785e-01,1.975377053022384644e-01,-5.663647502660751343e-02,-4.545052349567413330e-02,-8.287971466779708862e-02,-5.558396503329277039e-02,-1.926321685314178467e-01,-5.897311493754386902e-02,1.213710661977529526e-02,-8.484978228807449341e-02,2.744572423398494720e-02,1.453244388103485107e-01,-6.707531958818435669e-02,-4.524267092347145081e-02,-2.494997084140777588e-01,-1.014260277152061462e-01,-1.323903053998947144e-01,-2.320189774036407471e-02,-3.252236172556877136e-02,-9.657809883356094360e-02,-3.885562345385551453e-02,1.052343994379043579e-01,-7.592801004648208618e-02,-4.927232861518859863e-02,-1.401230394840240479e-01,-4.549906030297279358e-02,1.193463280797004700e-01,-1.117910370230674744e-01,-6.585512310266494751e-02,-1.347592324018478394e-01,6.812116503715515137e-02,9.343533217906951904e-02,-2.353160642087459564e-02,-8.657392114400863647e-02,1.318724080920219421e-02,-1.339257061481475830e-01,-1.106575354933738708e-01,-1.118328645825386047e-01,-4.395795986056327820e-02,7.090421766042709351e-02,-1.953423023223876953e-02,1.314841210842132568e-01,2.655396796762943268e-02,-1.077374815940856934e-02,-1.292777806520462036e-01,9.645393118262290955e-03,6.381281465291976929e-02,-1.271014511585235596e-01,1.370616257190704346e-02,-2.607602858915925026e-03,-9.483232349157333374e-02,2.725501060485839844e-01,8.658394217491149902e-03,-2.260548919439315796e-01,-1.034158691763877869e-01,-9.485630691051483154e-02,4.302693158388137817e-02,-1.622663289308547974e-01,-1.181395277380943298e-01,-2.421041280031204224e-01,-4.436965286731719971e-02,1.911617815494537354e-01,-4.299129359424114227e-03,-1.002613455057144165e-01,-7.728224992752075195e-02,-9.292519837617874146e-02,-2.551156282424926758e-01,-5.622340366244316101e-02,-1.331111509352922440e-02,-5.951446015387773514e-03,3.295110911130905151e-02,1.803924292325973511e-01,-8.029613643884658813e-02,-1.040665507316589355e-01,-2.004366219043731689e-01,-1.849704533815383911e-01,-2.812083959579467773e-01,2.091633230447769165e-01,-3.298067748546600342e-01,-6.079418212175369263e-02,-6.858153641223907471e-02,1.284891217947006226e-01,-2.498225681483745575e-02,2.558437734842300415e-02,-1.473867893218994141e-01,1.861171238124370575e-02,-3.824550285935401917e-02,1.872072964906692505e-01,-1.246430501341819763e-01,-1.700856536626815796e-01,-1.493896096944808960e-01,2.186842113733291626e-01,-1.366204023361206055e-02,-2.344482690095901489e-01,-4.309720173478126526e-02,-4.761062189936637878e-02,-1.522682309150695801e-01,-6.899607926607131958e-02,-9.212289750576019287e-02,-8.044024556875228882e-02,-3.779891133308410645e-02,1.527967900037765503e-01,-4.384868964552879333e-02,-3.901120275259017944e-02,-5.749683454632759094e-02,-7.207772135734558105e-02,-2.271095067262649536e-01,4.821351915597915649e-02,-2.983544468879699707e-01,-6.246578320860862732e-02,-8.208786696195602417e-02,1.369571983814239502e-01,-5.714438110589981079e-02,1.115161329507827759e-01,-1.597942262887954712e-01,-1.636646240949630737e-01,-2.058989703655242920e-01,1.324906051158905029e-01,-2.877239584922790527e-01,-5.566786229610443115e-02,1.912523247301578522e-02,8.493535965681076050e-02,-3.405888751149177551e-02,-2.948891837149858475e-03,-6.610233336687088013e-02,-1.295915544033050537e-01,-1.349839717149734497e-01,1.463114619255065918e-01,-2.045946121215820312e-01,-1.595443040132522583e-01,6.414037197828292847e-02,1.535461395978927612e-01,-2.315368130803108215e-02,-1.994743645191192627e-01,-2.387785352766513824e-02,-1.153643503785133362e-01,-2.032372951507568359e-01,3.099505230784416199e-02,-2.092285156250000000e-01,1.719889976084232330e-02,-8.020511269569396973e-02,1.363539993762969971e-01,-3.655298054218292236e-02,-1.970063336193561554e-02,-2.730708383023738861e-02,7.225814461708068848e-02,1.811107248067855835e-01,-1.532542798668146133e-02,-4.346799105405807495e-03,-6.740710139274597168e-02,-8.868966251611709595e-02,2.852247096598148346e-02,5.663380026817321777e-02,-7.578053325414657593e-02,-2.610325813293457031e-03,-1.928016692399978638e-01,-1.736775040626525879e-01,1.449353098869323730e-01,-2.405003756284713745e-01,-1.363075375556945801e-01,1.445944141596555710e-02,6.027770042419433594e-02,-5.075512081384658813e-02,2.016002126038074493e-02,-8.088665455579757690e-02,5.022345576435327530e-03,-8.003610372543334961e-02,-4.548529535531997681e-02,-1.498591601848602295e-01,-1.452717930078506470e-01,-1.146303024142980576e-03,8.781410008668899536e-02,-1.411758176982402802e-02,-4.823526740074157715e-02,-6.606453657150268555e-02,2.540006488561630249e-02,-1.428798120468854904e-02,-1.182136461138725281e-01,-5.506065487861633301e-02,-1.042693033814430237e-01,-1.807208871468901634e-03,1.575559079647064209e-01,4.191464930772781372e-02,-1.006272658705711365e-01,-2.535190060734748840e-02,4.916509985923767090e-02,-1.004434004426002502e-01,8.841423690319061279e-02,-2.371368557214736938e-01,-1.422584205865859985e-01,-1.244134008884429932e-01,1.572906523942947388e-01,3.715783124789595604e-03,-2.828899621963500977e-01,5.080455541610717773e-02,7.761359214782714844e-02,1.512265354394912720e-01,-1.026600506156682968e-02,-4.158094152808189392e-02,-5.126632750034332275e-02,5.390360951423645020e-02,1.193802729249000549e-01,2.493953518569469452e-02,-1.799390465021133423e-01,-6.417702138423919678e-02,3.242694213986396790e-02,-9.127499163150787354e-02,8.794749155640602112e-03,-7.010653614997863770e-02,-9.686450660228729248e-02,-4.776957444846630096e-03,3.755058348178863525e-02,-3.840684518218040466e-02,-2.936346828937530518e-02,-4.127118736505508423e-04,-2.599831484258174896e-02,-7.584486156702041626e-02,-1.892121136188507080e-02,-1.175272390246391296e-01,-1.835938394069671631e-01,-2.487778849899768829e-02,8.444572240114212036e-02,-7.662791758775711060e-02,-1.230823695659637451e-01,-6.848856806755065918e-02,-2.423272235319018364e-03,-2.322488836944103241e-02,6.446371227502822876e-02,-2.033500559628009796e-02,-4.287077113986015320e-03,-3.070236369967460632e-02,-3.253257274627685547e-02,1.714912429451942444e-02,-1.993230916559696198e-02,-1.560105942189693451e-02,1.040191948413848877e-02,-1.096396986395120621e-02,7.850831747055053711e-02,-1.359543502330780029e-01,-1.508450210094451904e-01,-8.186256885528564453e-02,1.485880613327026367e-01,-1.788904331624507904e-02,5.847110878676176071e-03,-2.488088048994541168e-02,1.120277307927608490e-02,-9.693403542041778564e-02,-5.937837064266204834e-02,-1.911539584398269653e-01,-1.349540948867797852e-01,-9.305843710899353027e-02,1.793193221092224121e-01,-1.089762989431619644e-02,-4.962916951626539230e-03,-7.083353400230407715e-02,2.941361628472805023e-02,1.493612378835678101e-01,-5.969455000013113022e-03,3.889099881052970886e-02,-1.498404741287231445e-01,6.344328075647354126e-02,-6.782896071672439575e-02,6.667215377092361450e-02,-1.386744230985641479e-01,-6.055859103798866272e-02,6.219346448779106140e-02,1.169333457946777344e-01,1.800995506346225739e-02,1.989469863474369049e-02,1.915661245584487915e-02,6.534352153539657593e-02,-2.874625474214553833e-02,-3.338329493999481201e-02,-1.621621698141098022e-01,-2.151854336261749268e-02,-6.162717938423156738e-02,-9.881952404975891113e-02,3.883660584688186646e-02,-9.915846586227416992e-02,-8.366501331329345703e-02,-4.031091928482055664e-02,6.237556040287017822e-02,-3.106460906565189362e-02,-1.506583392620086670e-01,-3.940644487738609314e-02,-2.908357232809066772e-02,1.967937126755714417e-02,1.034312173724174500e-01,1.313285622745752335e-02,-1.722483709454536438e-02,-3.956785053014755249e-02,6.644050776958465576e-02,3.070188127458095551e-02,-1.003279313445091248e-01,-2.803298179060220718e-03,-4.063373804092407227e-02,-7.859583199024200439e-02,6.857424974441528320e-02,-1.425779610872268677e-01,-6.234181672334671021e-02,-1.261007636785507202e-01,1.045721471309661865e-01,6.648217793554067612e-03,-2.244921773672103882e-02,-6.364276260137557983e-02,-2.885825932025909424e-02,-6.453831493854522705e-02,-2.078256802633404732e-03,-6.023647636175155640e-02,-1.614631526172161102e-02,-2.016693353652954102e-02,-9.349011816084384918e-03,-4.039240255951881409e-02,-4.477998986840248108e-02,5.117320455610752106e-03,-6.842342764139175415e-02,-1.292018741369247437e-01,3.885657340288162231e-02,-9.210884571075439453e-02,-1.185955852270126343e-01,-6.221133098006248474e-02,1.086764410138130188e-01,-2.469762228429317474e-02,-1.706830859184265137e-01,-5.113879591226577759e-02,-4.213761538267135620e-02,-1.876056492328643799e-01,1.335027217864990234e-01,-2.529649436473846436e-01,-9.067396819591522217e-02,-4.385637864470481873e-02,6.775664538145065308e-02,-6.102585792541503906e-02,-4.908728878945112228e-03,-3.671911731362342834e-02,-9.993640333414077759e-02,-1.199041232466697693e-01,-2.878919616341590881e-02,-7.860308140516281128e-02,-9.597210586071014404e-02,-2.765961922705173492e-02,1.137300878763198853e-01,-2.975154109299182892e-02,-5.046773585490882397e-04,-3.360192477703094482e-02,3.965277690440416336e-03,5.193492770195007324e-02,6.401731073856353760e-02,-4.093192983418703079e-03,-9.608797729015350342e-02,1.556205749511718750e-02,1.656972169876098633e-01,2.050466719083487988e-04,-1.362030059099197388e-01,1.372667122632265091e-02,-6.861330568790435791e-02,-9.841152280569076538e-02,7.941648364067077637e-02,-1.873360574245452881e-01,-1.361445039510726929e-01,-1.609273254871368408e-02,1.116420254111289978e-01,8.163006976246833801e-03,-3.718607500195503235e-02,-3.545540571212768555e-02,-9.168475866317749023e-02,-8.868738263845443726e-02,1.508074253797531128e-01,-1.591309607028961182e-01,-1.205666884779930115e-01,1.988276094198226929e-02,4.783151671290397644e-02,1.058352179825305939e-03,-6.866207718849182129e-02,-3.016798384487628937e-02,-5.570710077881813049e-02,-1.016238182783126831e-01,4.365858435630798340e-02,-1.677173972129821777e-01,-1.444147974252700806e-01,-1.379752904176712036e-01,2.217134237289428711e-01,-2.194884978234767914e-02,-1.611198186874389648e-01,-3.955350443720817566e-02,1.231780555099248886e-02,-1.561515331268310547e-01,-6.021758913993835449e-02,-3.074648678302764893e-01,-1.504652798175811768e-01,-1.577205657958984375e-01,2.278605699539184570e-01,-4.768359288573265076e-02,4.598139226436614990e-02,-7.824762910604476929e-02,1.075475141406059265e-01,-9.572918713092803955e-02,9.038662910461425781e-02,-1.923991739749908447e-01,-1.369321048259735107e-01,-1.152989566326141357e-01,8.114796131849288940e-02,1.343910349532961845e-03,-3.048302233219146729e-01,-1.926940679550170898e-02,4.467624425888061523e-02,3.040774166584014893e-02,7.428493350744247437e-02,-8.582521975040435791e-02,-6.732124090194702148e-02,-5.176771432161331177e-02,2.851942926645278931e-02,-7.321992889046669006e-03,-8.455999195575714111e-02,2.038664184510707855e-02,-3.648466989398002625e-02,-6.787446886301040649e-02,2.938819862902164459e-02,-1.581513881683349609e-02,3.574651898816227913e-03,-2.875127084553241730e-02,1.495975442230701447e-02,-4.988352768123149872e-03,-2.007413282990455627e-02,-4.156253486871719360e-02,1.062184274196624756e-01,-7.980231940746307373e-02,5.382861196994781494e-02,-1.385968625545501709e-01,-1.632764041423797607e-01,-3.629174828529357910e-02,-1.162268407642841339e-02,5.868770647794008255e-03,-1.585331708192825317e-01,-3.360923752188682556e-02,9.866739809513092041e-02,-3.220018371939659119e-02,4.058984294533729553e-02,-4.524840414524078369e-02,-1.325937509536743164e-01,-1.074515804648399353e-01,7.122322171926498413e-02,3.307798132300376892e-02,-1.882356107234954834e-01,-3.278895840048789978e-02,-2.968700416386127472e-02,3.282492514699697495e-03,6.434930860996246338e-02,-2.871797047555446625e-02,-1.463420987129211426e-01,-6.974724680185317993e-02,