2.187843248248100281e-02,1.711085438728332520e-03,-2.833891659975051880e-02,-1.737061515450477600e-02,-2.523669973015785217e-03,-1.812234520912170410e-02,6.503321230411529541e-03,-3.886291757225990295e-03,-2.403246238827705383e-03,2.395031228661537170e-02
-1.434082351624965668e-02,2.725173532962799072e-02,1.229000091552734375e-02,3.678187727928161621e-03,-1.225389912724494934e-02,-1.289155334234237671e-02,7.004857063293457031e-03,-1.721275039017200470e-02,-3.152402862906455994e-02,-8.292313665151596069e-03
2.796815708279609680e-02,-1.730554737150669098e-02,-3.252446651458740234e-03,1.835279911756515503e-02,1.398904249072074890e-02,-1.640108786523342133e-02,1.108243316411972046e-02,1.423736289143562317e-02,-2.729200758039951324e-02,5.870763212442398071e-03
-2.270824834704399109e-02,2.625339105725288391e-02,2.819111198186874390e-02,2.549416944384574890e-02,1.784434169530868530e-02,-8.404850959777832031e-03,-3.788733854889869690e-03,2.519861981272697449e-02,1.504015177488327026e-03,3.158833459019660950e-02
1.827947795391082764e-03,1.591769605875015259e-02,-2.084961161017417908e-02,-2.162643708288669586e-02,-2.970169670879840851e-02,4.234351217746734619e-03,-1.135388948023319244e-02,-3.138333186507225037e-02,1.019975915551185608e-02,2.205361425876617432e-02
-3.070196881890296936e-02,3.111929073929786682e-02,1.226466149091720581e-03,3.069446608424186707e-02,-2.685392089188098907e-02,-8.241906762123107910e-04,1.237284019589424133e-02,-1.415130123496055603e-02,7.747374475002288818e-04,2.363531291484832764e-02
-9.463397786021232605e-03,-1.895244047045707703e-02,9.808190166950225830e-03,2.343483269214630127e-02,-2.545596845448017120e-02,2.252326533198356628e-02,2.408824488520622253e-02,-3.315462917089462280e-02,3.326148167252540588e-02,2.176258713006973267e-02
2.682995051145553589e-02,2.902046963572502136e-02,2.408932521939277649e-02,2.070583030581474304e-02,-2.442262694239616394e-02,2.375225350260734558e-02,-1.514487713575363159e-02,2.935820445418357849e-02,-1.462630555033683777e-02,2.565409615635871887e-02
2.455603703856468201e-02,-2.841640077531337738e-02,-2.016989141702651978e-02,-2.568125724792480469e-03,-2.649996429681777954e-02,-2.627930231392383575e-02,1.745006814599037170e-02,2.505078911781311035e-03,-4.089549183845520020e-04,-1.484966650605201721e-02
2.417011559009552002e-02,-2.147220633924007416e-02,-1.613792963325977325e-02,1.248680427670478821e-02,1.657160744071006775e-02,-1.744501292705535889e-02,-1.205146312713623047e-03,-2.623321488499641418e-02,1.595178991556167603e-02,-2.387352287769317627e-04
1.458909735083580017e-02,2.571272104978561401e-02,6.712164729833602905e-03,1.490342617034912109e-02,-6.336342543363571167e-03,-3.064766898751258850e-02,1.350419968366622925e-02,-1.782092079520225525e-02,-6.543682888150215149e-03,9.527679532766342163e-03
1.190723478794097900e-02,2.583280578255653381e-02,8.075278252363204956e-03,-1.228225603699684143e-02,1.621553301811218262e-02,9.020384401082992554e-03,-7.529333233833312988e-03,-6.232952699065208435e-03,-2.372690290212631226e-02,-2.139729261398315430e-02
-2.528156153857707977e-02,-2.666182070970535278e-02,3.100064769387245178e-02,1.525705680251121521e-02,-2.491484023630619049e-02,-2.470185048878192902e-02,1.811072975397109985e-02,-3.134377300739288330e-02,2.499722689390182495e-02,2.581862732768058777e-02
-2.297814190387725830e-02,-8.905347436666488647e-03,-3.040754422545433044e-02,2.829055860638618469e-02,1.687597483396530151e-02,-2.168980613350868225e-02,1.409917324781417847e-02,-1.107580028474330902e-02,-5.095325410366058350e-03,-3.100060112774372101e-02
-3.299522027373313904e-02,-2.289780974388122559e-02,5.616839975118637085e-03,-2.209266647696495056e-02,1.999919116497039795e-02,3.055399283766746521e-02,1.396595314145088196e-02,-1.788092777132987976e-02,-1.600478775799274445e-02,-1.400522887706756592e-03
-8.342042565345764160e-04,-3.316815942525863647e-03,-2.500918507575988770e-02,5.444362759590148926e-03,-1.131270453333854675e-02,-4.680246114730834961e-03,-2.981191687285900116e-02,-2.007503993809223175e-02,-8.202023804187774658e-03,-2.994695492088794708e-02
-1.498287171125411987e-02,7.125783711671829224e-03,-1.900160685181617737e-02,5.089860409498214722e-03,-2.146608941256999969e-02,2.975072711706161499e-03,-2.328063547611236572e-02,-2.448130026459693909e-02,2.320265769958496094e-02,1.135304197669029236e-02
-1.159512437880039215e-02,1.465584337711334229e-02,-1.995962299406528473e-02,-2.080843225121498108e-02,1.588679850101470947e-03,1.718246564269065857e-02,7.937151938676834106e-03,-2.193413674831390381e-02,-2.942254394292831421e-02,2.303105220198631287e-02
-7.806345820426940918e-05,2.937015518546104431e-02,-4.204995930194854736e-04,-1.465577445924282074e-02,1.208720356225967407e-02,-1.361157000064849854e-02,-1.623332872986793518e-02,1.357771456241607666e-02,6.086561828851699829e-03,1.906305551528930664e-03
-2.784682996571063995e-02,3.164706751704216003e-02,-2.562312409281730652e-02,-3.816733136773109436e-03,-3.293357044458389282e-02,-1.878960058093070984e-02,-2.647671848535537720e-02,2.984962984919548035e-02,2.030023187398910522e-02,2.027792856097221375e-02
1.615725085139274597e-02,-2.977257221937179565e-02,-1.409172452986240387e-02,3.049087151885032654e-02,-7.266880944371223450e-03,-2.246873453259468079e-03,8.933570235967636108e-03,-1.752170361578464508e-02,4.161406308412551880e-03,5.850333720445632935e-03
-2.376061491668224335e-02,-5.398327484726905823e-03,1.791635900735855103e-02,2.535976842045783997e-02,-3.046526387333869934e-02,-1.732006669044494629e-03,-1.364130526781082153e-03,-1.480538584291934967e-02,-2.655377425253391266e-02,-1.351498067378997803e-03
1.524070650339126587e-02,5.891043692827224731e-03,-8.266773074865341187e-03,-3.154091164469718933e-02,2.652490139007568359e-02,-6.339665502309799194e-03,2.029551938176155090e-02,1.897364854812622070e-02,2.855459600687026978e-02,-1.978144049644470215e-02
6.509352475404739380e-03,4.803098738193511963e-03,-1.267227903008460999e-02,3.823913633823394775e-03,-1.421183347702026367e-03,1.077290251851081848e-02,1.947137713432312012e-02,1.344323158264160156e-02,-3.890100866556167603e-03,-2.840381860733032227e-02
3.245833143591880798e-02,6.733100861310958862e-03,-1.227532885968685150e-02,-1.263551227748394012e-02,1.841649413108825684e-03,1.969246566295623779e-02,-2.232434228062629700e-02,1.689177751541137695e-02,1.846913620829582214e-02,1.997202262282371521e-02
2.049683779478073120e-02,2.004487439990043640e-02,1.892675086855888367e-02,-2.389965578913688660e-03,-1.681151613593101501e-02,4.561275243759155273e-03,2.576718851923942566e-02,-8.366378024220466614e-03,1.242777332663536072e-02,4.867952316999435425e-03
-3.039534948766231537e-02,2.114655822515487671e-02,2.924289926886558533e-02,2.404290810227394104e-02,-9.036585688591003418e-03,-1.054027490317821503e-02,8.137449622154235840e-03,-3.094813972711563110e-02,-9.683346375823020935e-03,1.657129079103469849e-02
1.078337430953979492e-03,8.348915725946426392e-03,-1.187222264707088470e-02,-1.435023173689842224e-02,7.357798516750335693e-03,-9.634489193558692932e-03,-3.223297744989395142e-02,1.156978309154510498e-03,-1.306831650435924530e-02,-3.011956810951232910e-03
-3.083789721131324768e-02,-1.173451915383338928e-02,-1.602049916982650757e-03,-1.798723638057708740e-02,-8.193105459213256836e-04,1.758298650383949280e-02,-2.970606088638305664e-02,1.394489035010337830e-02,-3.284554928541183472e-02,2.318255603313446045e-03
-2.450618147850036621e-02,2.026026695966720581e-02,2.087374776601791382e-02,-2.660961821675300598e-03,1.914807036519050598e-02,7.729556411504745483e-03,-1.408451981842517853e-02,1.624649018049240112e-02,-2.220379188656806946e-02,3.130726888775825500e-02
1.980179920792579651e-02,-9.531663730740547180e-03,1.942596212029457092e-02,-4.104487597942352295e-03,-2.435424923896789551e-02,3.097501769661903381e-02,1.938261836767196655e-02,-2.325588837265968323e-02,-7.177116349339485168e-03,8.141193538904190063e-03
-2.394861355423927307e-02,-1.617267355322837830e-02,-1.061234809458255768e-02,-1.816073805093765259e-02,9.365975856781005859e-03,1.823822036385536194e-02,9.420078247785568237e-03,1.040240377187728882e-02,2.070670947432518005e-02,-8.202649652957916260e-03
6.143860518932342529e-03,9.750429540872573853e-03,3.099591657519340515e-02,-3.093559667468070984e-02,-2.269848063588142395e-02,-1.029968075454235077e-02,-2.066745981574058533e-02,1.942685618996620178e-02,1.322437077760696411e-03,-2.724280953407287598e-02
-5.890296772122383118e-03,2.926230803132057190e-02,2.233516424894332886e-02,5.912344902753829956e-03,2.332977950572967529e-02,2.561545744538307190e-02,2.711304649710655212e-02,2.897502481937408447e-02,-3.288241103291511536e-02,2.740237861871719360e-02
6.397832185029983521e-03,3.514818847179412842e-03,-8.113089948892593384e-03,-8.263885974884033203e-04,-9.354757145047187805e-03,-7.210088893771171570e-03,1.168977841734886169e-02,1.173268631100654602e-02,-2.650491520762443542e-02,1.015244796872138977e-02
1.852632313966751099e-02,2.761774137616157532e-02,1.446667313575744629e-02,-2.003923058509826660e-03,-1.781335286796092987e-02,-2.112009190022945404e-02,-1.235764473676681519e-02,2.293162047863006592e-03,-1.941702701151371002e-02,-4.047116264700889587e-03
2.891862019896507263e-02,-2.986543253064155579e-02,2.779620140790939331e-02,1.568946987390518188e-03,1.918734982609748840e-02,-1.405189558863639832e-02,-2.672746777534484863e-04,2.251192554831504822e-02,-1.849856227636337280e-02,-4.351140931248664856e-03
7.325451821088790894e-03,-4.778850823640823364e-03,-3.109661862254142761e-02,-2.324720099568367004e-02,-2.572759985923767090e-02,1.757443323731422424e-02,-2.856472507119178772e-03,3.133169189095497131e-02,1.968783140182495117e-02,8.136566728353500366e-03
-1.907469704747200012e-02,8.579615503549575806e-03,2.233721688389778137e-02,-3.093491494655609131e-02,1.392916962504386902e-02,-2.170587331056594849e-02,-3.580743446946144104e-03,-1.015949994325637817e-03,1.107747480273246765e-02,-2.376928925514221191e-03
3.139284625649452209e-02,9.816415607929229736e-03,-2.146135270595550537e-02,1.026888191699981689e-02,-8.829601109027862549e-03,9.290117770433425903e-03,-1.558232307434082031e-02,2.432394400238990784e-02,-2.215151488780975342e-02,1.467826589941978455e-02
2.289390563964843750e-02,-1.783167198300361633e-02,-2.782350406050682068e-02,-6.147176027297973633e-04,-2.102622389793395996e-02,-3.256424143910408020e-02,-6.765946745872497559e-04,1.796375960111618042e-03,-1.875183358788490295e-02,2.680025249719619751e-02
3.119873628020286560e-02,-8.885273709893226624e-03,-1.454078592360019684e-02,4.891928285360336304e-03,-1.611408777534961700e-02,-2.848918735980987549e-02,1.505021750926971436e-02,-1.460945419967174530e-02,-1.279975660145282745e-02,9.010005742311477661e-03
-7.796775549650192261e-03,1.417546719312667847e-02,-1.629132032394409180e-02,-2.336424589157104492e-02,-3.131754323840141296e-02,-6.805658340454101562e-03,3.100160136818885803e-02,-9.202288463711738586e-03,-1.042172312736511230e-02,2.240979298949241638e-02
1.182974502444267273e-02,2.134467288851737976e-02,-2.627460658550262451e-02,-1.276017352938652039e-02,3.138651326298713684e-02,-8.603701367974281311e-03,-1.177365705370903015e-02,6.389260292053222656e-03,1.112650707364082336e-02,1.937764137983322144e-02
-5.357038229703903198e-03,1.464337110519409180e-03,-1.200416684150695801e-02,2.069054916501045227e-02,-1.866997778415679932e-02,3.893218934535980225e-03,-1.052193343639373779e-03,-1.177560910582542419e-02,2.817581593990325928e-02,3.420103341341018677e-03
7.566288113594055176e-03,1.307910680770874023e-02,-2.756734378635883331e-02,2.280818670988082886e-02,2.969408407807350159e-02,1.696745306253433228e-02,2.639199793338775635e-02,1.389499008655548096e-02,2.159134298563003540e-02,-2.137497439980506897e-02
2.216929569840431213e-02,9.457066655158996582e-03,2.517647296190261841e-02,-2.134903892874717712e-02,1.193466410040855408e-02,-1.537885516881942749e-03,1.803382486104965210e-02,-2.343023940920829773e-02,1.850260794162750244e-02,-3.515643998980522156e-03
2.796046808362007141e-02,1.594511792063713074e-02,-4.704326391220092773e-03,-1.863598078489303589e-02,2.330904081463813782e-02,2.268466725945472717e-02,2.697227150201797485e-02,7.347658276557922363e-03,-6.138704717159271240e-03,-1.910704374313354492e-02
-5.483953282237052917e-03,2.587119117379188538e-02,3.221837058663368225e-02,-1.982057094573974609e-02,-6.151348352432250977e-04,-1.813165843486785889e-02,-1.153908669948577881e-03,1.608641445636749268e-02,-2.396256849169731140e-02,-2.559299021959304810e-02
1.059216260910034180e-02,-2.424691803753376007e-02,-1.475979015231132507e-02,1.858653500676155090e-02,-1.727735809981822968e-02,2.467338368296623230e-02,1.458685845136642456e-03,2.762022614479064941e-02,4.600960761308670044e-03,1.477326825261116028e-02
2.541838586330413818e-02,-3.450196236371994019e-03,1.140538975596427917e-02,-2.522680163383483887e-02,-3.003628551959991455e-02,2.000070363283157349e-02,2.072349190711975098e-03,-2.981556765735149384e-02,1.752920821309089661e-02,-2.819120138883590698e-02
-3.255865350365638733e-02,-2.483629435300827026e-02,-1.045724377036094666e-02,-1.406012289226055145e-02,2.253882959485054016e-02,-1.812265440821647644e-02,-7.555190473794937134e-03,1.134147122502326965e-02,-1.084561645984649658e-02,-2.111442014575004578e-02
2.025358006358146667e-02,1.990229263901710510e-02,-1.363740302622318268e-02,7.078818976879119873e-03,5.638793110847473145e-03,-3.204588219523429871e-02,-8.601749315857887268e-03,-1.936508342623710632e-02,-2.894946746528148651e-02,-1.417787186801433563e-02
-2.652388624846935272e-02,5.122348666191101074e-03,3.059837594628334045e-02,1.037111878395080566e-02,-3.309480845928192139e-02,9.055398404598236084e-04,-1.992927491664886475e-02,3.019399940967559814e-03,3.150261566042900085e-02,-2.977777272462844849e-03
-6.343536078929901123e-04,2.160451561212539673e-02,5.151301622390747070e-03,-3.259913250803947449e-02,-1.901909336447715759e-02,-9.836649522185325623e-03,1.608267799019813538e-02,8.739683777093887329e-03,-6.766153499484062195e-03,-1.787222921848297119e-03
2.137526869773864746e-02,-8.399454876780509949e-03,-1.775294914841651917e-02,2.369018271565437317e-02,-2.161892130970954895e-03,-2.037943899631500244e-02,-4.617631435394287109e-03,-1.062574051320552826e-02,-7.852749899029731750e-03,-4.243364557623863220e-03
-3.405788913369178772e-03,2.559311687946319580e-02,-8.831799030303955078e-03,-2.688311040401458740e-02,-2.730357646942138672e-02,-9.993258863687515259e-03,-3.113316372036933899e-02,2.219263464212417603e-02,2.562094479799270630e-03,-9.967908263206481934e-04
-2.677004970610141754e-02,-2.284035086631774902e-02,2.237699925899505615e-02,1.255753636360168457e-02,1.277972012758255005e-03,-2.122421190142631531e-02,-8.612420409917831421e-03,2.346724271774291992e-03,1.711846888065338135e-02,-2.854453586041927338e-02
-2.707233652472496033e-03,6.811648607254028320e-03,2.868490666151046753e-02,-2.286448515951633453e-02,1.392713934183120728e-02,3.355763852596282959e-03,-2.069380134344100952e-03,-3.317043557763099670e-02,8.224472403526306152e-04,-7.822822779417037964e-03
2.223625779151916504e-03,-2.650129795074462891e-02,1.050047576427459717e-02,6.350278854370117188e-04,-3.076827526092529297e-02,-1.814090274274349213e-02,2.045269310474395752e-02,2.267689257860183716e-02,1.101695001125335693e-03,1.348778605461120605e-04
2.442234754562377930e-02,1.774744316935539246e-02,4.895132035017013550e-03,-2.824198640882968903e-02,9.772431105375289917e-03,9.123247116804122925e-03,3.113938495516777039e-02,-2.970358356833457947e-03,-3.205895796418190002e-02,-7.372405380010604858e-03
1.997317373752593994e-02,-2.362971752882003784e-02,1.548830419778823853e-02,-2.518230676651000977e-02,3.245216235518455505e-02,-1.480207033455371857e-02,-1.454634778201580048e-02,-1.820251345634460449e-04,-6.846375763416290283e-03,-2.859115600585937500e-03
-7.567781955003738403e-03,-2.690937928855419159e-02,1.514614000916481018e-02,1.338851079344749451e-02,1.466082781553268433e-02,5.840264260768890381e-03,-1.869070902466773987e-02,1.052647083997726440e-02,2.382915094494819641e-02,3.465548157691955566e-03
1.055227965116500854e-02,-2.201952226459980011e-02,-8.487261831760406494e-03,-2.927731908857822418e-02,1.458220183849334717e-03,-7.623605430126190186e-03,-2.411796525120735168e-02,-9.170655161142349243e-03,2.967083081603050232e-02,-3.195337951183319092e-03
1.885696873068809509e-02,2.867018803954124451e-02,-6.189197301864624023e-03,1.446207985281944275e-02,-1.095973327755928040e-02,1.589801907539367676e-02,-2.564614824950695038e-02,-1.008241437375545502e-02,2.073814719915390015e-02,-2.289648354053497314e-02
2.124370634555816650e-02,2.661764994263648987e-02,1.886933669447898865e-02,-2.284853905439376831e-02,-1.778782159090042114e-02,-1.879827305674552917e-02,5.420535802841186523e-03,-1.523568294942378998e-02,1.208682358264923096e-02,6.795540452003479004e-03
2.490926161408424377e-02,2.238361537456512451e-02,9.433940052986145020e-03,-1.216154731810092926e-02,5.814611911773681641e-03,-8.919509127736091614e-03,-3.015816025435924530e-02,1.082229986786842346e-02,1.700204610824584961e-02,-2.037874050438404083e-02
-1.703705638647079468e-03,3.136960044503211975e-02,1.472444459795951843e-02,-1.744385808706283569e-03,1.953683048486709595e-02,8.805401623249053955e-03,-4.216404631733894348e-03,1.482144370675086975e-02,-2.260274067521095276e-02,-1.250639371573925018e-02
2.592838555574417114e-02,1.299931481480598450e-02,-9.791146963834762573e-03,1.530336216092109680e-02,-1.268897950649261475e-02,2.632367983460426331e-02,-2.110346220433712006e-02,2.921351417899131775e-02,1.003406569361686707e-02,2.327553927898406982e-03
2.032693475484848022e-03,-1.239912398159503937e-02,9.972099214792251587e-03,2.440348267555236816e-02,-4.764450713992118835e-03,-1.288619823753833771e-02,2.117989212274551392e-02,2.042923867702484131e-02,1.295212283730506897e-02,-3.240020945668220520e-02
1.910301297903060913e-02,-2.682975307106971741e-02,-1.297666877508163452e-02,2.630206570029258728e-02,-4.936747252941131592e-03,1.385409757494926453e-02,-3.081550635397434235e-02,2.648647874593734741e-03,2.849766239523887634e-02,-1.351536065340042114e-02
1.391864940524101257e-02,9.439110755920410156e-03,-2.694169431924819946e-02,2.850654721260070801e-02,3.116751834750175476e-02,7.780548185110092163e-03,-3.550797700881958008e-04,-5.386132746934890747e-03,2.540426328778266907e-02,4.798598587512969971e-03
3.175307437777519226e-02,-6.836822256445884705e-03,2.267536893486976624e-02,3.257380053400993347e-02,-1.972755044698715210e-02,-7.214032113552093506e-03,-2.696146629750728607e-02,1.859904825687408447e-02,3.662385046482086182e-03,9.245108813047409058e-03
-2.793036401271820068e-04,1.487687230110168457e-03,4.048421978950500488e-04,-1.254485733807086945e-02,1.978871598839759827e-02,-1.369532197713851929e-03,1.064171269536018372e-02,3.207205608487129211e-02,1.571932807564735413e-02,-9.734632447361946106e-03
-3.204815834760665894e-02,9.055547416210174561e-03,3.040912374854087830e-02,-3.242551907896995544e-02,4.735950380563735962e-03,2.618124708533287048e-02,1.258221268653869629e-02,2.308981493115425110e-02,-4.611751064658164978e-03,7.935423403978347778e-03
-1.903408020734786987e-02,8.673578500747680664e-03,2.347502857446670532e-03,1.192297786474227905e-02,-1.039573177695274353e-02,-9.339777752757072449e-03,-2.002389729022979736e-02,-1.438601501286029816e-02,2.661512047052383423e-02,1.963020861148834229e-02
-1.500171422958374023e-02,-2.747395262122154236e-02,-2.149375528097152710e-02,-1.267908699810504913e-02,2.115564420819282532e-02,5.456779152154922485e-03,-1.770272850990295410e-02,3.240517154335975647e-02,-4.971101880073547363e-04,-1.132757216691970825e-02
-2.189043536782264709e-02,3.064883872866630554e-02,-1.046858914196491241e-02,-1.469283364713191986e-02,2.292412519454956055e-02,-2.348142303526401520e-02,-2.879503928124904633e-02,-3.139899298548698425e-02,-1.902848109602928162e-02,-3.324541077017784119e-02
1.933444291353225708e-02,9.954772889614105225e-03,-1.995537802577018738e-02,-2.305115014314651489e-02,-1.934226416051387787e-02,-2.651361934840679169e-02,2.139367163181304932e-03,1.498966291546821594e-02,-8.794516324996948242e-04,3.454137593507766724e-03
-9.343810379505157471e-04,-2.270440757274627686e-02,-1.044768281280994415e-02,-3.116320818662643433e-03,9.039752185344696045e-03,2.405344694852828979e-02,-3.070407174527645111e-02,1.341649517416954041e-02,-9.252876043319702148e-03,-1.101234368979930878e-02
-1.857755333185195923e-02,2.045676484704017639e-02,-2.446153387427330017e-02,2.692666649818420410e-02,3.286413475871086121e-02,-2.687386609613895416e-02,2.193033695220947266e-03,-2.023304626345634460e-02,-1.580352522432804108e-02,3.208957239985466003e-02
-1.809588447213172913e-02,-4.870980978012084961e-03,-1.586467958986759186e-02,2.543570473790168762e-02,2.760939300060272217e-03,5.988288670778274536e-03,7.849670946598052979e-04,1.259869709610939026e-02,-1.764950528740882874e-02,3.042982146143913269e-02
-1.143469102680683136e-02,-4.036705940961837769e-03,-2.220123633742332458e-02,-9.514326229691505432e-03,2.132026106119155884e-02,-1.240837574005126953e-02,-9.137934073805809021e-03,-6.849898025393486023e-03,1.815370097756385803e-02,-4.707977175712585449e-03
2.713981643319129944e-02,-3.007628023624420166e-02,-1.985069550573825836e-02,3.089122474193572998e-03,-2.895249053835868835e-02,-1.066982187330722809e-02,-3.019803017377853394e-02,1.627367362380027771e-02,6.231326609849929810e-03,-1.948274672031402588e-03
-2.647626586258411407e-02,-2.776856720447540283e-02,3.210950270295143127e-02,1.798211783170700073e-02,1.104169338941574097e-02,3.232754394412040710e-02,-3.224495053291320801e-02,-9.377788752317428589e-03,7.258988916873931885e-03,-1.354194805026054382e-02
-2.098610252141952515e-02,1.266922429203987122e-02,-3.154587000608444214e-03,-1.251388341188430786e-02,-2.586108259856700897e-02,1.912029460072517395e-02,-1.867783442139625549e-02,-9.828817099332809448e-03,1.912686228752136230e-02,1.866999268531799316e-02
1.609621942043304443e-02,-2.586030401289463043e-02,2.097907289862632751e-02,8.617322891950607300e-03,-1.094551570713520050e-02,3.417208790779113770e-05,-1.963891088962554932e-02,-2.281603962182998657e-02,1.745355129241943359e-02,-4.719853401184082031e-03
-2.352682873606681824e-03,4.934899508953094482e-03,3.168275579810142517e-02,-2.096288651227951050e-02,2.036799862980842590e-02,2.659130096435546875e-02,2.242887392640113831e-02,-1.980289258062839508e-02,2.009195461869239807e-02,-2.848025411367416382e-02
-2.701526693999767303e-02,1.621841266751289368e-02,-2.729928307235240936e-02,2.118213474750518799e-02,-1.592613011598587036e-02,-1.273197494447231293e-02,-1.727105863392353058e-02,1.899470388889312744e-02,2.260221540927886963e-02,-6.193060427904129028e-03
2.623615041375160217e-02,2.385275438427925110e-02,2.263348549604415894e-02,2.840314432978630066e-02,-2.301090955734252930e-02,-5.497615784406661987e-03,2.451324835419654846e-02,-2.901018783450126648e-02,4.975799471139907837e-03,1.389936357736587524e-02
1.662466675043106079e-03,-4.980614408850669861e-03,1.003228873014450073e-02,2.554825693368911743e-02,1.487061381340026855e-02,-1.551890559494495392e-02,3.273042663931846619e-02,9.660407900810241699e-03,-1.584750413894653320e-02,-2.268543839454650879e-02
-1.158669590950012207e-03,-2.589761093258857727e-02,-3.218108788132667542e-03,2.299387380480766296e-02,-1.635930687189102173e-02,-2.234517782926559448e-02,-2.155108749866485596e-02,-2.523832768201828003e-02,2.580112591385841370e-02,-6.892630830407142639e-03
-1.861250400543212891e-02,-2.312548458576202393e-04,1.536503434181213379e-03,1.511676609516143799e-02,1.906497776508331299e-02,-2.298463881015777588e-02,-2.987282350659370422e-03,-2.126140519976615906e-03,-3.030940704047679901e-02,1.232440769672393799e-02
1.909741014242172241e-02,2.395120635628700256e-02,-2.318201586604118347e-03,5.099326372146606445e-04,1.680675521492958069e-02,1.262670382857322693e-02,-1.711329817771911621e-02,-2.283602952957153320e-04,-1.397460885345935822e-02,-2.906897850334644318e-02
-7.316453382372856140e-03,-1.150947064161300659e-03,-1.958146691322326660e-03,3.190096840262413025e-02,2.110217511653900146e-02,-1.807179674506187439e-02,-2.633581683039665222e-02,-9.258778765797615051e-03,1.320822536945343018e-02,2.200902625918388367e-02
-3.289589285850524902e-02,5.694650113582611084e-03,-1.297217980027198792e-02,2.295571938157081604e-02,-1.326119340956211090e-02,1.419500261545181274e-02,-2.699966914951801300e-02,-3.396322950720787048e-03,1.126289367675781250e-02,2.542466670274734497e-02
1.159190386533737183e-02,7.485955953598022461e-03,1.125329360365867615e-02,-2.797890827059745789e-02,-2.885598689317703247e-03,-9.720319882035255432e-03,3.067180886864662170e-02,-2.154233679175376892e-02,-1.978071033954620361e-02,5.851309746503829956e-03
-8.400533348321914673e-03,9.602744132280349731e-03,-1.259382814168930054e-03,-2.359948307275772095e-02,-1.611453294754028320e-02,-2.450953610241413116e-02,1.875441148877143860e-02,-8.809074759483337402e-03,-1.019012182950973511e-03,3.963887691497802734e-03
-2.636087313294410706e-02,2.607222273945808411e-02,-1.041001267731189728e-02,5.969215184450149536e-03,-2.888970077037811279e-03,-1.513998210430145264e-02,2.046696841716766357e-02,-3.065946698188781738e-02,-1.532569527626037598e-03,-2.540633268654346466e-02
-4.165619611740112305e-04,2.330907806754112244e-02,-3.266087546944618225e-02,1.635260879993438721e-02,2.701084688305854797e-02,1.999800652265548706e-02,-7.145259529352188110e-03,1.389923691749572754e-02,1.737832650542259216e-02,2.113946527242660522e-02
2.331322804093360901e-02,1.330258697271347046e-02,1.195248216390609741e-02,3.120510652661323547e-02,3.062933310866355896e-02,1.493754610419273376e-02,-2.386812865734100342e-02,-1.628153584897518158e-02,1.884962245821952820e-02,7.460743188858032227e-03
-1.014779135584831238e-02,1.652460545301437378e-02,1.123297959566116333e-03,1.489092409610748291e-02,2.567958831787109375e-02,1.419417560100555420e-02,-7.547724992036819458e-03,1.682814583182334900e-02,-2.997186034917831421e-02,7.840491831302642822e-03
-2.249726466834545135e-02,1.371935009956359863e-03,-3.117218241095542908e-02,1.268623396754264832e-02,2.484861388802528381e-02,-2.980769611895084381e-02,-1.720861718058586121e-02,3.307811543345451355e-02,7.195863872766494751e-03,-1.802182011306285858e-02
2.147101610898971558e-02,2.932921424508094788e-02,-2.732805162668228149e-02,-1.769464276731014252e-02,1.505386084318161011e-03,-4.999371245503425598e-03,2.452489733695983887e-02,4.938539117574691772e-03,1.960264518857002258e-02,-1.278910785913467407e-02
-7.726034149527549744e-03,-1.585066132247447968e-02,-2.984499558806419373e-02,1.235208287835121155e-02,-8.783563971519470215e-04,2.374957874417304993e-02,-3.125080838799476624e-03,6.115328520536422729e-03,-3.318832442164421082e-02,-2.447505481541156769e-02
2.203383669257164001e-02,-1.313462853431701660e-03,-2.281615138053894043e-02,-7.677700370550155640e-03,1.906541362404823303e-02,-7.214516401290893555e-03,-2.771311625838279724e-02,3.070583567023277283e-02,-1.191254705190658569e-03,1.830023527145385742e-02
2.469886839389801025e-02,-1.030928082764148712e-02,1.597108319401741028e-02,1.899909973144531250e-02,9.839925915002822876e-03,-1.913432031869888306e-02,-2.829952538013458252e-02,-2.266277000308036804e-02,2.327089384198188782e-02,-2.534679509699344635e-02
1.050190627574920654e-02,9.749285876750946045e-03,4.850812256336212158e-04,-1.222137734293937683e-02,3.141831979155540466e-02,-2.372202277183532715e-02,-1.422235183417797089e-02,1.869004219770431519e-03,-3.314476087689399719e-02,-3.055771254003047943e-02
3.085792064666748047e-03,2.675107121467590332e-02,-1.847722753882408142e-02,-1.904207840561866760e-02,-1.790608465671539307e-02,2.313442528247833252e-02,2.592884004116058350e-02,1.374284550547599792e-02,-3.222861140966415405e-02,1.724425703287124634e-02
1.421429961919784546e-02,3.261835500597953796e-02,6.593201309442520142e-03,-2.704565599560737610e-02,-6.113195791840553284e-03,-1.993459090590476990e-02,1.859181374311447144e-02,-1.248962804675102234e-02,-4.648391157388687134e-03,-2.104767039418220520e-02
-2.466329187154769897e-02,-2.713150903582572937e-02,-2.366869896650314331e-02,-7.168468087911605835e-03,1.623125001788139343e-02,1.861978694796562195e-02,-2.724435552954673767e-02,-1.513836346566677094e-02,-1.535359211266040802e-02,-2.129014953970909119e-02
3.160366043448448181e-02,-2.099646255373954773e-02,1.123106107115745544e-02,2.900408580899238586e-02,2.908036485314369202e-02,1.579038798809051514e-04,2.086102962493896484e-02,7.124990224838256836e-03,-1.628256030380725861e-02,3.429487347602844238e-03
2.722456678748130798e-02,-2.828082442283630371e-02,2.690858766436576843e-02,1.309655979275703430e-02,2.467765286564826965e-02,1.687302812933921814e-02,-2.009749412536621094e-02,2.780424058437347412e-02,-2.759686671197414398e-02,1.468011364340782166e-02
-6.867107003927230835e-03,1.122136786580085754e-02,-3.216206282377243042e-02,-2.950791642069816589e-02,-1.189913600683212280e-03,2.628899738192558289e-02,2.664991095662117004e-02,2.574484050273895264e-02,-1.478401944041252136e-02,-1.682908274233341217e-02
2.765264362096786499e-02,-1.712231896817684174e-02,-2.689831145107746124e-02,1.955930888652801514e-02,1.556756347417831421e-02,7.034651935100555420e-03,-3.393864259123802185e-03,-1.795420609414577484e-02,-2.284207940101623535e-02,-2.769859693944454193e-02
-1.452425122261047363e-02,-1.828523166477680206e-02,-1.820705831050872803e-02,1.707214862108230591e-03,1.475401967763900757e-02,-2.840779349207878113e-02,3.257602080702781677e-02,9.275510907173156738e-03,1.128416508436203003e-02,2.852361276745796204e-02
-6.779283285140991211e-04,1.561150327324867249e-02,1.789373904466629028e-02,-2.600510045886039734e-02,2.503054216504096985e-02,-4.837334156036376953e-03,1.206218823790550232e-02,1.996443048119544983e-02,2.571138367056846619e-02,-6.539501249790191650e-03
1.332237944006919861e-02,-1.352235861122608185e-02,-2.509867399930953979e-02,2.855200320482254028e-02,-1.801590994000434875e-02,1.101870089769363403e-03,6.581503897905349731e-03,2.553148567676544189e-02,-9.935205802321434021e-03,8.746862411499023438e-03
-1.950846612453460693e-02,-2.497671172022819519e-02,1.588443666696548462e-02,2.207460254430770874e-02,-1.185338757932186127e-02,-2.513538300991058350e-02,2.359308302402496338e-03,7.984429597854614258e-03,-2.435483783483505249e-02,-9.908372536301612854e-03
3.991395235061645508e-03,-1.885198056697845459e-03,3.200175985693931580e-02,1.734558492898941040e-02,2.617079764604568481e-02,2.765332534909248352e-02,-1.857294514775276184e-02,-2.429014444351196289e-02,-1.288912445306777954e-02,1.736081019043922424e-02
-2.794280089437961578e-02,1.668276265263557434e-02,1.729626581072807312e-02,6.484583020210266113e-03,-1.059413142502307892e-02,-2.656834945082664490e-02,-2.995873801410198212e-02,-2.812570519745349884e-02,-3.195096924901008606e-02,-1.387502811849117279e-02
-9.991832077503204346e-03,1.576993241906166077e-02,-3.217509761452674866e-02,-3.187394514679908752e-02,2.289111167192459106e-02,1.818151026964187622e-02,-7.689997553825378418e-03,-9.893028065562248230e-03,-9.447745978832244873e-04,3.571350127458572388e-03
-7.676050066947937012e-03,1.694409549236297607e-02,-2.071697264909744263e-03,-9.496340528130531311e-03,-4.926020279526710510e-03,-2.731719054281711578e-02,-1.901422999799251556e-02,3.088335320353507996e-02,-1.811721175909042358e-02,2.747003361582756042e-02
-2.870379015803337097e-02,-2.157816663384437561e-02,-2.263546735048294067e-02,-2.848507836461067200e-03,2.324371039867401123e-02,-1.617478393018245697e-02,-3.244127705693244934e-02,2.684057503938674927e-02,-1.748970523476600647e-02,2.689230442047119141e-02
-1.587163843214511871e-02,-1.327263377606868744e-02,-2.136109024286270142e-02,2.741443738341331482e-02,1.825191453099250793e-02,3.041510656476020813e-02,3.082673624157905579e-02,1.345948129892349243e-02,1.480623707175254822e-02,-1.993568614125251770e-02
8.339188992977142334e-03,-2.027040719985961914e-02,-2.133472450077533722e-02,-2.874475345015525818e-02,1.895505934953689575e-03,-1.098363846540451050e-02,2.814888954162597656e-02,-3.027773462235927582e-02,-2.123633399605751038e-02,7.857613265514373779e-03
-5.301162600517272949e-04,-1.157262362539768219e-02,3.242391720414161682e-02,2.242582663893699646e-02,1.875414326786994934e-02,-1.037797518074512482e-02,-1.563098281621932983e-02,-3.006356209516525269e-02,2.886164560914039612e-02,-1.562019251286983490e-02
-1.331562921404838562e-02,5.582526326179504395e-03,-2.770963311195373535e-02,-2.872531488537788391e-02,-2.872654423117637634e-02,4.415288567543029785e-03,2.813832089304924011e-02,2.229337394237518311e-02,9.698800742626190186e-03,3.069492802023887634e-02
2.171801030635833740e-02,-2.926044352352619171e-02,1.262508705258369446e-02,1.855422183871269226e-02,1.661339402198791504e-02,-1.809928938746452332e-02,-3.036247007548809052e-02,1.590784266591072083e-02,7.636688649654388428e-03,-1.538392342627048492e-02
-1.548872515559196472e-02,-2.423999086022377014e-02,7.402651011943817139e-03,-3.163153305649757385e-02,2.771800383925437927e-02,-1.125614903867244720e-02,-1.648310571908950806e-03,3.490760922431945801e-03,-1.668526232242584229e-02,-2.698337286710739136e-02
-1.378147862851619720e-02,3.259429708123207092e-02,-1.402405463159084320e-02,-1.659271866083145142e-02,1.022482290863990784e-02,-2.829838171601295471e-02,1.954828202724456787e-02,2.257963642477989197e-02,-8.196167647838592529e-03,9.699564427137374878e-03
-2.181971073150634766e-02,9.063966572284698486e-03,-2.473160251975059509e-02,-4.506839439272880554e-03,1.325298100709915161e-02,-1.583369821310043335e-02,1.736553013324737549e-02,-3.171194344758987427e-03,2.196668833494186401e-02,2.349477261304855347e-03
2.450100705027580261e-02,3.138684853911399841e-02,-1.469850540161132812e-04,-7.211752235889434814e-04,9.831245988607406616e-03,-2.662502974271774292e-02,-8.587706834077835083e-03,2.645831927657127380e-02,2.457314357161521912e-02,-6.462628021836280823e-03
-3.941591829061508179e-03,-3.141579777002334595e-02,7.322262972593307495e-03,-2.852031402289867401e-02,2.790962904691696167e-02,2.929347380995750427e-02,3.222107514739036560e-02,-1.749929785728454590e-02,-6.836950778961181641e-03,2.047861367464065552e-02
4.742600023746490479e-03,1.492126286029815674e-02,2.187717705965042114e-02,4.703335464000701904e-03,-1.237641647458076477e-02,1.879007741808891296e-02,-3.044704720377922058e-02,2.397637814283370972e-03,2.767758816480636597e-02,6.076224148273468018e-03
-7.373508065938949585e-03,-1.037939451634883881e-02,-3.441110253334045410e-03,-2.844904176890850067e-02,9.075898677110671997e-03,2.149609476327896118e-02,1.923448964953422546e-02,3.315314278006553650e-02,-1.394146867096424103e-02,2.147702872753143311e-02
-1.171174831688404083e-02,-9.143345057964324951e-03,1.008391380310058594e-02,3.284442052245140076e-02,2.588094770908355713e-02,2.498047053813934326e-02,3.054983913898468018e-03,2.186811715364456177e-02,2.387793734669685364e-02,3.148422762751579285e-02
-2.356426417827606201e-02,-3.133788704872131348e-02,-1.400137878954410553e-02,-6.243044510483741760e-03,2.849124372005462646e-03,-1.024024002254009247e-02,-2.582023665308952332e-02,7.753543555736541748e-03,-4.461757838726043701e-03,-1.658845134079456329e-02
1.259401813149452209e-02,1.521364971995353699e-02,8.023180067539215088e-03,-8.607311174273490906e-03,2.645698562264442444e-02,2.682488784193992615e-02,-9.161284193396568298e-03,2.653513848781585693e-02,1.434427499771118164e-02,-6.126334890723228455e-03
-1.891497522592544556e-03,1.442608982324600220e-02,4.027113318443298340e-04,-1.721892505884170532e-03,3.266583755612373352e-02,3.173824027180671692e-02,-9.318506345152854919e-03,-2.915494143962860107e-03,-6.985746324062347412e-03,-2.293428964912891388e-02
9.711783379316329956e-03,2.945693954825401306e-02,5.899485200643539429e-03,2.126717567443847656e-02,-3.148607909679412842e-02,-8.935667574405670166e-04,8.779164403676986694e-03,3.258699551224708557e-02,-2.584044635295867920e-02,-1.179020851850509644e-02
2.310280874371528625e-02,-2.584475278854370117e-02,1.281466335058212280e-02,-1.808887161314487457e-02,1.388805732131004333e-02,-7.513297721743583679e-03,-2.424399182200431824e-02,3.789495676755905151e-03,-2.725601196289062500e-03,-3.110600635409355164e-03
-1.818448305130004883e-03,-1.111824065446853638e-02,3.094561025500297546e-02,2.882708609104156494e-02,-2.800105139613151550e-02,7.282122969627380371e-04,-2.027471736073493958e-02,3.118533641099929810e-03,1.817408204078674316e-02,1.946548745036125183e-02
3.242320939898490906e-02,1.675265282392501831e-02,3.087477758526802063e-02,9.031184017658233643e-04,2.845271676778793335e-02,1.380635797977447510e-02,-2.243521250784397125e-02,2.831928804516792297e-02,-1.922646537423133850e-02,2.428673952817916870e-02
-3.065604716539382935e-02,-2.335125580430030823e-03,2.381975576281547546e-02,-2.587437257170677185e-02,-7.186342030763626099e-03,1.663620397448539734e-02,6.764005869626998901e-03,-2.449892088770866394e-02,8.509017527103424072e-03,-3.822978585958480835e-03
2.825484052300453186e-02,1.956444233655929565e-02,2.646590396761894226e-02,-9.177042171359062195e-03,-1.664679497480392456e-03,2.258370816707611084e-02,2.453812211751937866e-02,-1.682823337614536285e-02,-9.538676589727401733e-03,2.588985115289688110e-02
2.076373249292373657e-02,1.838823780417442322e-02,-1.192520745098590851e-02,9.348582476377487183e-03,-1.913439109921455383e-02,4.748914390802383423e-03,-1.090309955179691315e-02,-2.006193250417709351e-02,7.161360234022140503e-03,-2.598050609230995178e-02
-2.882154658436775208e-03,1.450213789939880371e-02,-1.219837740063667297e-02,2.045520767569541931e-02,-1.645255833864212036e-03,9.924385696649551392e-03,2.198990434408187866e-03,2.750788629055023193e-02,1.811160892248153687e-02,-1.119904033839702606e-02
2.677039802074432373e-02,2.888026833534240723e-02,8.992627263069152832e-04,-2.565166167914867401e-02,1.102496683597564697e-02,3.962885588407516479e-03,2.716923505067825317e-02,-2.270279824733734131e-02,-8.500844240188598633e-03,-1.455670967698097229e-02
1.110206171870231628e-02,-2.427697181701660156e-02,2.148134633898735046e-02,2.085914090275764465e-02,-1.109312847256660461e-02,-3.784878179430961609e-03,1.754142716526985168e-02,7.084619253873825073e-03,-1.984406262636184692e-02,-1.865519769489765167e-02
7.129114121198654175e-03,1.679366454482078552e-02,-3.028996102511882782e-02,-3.025034628808498383e-02,-2.173467352986335754e-02,-3.100980445742607117e-02,-4.290057346224784851e-03,3.251341357827186584e-02,1.700783148407936096e-02,1.127885654568672180e-02
-6.105341017246246338e-04,-1.452579721808433533e-02,1.741857826709747314e-02,9.469125419855117798e-03,1.099672168493270874e-02,1.972950994968414307e-03,-2.293542400002479553e-02,2.652766183018684387e-02,2.976246178150177002e-03,4.445787519216537476e-03
2.652478218078613281e-02,1.815814524888992310e-03,-4.811905324459075928e-03,-3.180830553174018860e-02,2.208797633647918701e-02,-1.232594065368175507e-02,2.181112766265869141e-02,-1.265015825629234314e-02,-1.291624456644058228e-02,-1.210241392254829407e-02
-8.416393771767616272e-03,-2.892548218369483948e-03,-2.080994844436645508e-02,-5.326882004737854004e-03,-3.003610298037528992e-03,-7.318779826164245605e-04,-1.136369630694389343e-02,1.276637613773345947e-02,5.264233797788619995e-03,1.865612715482711792e-02
1.243036985397338867e-02,4.843126982450485229e-03,1.287266984581947327e-02,-1.179755479097366333e-02,-9.826937690377235413e-03,1.202347874641418457e-02,2.960712835192680359e-02,-4.622828215360641479e-03,1.592582836747169495e-02,1.287273317575454712e-02
3.000172600150108337e-02,8.213806897401809692e-03,2.519194036722183228e-03,-4.149520769715309143e-03,-2.739180997014045715e-02,2.589067444205284119e-02,-1.996903121471405029e-02,6.136126816272735596e-03,2.611774951219558716e-02,-2.177433669567108154e-02
-2.625826932489871979e-02,-2.767708152532577515e-02,-2.467780932784080505e-02,1.671881601214408875e-02,-2.650793083012104034e-02,1.146725192666053772e-02,-2.154429629445075989e-02,3.296108916401863098e-02,2.957994118332862854e-02,1.245323568582534790e-02
2.580326795578002930e-02,-1.281020417809486389e-02,-2.029647305607795715e-02,-2.249681204557418823e-02,-2.506932616233825684e-02,2.373211458325386047e-02,1.047875359654426575e-02,2.591869980096817017e-02,-1.678681746125221252e-02,2.987332269549369812e-02
-1.425403170287609100e-02,-8.442386984825134277e-03,-2.017115429043769836e-02,2.673662453889846802e-02,-6.258226931095123291e-04,-1.181059144437313080e-02,-2.236260101199150085e-02,-1.591675914824008942e-02,-3.085855767130851746e-02,-1.249607838690280914e-02
-3.019804134964942932e-03,-1.270597428083419800e-02,2.675625309348106384e-02,1.918911188840866089e-02,-2.476850524544715881e-02,2.798190712928771973e-02,2.418768405914306641e-02,1.979833096265792847e-02,1.882139965891838074e-02,3.052029386162757874e-02
2.750672027468681335e-02,-2.682315185666084290e-02,1.275103911757469177e-02,1.250976696610450745e-02,8.389726281166076660e-03,3.055793419480323792e-02,-3.120495006442070007e-03,-1.374135538935661316e-02,4.187159240245819092e-03,-1.314752921462059021e-02
1.140657812356948853e-02,-3.090601786971092224e-02,1.833157613873481750e-02,-1.725739613175392151e-02,3.977715969085693359e-03,-2.568551711738109589e-02,5.589261651039123535e-03,2.025440335273742676e-03,2.434982359409332275e-02,-3.290728479623794556e-02
-1.198641024529933929e-02,-1.302378997206687927e-02,9.980425238609313965e-05,2.267022058367729187e-02,9.936254471540451050e-03,-2.123419195413589478e-02,-1.319263502955436707e-02,1.733303815126419067e-02,-2.898591011762619019e-02,2.877886965870857239e-02
6.468854844570159912e-03,-1.927955448627471924e-02,-1.282281987369060516e-02,-1.905931904911994934e-02,1.239360868930816650e-02,-9.272361174225807190e-03,-5.494600161910057068e-03,1.148086786270141602e-02,7.364343851804733276e-03,2.288396283984184265e-02
-1.921389065682888031e-02,3.207455947995185852e-02,2.362655475735664368e-02,-2.907268330454826355e-02,-1.508035697042942047e-02,2.068549394607543945e-02,-2.488040551543235779e-02,-9.044518694281578064e-03,2.909655123949050903e-02,9.770605713129043579e-03
1.937528699636459351e-02,2.514469996094703674e-02,-2.723459713160991669e-02,5.972471088171005249e-03,1.359646394848823547e-02,-2.255873754620552063e-02,-9.219536557793617249e-03,1.162782311439514160e-02,-1.683527231216430664e-02,1.139944791793823242e-02
-3.144064918160438538e-02,-1.663863286375999451e-02,2.461289986968040466e-02,-2.406549826264381409e-02,1.309090480208396912e-02,1.791305840015411377e-02,2.621426060795783997e-02,-1.447020284831523895e-02,2.988569065928459167e-02,-9.249361231923103333e-03
1.920266449451446533e-02,-2.745423652231693268e-02,-3.238175436854362488e-02,-3.093178756535053253e-02,-2.617784217000007629e-02,-2.510139346122741699e-02,2.392724528908729553e-02,-1.158265210688114166e-02,-1.168420910835266113e-02,1.712200045585632324e-02
-1.321524009108543396e-02,-2.396330237388610840e-04,-1.505269855260848999e-02,1.439990848302841187e-02,1.017924398183822632e-02,-2.433643862605094910e-02,-2.560168504714965820e-04,-7.328268140554428101e-03,-2.534816041588783264e-02,-1.304847374558448792e-02
1.389168947935104370e-02,-4.242960363626480103e-03,1.813530921936035156e-03,-1.485891826450824738e-02,-9.794304147362709045e-03,2.523660659790039062e-04,8.786264806985855103e-03,1.123967766761779785e-02,2.265626192092895508e-02,4.284437745809555054e-03
-7.688498124480247498e-03,-1.750521734356880188e-02,1.106411218643188477e-04,-2.687242254614830017e-02,2.502067387104034424e-02,7.671702653169631958e-03,2.747106552124023438e-02,3.117066994309425354e-02,1.208971813321113586e-02,-1.076654531061649323e-02
6.756450980901718140e-03,1.182673498988151550e-02,-2.795713022351264954e-03,4.835721105337142944e-03,1.817306131124496460e-02,2.859040349721908569e-02,1.977597922086715698e-02,-2.880631387233734131e-02,-2.517671138048171997e-02,1.108836010098457336e-02
6.239879876375198364e-03,9.416840970516204834e-03,-1.671802997589111328e-02,-5.786003544926643372e-03,-2.644743770360946655e-03,2.093219757080078125e-02,8.882403373718261719e-03,6.342206150293350220e-03,2.230560779571533203e-02,-2.853037416934967041e-02
2.952795848250389099e-02,1.648863032460212708e-02,2.356043830513954163e-02,-2.316732145845890045e-02,-1.412672922015190125e-02,-2.635792270302772522e-02,-2.685999870300292969e-02,1.658592745661735535e-02,-9.703554213047027588e-03,3.271755948662757874e-02
3.221630677580833435e-02,3.168484196066856384e-02,-2.026043832302093506e-03,2.773190662264823914e-02,2.454626932740211487e-02,-2.133589051663875580e-02,5.211956799030303955e-03,-2.612589672207832336e-02,5.562983453273773193e-03,1.590446010231971741e-02
-4.302807152271270752e-03,-1.259732991456985474e-03,2.934511378407478333e-02,-6.162054836750030518e-03,-1.495414972305297852e-02,6.422236561775207520e-03,2.602554857730865479e-02,2.153377607464790344e-02,7.381863892078399658e-03,-1.626624725759029388e-02
-1.664076745510101318e-02,-6.145788356661796570e-03,-2.447902224957942963e-02,-6.801707670092582703e-03,-3.161370754241943359e-03,3.211911767721176147e-03,-6.277620792388916016e-03,-4.793839529156684875e-03,-1.410924270749092102e-02,5.499076098203659058e-03
-1.644311472773551941e-02,-2.158716320991516113e-02,2.867232263088226318e-02,2.120630443096160889e-02,3.641452640295028687e-03,3.081990405917167664e-02,-1.791260018944740295e-02,-5.256609991192817688e-03,1.576874405145645142e-03,1.925616338849067688e-02
-2.061323821544647217e-02,1.910547912120819092e-02,-2.789769507944583893e-02,-1.814338564872741699e-02,-5.523782223463058472e-03,-2.913748100399971008e-02,2.860886603593826294e-02,2.111392095685005188e-02,4.123352468013763428e-03,-3.761075437068939209e-03
5.112398415803909302e-03,1.882188394665718079e-02,1.974498108029365540e-02,-2.365010976791381836e-02,-7.429156452417373657e-03,3.092105314135551453e-02,-2.116699144244194031e-02,-4.639387130737304688e-03,2.965774387121200562e-03,2.337966859340667725e-02
-1.405376009643077850e-02,-1.140748523175716400e-02,2.167331054806709290e-02,-3.059938922524452209e-02,1.067410781979560852e-02,-1.857987791299819946e-02,-6.099455058574676514e-03,2.092681825160980225e-04,2.902504056692123413e-02,-3.275443613529205322e-02
-5.867565050721168518e-03,1.517619192600250244e-02,-8.881831541657447815e-03,-1.586777530610561371e-02,1.496952772140502930e-02,2.171009778976440430e-03,1.691155880689620972e-02,-5.200538784265518188e-03,1.882782578468322754e-02,-2.125981822609901428e-02
-3.239319846034049988e-02,-3.170210868120193481e-02,1.423824578523635864e-03,-1.235355064272880554e-02,-1.103101298213005066e-02,-1.897218078374862671e-02,-3.278058767318725586e-02,-1.851324923336505890e-02,3.039703145623207092e-02,4.430506378412246704e-03
1.758392900228500366e-02,-1.772599853575229645e-02,1.333029940724372864e-02,-2.085380814969539642e-02,9.835015982389450073e-03,8.602369576692581177e-03,1.046010106801986694e-02,2.576417475938796997e-02,-3.032629191875457764e-02,-1.866005361080169678e-02
2.981844171881675720e-02,9.271338582038879395e-03,-2.795741520822048187e-02,2.954374626278877258e-02,-9.669937193393707275e-03,2.846619486808776855e-02,-1.153239049017429352e-02,-1.754073798656463623e-02,2.634144946932792664e-02,2.259958535432815552e-03
-3.089624270796775818e-02,6.481949239969253540e-03,-3.767827525734901428e-03,-1.430500857532024384e-02,2.313338220119476318e-03,1.467698067426681519e-02,-2.958990633487701416e-02,6.666000932455062866e-03,1.762909814715385437e-02,2.832198515534400940e-02
-2.552954480051994324e-03,-2.019997686147689819e-03,1.184556633234024048e-03,3.123066201806068420e-02,3.646738827228546143e-03,2.930201590061187744e-04,9.679008275270462036e-03,-3.315575793385505676e-02,1.254120096564292908e-02,6.190538406372070312e-03
4.161071032285690308e-03,-1.184630207717418671e-02,-2.478208765387535095e-02,2.313409373164176941e-02,-2.427321299910545349e-02,-4.661688581109046936e-03,2.040834352374076843e-02,-1.159260235726833344e-02,1.029495149850845337e-03,-2.480488270521163940e-02
-1.189041510224342346e-02,-3.077492117881774902e-03,-1.823607832193374634e-03,-1.527785323560237885e-02,-3.126106038689613342e-02,7.427133619785308838e-03,-1.281079277396202087e-02,-2.685493603348731995e-02,-7.301010191440582275e-04,1.455282047390937805e-02
1.698682829737663269e-02,-2.066291496157646179e-02,-2.140364050865173340e-02,1.011919602751731873e-02,-1.343673467636108398e-02,-8.006988093256950378e-03,4.858255386352539062e-03,-2.764145657420158386e-02,1.545621827244758606e-02,2.868422493338584900e-02
-2.879457920789718628e-02,1.521111279726028442e-02,-1.066337153315544128e-02,1.676785573363304138e-02,-1.331505738198757172e-02,-3.072926402091979980e-02,-1.832948811352252960e-02,-8.148722350597381592e-03,9.696796536445617676e-03,4.063889384269714355e-03
-3.074203617870807648e-02,3.130048885941505432e-02,6.050284951925277710e-03,1.444811373949050903e-02,-1.555122993886470795e-02,-1.059543155133724213e-02,-2.475038170814514160e-02,6.922390311956405640e-03,6.201185286045074463e-03,-1.067635975778102875e-02
5.304515361785888672e-03,2.650609984993934631e-02,-4.636045545339584351e-03,-2.184299752116203308e-02,-3.227727860212326050e-02,-1.494578830897808075e-02,-1.844803988933563232e-02,-1.686149463057518005e-02,2.599458023905754089e-02,-2.535264939069747925e-02
1.865038275718688965e-02,-2.481056377291679382e-02,-3.210722282528877258e-02,-2.353889867663383484e-03,-2.669978514313697815e-02,2.198424935340881348e-02,1.026711985468864441e-02,-1.640736311674118042e-02,6.254479289054870605e-03,-8.588483557105064392e-03
-1.902715489268302917e-02,-7.604120299220085144e-03,1.392986252903938293e-02,-7.343539968132972717e-03,-2.670053020119667053e-02,-2.590331435203552246e-02,1.599686965346336365e-02,2.859345823526382446e-02,1.119557395577430725e-02,2.771846577525138855e-02
9.078532457351684570e-03,1.164735481142997742e-02,2.806707844138145447e-02,-1.508367434144020081e-02,1.633553579449653625e-02,-2.927213907241821289e-03,9.365133941173553467e-03,3.090339526534080505e-02,4.391700029373168945e-03,1.486843079328536987e-02
-2.665911428630352020e-02,2.495764568448066711e-02,-3.028326481580734253e-02,1.781769096851348877e-04,-2.811195515096187592e-02,9.385984390974044800e-03,2.545319125056266785e-02,-5.661334842443466187e-03,-1.803158596158027649e-02,-1.238256692886352539e-03
2.699071168899536133e-02,-1.117219962179660797e-02,2.637058496475219727e-02,1.191280409693717957e-02,-1.167781464755535126e-02,1.499120891094207764e-02,2.900413423776626587e-02,-3.930183127522468567e-03,-2.768837846815586090e-02,5.453288555145263672e-03
9.790915995836257935e-03,-2.501131221652030945e-02,2.447446063160896301e-02,-4.518717527389526367e-03,1.246903836727142334e-02,1.015997678041458130e-02,2.229585871100425720e-02,-2.392530441284179688e-04,7.240653038024902344e-03,-7.526667788624763489e-03
-2.238208614289760590e-02,2.247121185064315796e-03,5.233824253082275391e-03,1.547362655401229858e-02,1.570751518011093140e-02,-1.053398288786411285e-02,-1.445583440363407135e-02,-8.666761219501495361e-03,-2.086691558361053467e-02,-1.246631890535354614e-02
-2.219047769904136658e-02,3.103075549006462097e-02,3.095586225390434265e-02,3.246470168232917786e-02,6.033737212419509888e-03,-9.200051426887512207e-04,-3.105727396905422211e-02,1.644846051931381226e-02,2.658804133534431458e-02,-2.165651507675647736e-02
-1.753484271466732025e-02,-2.911033853888511658e-02,-1.197934150695800781e-02,9.724270552396774292e-03,-1.042749918997287750e-02,-4.883350804448127747e-03,-1.757808402180671692e-02,-1.410496607422828674e-02,-1.107960939407348633e-02,-2.609151229262351990e-02
-5.910614505410194397e-03,6.623491644859313965e-03,3.082938119769096375e-02,-2.394451946020126343e-02,-1.780800521373748779e-02,-2.395869791507720947e-02,1.596044376492500305e-02,-2.583691850304603577e-03,-2.191561833024024963e-02,-2.843845821917057037e-02
5.873769521713256836e-03,-2.706987783312797546e-02,1.978563517332077026e-02,1.196151971817016602e-02,2.221106737852096558e-02,2.402096986770629883e-03,-2.495952509343624115e-02,-4.185890778899192810e-03,1.048631593585014343e-02,-2.005095966160297394e-02
2.685554698109626770e-02,-6.802596151828765869e-03,2.472105249762535095e-02,-1.286633126437664032e-02,2.433011680841445923e-02,1.566535979509353638e-02,8.315075188875198364e-03,2.873193100094795227e-02,-2.753188647329807281e-02,-3.311381861567497253e-02
-1.588236540555953979e-02,-2.663118764758110046e-02,2.717125788331031799e-02,-1.856358349323272705e-02,3.020692989230155945e-02,3.448504954576492310e-03,3.174426034092903137e-02,1.825366914272308350e-02,-1.465516351163387299e-02,2.039327472448348999e-02
7.864870131015777588e-04,-1.504124328494071960e-02,-3.155032172799110413e-02,-1.956320554018020630e-02,1.030133292078971863e-02,-1.713884435594081879e-02,-1.264694519340991974e-02,3.022477030754089355e-03,8.497036993503570557e-03,-3.273362293839454651e-02
-6.753951311111450195e-04,3.337539732456207275e-03,1.409827917814254761e-02,3.232568129897117615e-02,2.717687562108039856e-02,8.587792515754699707e-03,2.966458722949028015e-02,2.419108524918556213e-02,-1.437936723232269287e-02,-7.319079712033271790e-03
1.323281973600387573e-02,5.198445171117782593e-03,-2.215841598808765411e-02,5.346041172742843628e-03,-2.335829287767410278e-02,-3.145531192421913147e-02,1.307550817728042603e-03,2.227560430765151978e-02,-2.901725657284259796e-02,-6.486097350716590881e-03
-3.232199698686599731e-03,-1.959897577762603760e-03,-6.763497367501258850e-03,1.346658170223236084e-02,1.339482888579368591e-02,2.460834756493568420e-02,-2.113284915685653687e-02,2.914678677916526794e-02,-5.824888125061988831e-03,-2.032372541725635529e-02
1.613120362162590027e-02,-1.839990168809890747e-02,-3.050230443477630615e-03,3.249675408005714417e-02,-2.456855773925781250e-02,3.292776644229888916e-03,-3.810014575719833374e-03,-2.325797453522682190e-02,-1.637015491724014282e-03,1.462267339229583740e-02
-9.015027433633804321e-03,-1.142535172402858734e-02,2.895531430840492249e-02,2.941128984093666077e-02,-1.421513035893440247e-02,1.255789399147033691e-02,1.589563116431236267e-02,-2.032491564750671387e-02,-9.403936564922332764e-04,-2.114926651120185852e-02
-1.871195808053016663e-02,2.779602631926536560e-02,2.514967322349548340e-02,-6.127571687102317810e-03,1.830428093671798706e-02,-2.811350300908088684e-02,-9.000072255730628967e-03,-9.263705462217330933e-03,-1.170208491384983063e-02,-1.749445125460624695e-02
3.326609358191490173e-02,-2.125554904341697693e-02,3.004227206110954285e-02,-3.176446259021759033e-02,-1.576963067054748535e-02,2.561182528734207153e-02,-1.998393237590789795e-02,-2.545993402600288391e-02,6.380867213010787964e-03,1.455548778176307678e-02
2.291281148791313171e-02,2.938210964202880859e-03,-2.254054509103298187e-02,2.397697046399116516e-02,5.453176796436309814e-03,7.180139422416687012e-03,1.058205962181091309e-03,-2.329041808843612671e-02,-1.513271406292915344e-02,2.649990096688270569e-02
3.274820372462272644e-02,-1.497405767440795898e-02,2.921997383236885071e-02,8.237496018409729004e-03,2.645945549011230469e-02,-2.131221443414688110e-02,2.411863952875137329e-02,3.341831266880035400e-03,-1.422652415931224823e-02,-1.218713447451591492e-02
-2.398066222667694092e-03,2.151938155293464661e-02,-8.791549131274223328e-03,1.457422599196434021e-02,4.285208880901336670e-03,2.251770347356796265e-03,3.253464028239250183e-02,-3.232662379741668701e-02,-3.321399167180061340e-02,-2.476968616247177124e-02
-1.628663018345832825e-02,2.186980471014976501e-02,1.424150541424751282e-02,9.169910103082656860e-03,-7.982710376381874084e-03,1.934653148055076599e-02,1.276548951864242554e-02,-2.006130665540695190e-02,8.767098188400268555e-05,4.028145223855972290e-03
-1.496230624616146088e-02,-2.472693845629692078e-02,-8.739065378904342651e-03,-3.013774566352367401e-02,1.466254889965057373e-02,-1.666739396750926971e-02,1.667826250195503235e-02,-2.426595985889434814e-02,-1.286207698285579681e-02,-1.965262182056903839e-02
2.516818419098854065e-02,1.023941487073898315e-02,1.682548969984054565e-02,-2.882307022809982300e-02,8.724190294742584229e-03,3.074673190712928772e-02,-2.086531370878219604e-02,-6.602672860026359558e-03,3.154711797833442688e-02,-1.862201839685440063e-02
-2.604546211659908295e-02,1.134571060538291931e-02,2.582531422376632690e-03,1.876708492636680603e-02,1.176637411117553711e-02,-1.080397889018058777e-02,-1.488216221332550049e-03,2.151241526007652283e-02,2.425883710384368896e-02,-1.780124381184577942e-02
-9.979121387004852295e-03,-2.953120134770870209e-02,1.349068805575370789e-02,-2.790405042469501495e-02,-2.788386680185794830e-02,3.164261579513549805e-04,-1.687648147344589233e-02,2.466841787099838257e-02,1.049445569515228271e-02,2.217207103967666626e-03
2.718295529484748840e-02,1.467458531260490417e-02,5.175817757844924927e-03,2.483602613210678101e-03,-2.610170654952526093e-02,2.720072492957115173e-02,-1.824039593338966370e-02,-2.765593677759170532e-02,-1.356583088636398315e-02,-2.626310102641582489e-02
-2.705915831029415131e-02,2.418762072920799255e-02,3.195290639996528625e-02,-1.887570135295391083e-02,1.315037906169891357e-02,2.277879044413566589e-02,2.488680183887481689e-03,3.001784160733222961e-02,-1.423656009137630463e-02,-3.047216683626174927e-03
-4.942389205098152161e-03,1.417669653892517090e-02,1.990918442606925964e-02,2.227023243904113770e-03,6.626386195421218872e-03,-1.701401919126510620e-02,-1.252998970448970795e-02,-2.421052381396293640e-02,2.993835136294364929e-02,2.648910507559776306e-02
5.717072635889053345e-03,2.752820402383804321e-02,4.065785557031631470e-03,3.265467658638954163e-02,2.042543888092041016e-02,-4.247244447469711304e-03,1.936087757349014282e-02,3.211123868823051453e-02,-1.955316774547100067e-02,1.209696382284164429e-02
-1.790810935199260712e-02,6.009031087160110474e-03,1.325116306543350220e-02,1.155558973550796509e-02,-1.787721365690231323e-02,1.462461799383163452e-02,1.360628753900527954e-03,-1.536927744746208191e-02,1.235708594322204590e-03,1.772200688719749451e-02
-2.074719034135341644e-02,2.529182657599449158e-02,-4.501856863498687744e-03,6.323195993900299072e-03,-3.090225718915462494e-02,1.787035167217254639e-02,-9.258192032575607300e-03,1.614131778478622437e-02,3.728158771991729736e-04,2.539517730474472046e-02
-1.796334609389305115e-02,1.804199069738388062e-03,-2.340765669941902161e-03,-1.400962285697460175e-02,-1.916055008769035339e-02,-2.089418470859527588e-02,-9.131031110882759094e-03,1.906059682369232178e-02,-2.210014872252941132e-02,2.341775968670845032e-02
-5.593299865722656250e-04,1.559844613075256348e-02,-1.676732487976551056e-02,1.014584675431251526e-02,5.066238343715667725e-03,1.915404573082923889e-02,3.104943409562110901e-02,2.398654818534851074e-03,1.019683852791786194e-02,-7.056891918182373047e-04
5.530025810003280640e-03,1.558654382824897766e-02,4.203964024782180786e-03,3.282115235924720764e-02,-1.990551128983497620e-02,-2.589273825287818909e-02,-5.792357027530670166e-03,-2.618215046823024750e-02,-1.546976156532764435e-02,9.455438703298568726e-03
2.984295412898063660e-02,2.037337794899940491e-02,-8.594712242484092712e-03,1.520958915352821350e-02,-9.565724059939384460e-03,1.040808856487274170e-03,-3.016198426485061646e-02,-2.714368887245655060e-02,2.836921811103820801e-02,-5.110384896397590637e-03
2.345696091651916504e-02,2.953998744487762451e-03,-8.959956467151641846e-04,-1.915155351161956787e-02,-3.254104033112525940e-02,1.188777387142181396e-03,-3.180842474102973938e-02,-2.067860029637813568e-02,2.452048659324645996e-02,1.851208508014678955e-03
2.938909456133842468e-02,-2.854916267096996307e-02,-1.550264097750186920e-02,4.993833601474761963e-03,2.412125468254089355e-04,4.069641232490539551e-03,2.953359857201576233e-02,1.216422021389007568e-02,-2.597164362668991089e-02,-3.286274522542953491e-02
-1.402294449508190155e-02,-2.110301703214645386e-02,-2.643296122550964355e-02,-3.264553099870681763e-02,3.285278752446174622e-02,1.943574473261833191e-02,-1.498862355947494507e-02,1.130779460072517395e-02,-1.088712364435195923e-03,-1.193206198513507843e-02
2.730731293559074402e-02,-3.150450065732002258e-02,-2.465197630226612091e-02,2.089151740074157715e-02,-7.081096991896629333e-03,1.207824051380157471e-02,1.510151103138923645e-02,-2.304377034306526184e-02,5.756996572017669678e-03,-4.579277709126472473e-03
-2.735701948404312134e-02,2.331139519810676575e-02,2.903696522116661072e-02,2.181961387395858765e-02,2.760145813226699829e-03,1.009413972496986389e-02,6.759356707334518433e-03,2.952236309647560120e-02,-2.232479304075241089e-02,-3.091456368565559387e-03
1.350243762135505676e-02,5.383323878049850464e-03,2.325666695833206177e-02,2.476076781749725342e-02,-3.290127217769622803e-02,1.424442976713180542e-02,2.123412862420082092e-02,1.125781610608100891e-02,-2.775568328797817230e-02,-2.290118858218193054e-02
3.131479024887084961e-05,-2.109629660844802856e-02,-2.284603938460350037e-02,-3.939561545848846436e-03,2.345096319913864136e-03,6.351266056299209595e-03,-1.285784132778644562e-02,-2.440267242491245270e-02,-1.323167793452739716e-02,1.706445589661598206e-02
1.118623465299606323e-02,2.940438315272331238e-02,-1.900618523359298706e-02,1.302486285567283630e-02,1.212197169661521912e-02,-1.254270039498806000e-02,-1.910847052931785583e-02,-8.445419371128082275e-04,1.915276795625686646e-02,-2.667587250471115112e-02
1.831338182091712952e-02,-5.728194490075111389e-03,-1.481942087411880493e-02,-1.470539346337318420e-02,-3.178739175200462341e-02,1.414870843291282654e-02,-6.385216489434242249e-03,3.164224699139595032e-02,-3.030260093510150909e-02,-8.821833878755569458e-03
1.926075667142868042e-02,-1.771581172943115234e-02,-2.498176321387290955e-02,-5.260886624455451965e-03,1.956593245267868042e-02,1.100335270166397095e-02,2.071465179324150085e-02,-3.115145117044448853e-02,-2.271937206387519836e-03,-1.790615729987621307e-02
-9.741647168993949890e-03,5.554534494876861572e-03,2.617688104510307312e-02,1.662515476346015930e-02,-5.030242726206779480e-03,2.352983504533767700e-02,2.264514937996864319e-02,1.199577376246452332e-02,-1.224424317479133606e-02,-2.674291469156742096e-02
-2.977473102509975433e-02,-2.465983852744102478e-02,-1.582547836005687714e-02,-2.484880387783050537e-03,4.467293620109558105e-04,2.703629434108734131e-02,-7.812047377228736877e-03,-2.420246414840221405e-02,5.041182041168212891e-03,-1.738506369292736053e-02
-2.273871377110481262e-02,1.336146146059036255e-03,-8.796134963631629944e-03,1.196388155221939087e-03,6.334334611892700195e-03,-7.547842338681221008e-03,-1.184864342212677002e-02,1.455390080809593201e-02,1.073144376277923584e-04,-5.684811621904373169e-03
-3.219594806432723999e-02,1.558927446603775024e-02,2.975637093186378479e-02,-2.890018746256828308e-03,-2.808368578553199768e-02,-3.183858841657638550e-02,-1.625217497348785400e-03,2.287361770868301392e-02,7.682546973228454590e-03,2.776957675814628601e-02
1.333565637469291687e-02,-2.885894104838371277e-02,-2.080431580543518066e-02,-9.976526722311973572e-03,-2.376349642872810364e-03,8.432205766439437866e-03,-2.036123722791671753e-02,-6.694374606013298035e-03,-2.365291118621826172e-03,-1.508346758782863617e-02
1.123917847871780396e-02,-7.740475237369537354e-03,1.054815948009490967e-02,-1.871606707572937012e-02,6.424408406019210815e-03,-3.180970251560211182e-02,-1.129083707928657532e-02,2.192585915327072144e-02,-3.214509040117263794e-02,8.484974503517150879e-03
3.304215893149375916e-02,9.313341230154037476e-03,-3.042340464890003204e-02,-2.690861001610755920e-02,7.872767746448516846e-03,6.115686148405075073e-03,-7.779343053698539734e-03,-2.391457557678222656e-02,1.735842972993850708e-02,1.567482575774192810e-02
2.173107862472534180e-02,-1.484304107725620270e-02,-2.476566284894943237e-02,3.564819693565368652e-03,-4.563853144645690918e-03,1.412641257047653198e-02,3.276125714182853699e-02,6.577655673027038574e-03,2.116744965314865112e-02,3.386382013559341431e-03
2.513050287961959839e-02,2.997084334492683411e-02,-5.130887031555175781e-03,-1.655148528516292572e-02,2.450345084071159363e-02,2.265843003988265991e-02,5.551155656576156616e-03,-2.596312947571277618e-02,2.360964566469192505e-02,8.860010653734207153e-03
3.003228828310966492e-02,6.798319518566131592e-03,-2.729894220829010010e-02,2.774176001548767090e-02,3.124394640326499939e-02,-3.959206864237785339e-03,-1.097928173840045929e-02,2.643965184688568115e-03,-2.386817708611488342e-02,2.655579894781112671e-02
-1.909903809428215027e-02,2.067821100354194641e-02,-1.631235331296920776e-02,-6.441857665777206421e-03,2.070117369294166565e-02,3.261813893914222717e-02,2.416909486055374146e-02,-2.873141504824161530e-02,-1.872515305876731873e-02,6.059061735868453979e-03
1.475922763347625732e-02,1.390087977051734924e-02,-5.885655060410499573e-03,1.058701425790786743e-02,1.606229692697525024e-03,2.376409992575645447e-02,1.227439194917678833e-02,3.192554041743278503e-02,-4.662552848458290100e-03,1.066940277814865112e-02
2.608102187514305115e-02,2.893428131937980652e-02,1.794070005416870117e-03,1.802360638976097107e-02,1.854442059993743896e-02,7.572811096906661987e-03,-8.330253884196281433e-03,2.166102081537246704e-02,-1.773209124803543091e-02,-1.570799015462398529e-02
1.818856969475746155e-02,-1.433169096708297729e-02,-2.778480947017669678e-02,-1.793403737246990204e-02,-3.225811198353767395e-02,-2.491552382707595825e-03,-2.429303899407386780e-02,3.169886395335197449e-02,2.564800530672073364e-02,2.977037802338600159e-02
5.884740501642227173e-03,4.443779587745666504e-03,1.962745562195777893e-02,-1.982076838612556458e-02,2.894094586372375488e-02,2.646735683083534241e-02,3.301968798041343689e-02,1.433477550745010376e-02,-1.891675218939781189e-02,2.104244753718376160e-02
-1.828557997941970825e-02,1.801232248544692993e-02,-3.621064126491546631e-03,2.085770294070243835e-02,-1.862363517284393311e-02,1.989253982901573181e-02,-7.350340485572814941e-03,-1.826803013682365417e-02,-8.507985621690750122e-03,-3.280853852629661560e-02
-2.124659344553947449e-02,8.694604039192199707e-03,-1.330810040235519409e-02,-4.900805652141571045e-03,6.330892443656921387e-03,1.916966587305068970e-02,-5.483975633978843689e-03,2.034797146916389465e-02,-1.345259509980678558e-02,-5.158465355634689331e-03
1.276911422610282898e-02,-3.182455524802207947e-02,1.938137039542198181e-02,-8.278707042336463928e-03,-3.127669170498847961e-02,3.171705827116966248e-02,-2.882704511284828186e-02,-8.212098851799964905e-03,6.012719124555587769e-03,-2.020669728517532349e-02
6.004832684993743896e-04,1.869615167379379272e-03,-2.751976251602172852e-02,3.029073402285575867e-02,1.674783974885940552e-02,-1.606365852057933807e-02,-7.304362952709197998e-03,-1.731642521917819977e-02,2.604108303785324097e-02,1.466750726103782654e-02
-2.889649197459220886e-02,-3.329129889607429504e-03,-1.251024194061756134e-02,-8.432239294052124023e-03,1.432985812425613403e-02,2.706714719533920288e-02,3.010015562176704407e-02,-2.110509574413299561e-02,1.557706296443939209e-02,9.206071496009826660e-03
-1.637860201299190521e-02,-1.876603625714778900e-02,2.884088829159736633e-02,-2.959943562746047974e-02,1.334854587912559509e-02,3.165670856833457947e-02,-2.995679341256618500e-02,-2.341493964195251465e-04,1.989900693297386169e-02,-2.603281475603580475e-02
-2.419877424836158752e-02,1.134810596704483032e-02,2.079637348651885986e-02,-3.213171288371086121e-02,1.424430310726165771e-02,-2.122094854712486267e-03,-4.006374627351760864e-03,-2.934652939438819885e-02,-1.696774736046791077e-02,-1.675111427903175354e-02
-1.765783876180648804e-03,-1.081397570669651031e-02,1.237520202994346619e-02,1.088700816035270691e-02,-1.648038066923618317e-02,1.221583783626556396e-02,6.128873676061630249e-03,-1.394662633538246155e-02,2.456475794315338135e-02,-2.761856652796268463e-02
-1.900133863091468811e-02,1.792445406317710876e-02,-1.423913985490798950e-03,1.457785442471504211e-02,-3.183128312230110168e-02,8.241478353738784790e-03,9.390816092491149902e-03,2.015565708279609680e-02,-8.243924006819725037e-03,1.779171451926231384e-02
3.124450519680976868e-02,7.090445607900619507e-03,7.395666092634201050e-03,-2.774831280112266541e-02,2.840683236718177795e-02,8.904974907636642456e-03,-6.450837478041648865e-03,2.625620737671852112e-02,-3.021857887506484985e-02,-9.505504742264747620e-03
-7.583547383546829224e-03,2.787640690803527832e-02,1.474408805370330811e-02,2.480077371001243591e-02,-2.124216593801975250e-02,7.407829165458679199e-03,-8.870929479598999023e-03,-2.160506322979927063e-02,-1.639207452535629272e-02,2.768124639987945557e-02
-1.648080907762050629e-02,-7.557157427072525024e-03,1.639961078763008118e-02,3.042305633425712585e-02,-1.472648233175277710e-02,-2.341242879629135132e-02,-2.073242515325546265e-02,-2.255877852439880371e-02,-1.247453875839710236e-02,-5.372606217861175537e-03
2.956416830420494080e-02,-8.017111569643020630e-03,3.940790891647338867e-03,1.188721507787704468e-03,2.736983448266983032e-02,-2.838295139372348785e-02,-1.479304023087024689e-02,4.721019417047500610e-03,-1.416658237576484680e-02,5.855623632669448853e-03
-1.091736555099487305e-02,-2.480921521782875061e-02,-1.995895057916641235e-03,6.043255329132080078e-03,-1.003116928040981293e-02,-9.158087894320487976e-03,-2.162243053317070007e-02,2.833091095089912415e-02,3.254331275820732117e-02,-1.305399462580680847e-02
1.114188507199287415e-02,2.093533799052238464e-02,5.827955901622772217e-04,-1.243208348751068115e-02,3.929160535335540771e-03,-1.289808191359043121e-02,-2.858099341392517090e-02,-9.956333786249160767e-03,1.364773511886596680e-02,-3.281358629465103149e-03
-1.904755830764770508e-03,-1.967993751168251038e-02,3.454584628343582153e-03,-2.789554558694362640e-02,2.613968029618263245e-02,-4.776392132043838501e-03,-2.355155348777770996e-02,2.291282638907432556e-02,1.690442487597465515e-02,2.138793841004371643e-02
3.298890218138694763e-02,1.301456242799758911e-02,-2.444397658109664917e-02,-2.834920771420001984e-02,1.585940271615982056e-02,5.769468843936920166e-03,-1.704912632703781128e-03,7.799956947565078735e-03,2.188795059919357300e-02,-2.694711461663246155e-02
-1.740907877683639526e-02,-3.076954372227191925e-02,3.211896494030952454e-02,1.568840071558952332e-02,-2.220215648412704468e-02,2.859359234571456909e-02,1.358301565051078796e-02,-2.365268766880035400e-02,-1.733696646988391876e-02,2.265319228172302246e-02
-3.039968945086002350e-02,-3.050902113318443298e-02,8.605480194091796875e-03,1.833066344261169434e-03,2.905488759279251099e-02,3.186148032546043396e-02,1.475998014211654663e-02,2.547450363636016846e-02,2.092035859823226929e-02,2.372739464044570923e-02
-2.918040379881858826e-03,-2.129007130861282349e-02,2.614258974790573120e-02,-8.565213531255722046e-03,-3.827944397926330566e-03,3.162130340933799744e-02,1.130577921867370605e-02,7.503371685743331909e-03,1.074076816439628601e-02,-3.308350965380668640e-02
-2.568189799785614014e-02,4.389062523841857910e-04,-2.197433821856975555e-02,-1.235295645892620087e-02,8.524630218744277954e-03,2.279810979962348938e-02,-2.692442201077938080e-02,1.094417273998260498e-02,-3.012240119278430939e-02,-1.730377040803432465e-02
-6.114806979894638062e-03,3.095683082938194275e-02,2.923648431897163391e-02,-2.522084861993789673e-02,3.215363249182701111e-02,-3.162468597292900085e-02,2.512950450181961060e-02,1.673008874058723450e-02,-1.912762410938739777e-02,2.707485109567642212e-02
5.541626363992691040e-03,8.021324872970581055e-03,-2.032432705163955688e-02,2.693687006831169128e-02,1.131240278482437134e-03,1.723159477114677429e-02,1.374955847859382629e-02,-6.656672805547714233e-03,1.058679819107055664e-02,3.244267031550407410e-02
3.055172786116600037e-02,-1.966848969459533691e-03,1.475460827350616455e-02,-2.089635096490383148e-02,2.118004113435745239e-02,-1.826029457151889801e-02,2.193344384431838989e-02,1.577238366007804871e-02,3.071902319788932800e-02,7.537774741649627686e-03
2.425722777843475342e-03,-2.682764083147048950e-03,-2.253714948892593384e-02,-4.358869045972824097e-03,1.612977311015129089e-02,8.487228304147720337e-03,2.053060755133628845e-02,-9.254142642021179199e-04,-1.964792609214782715e-03,2.315854653716087341e-02
9.317696094512939453e-05,-2.551581710577011108e-03,-2.963186241686344147e-02,-1.135731674730777740e-02,-1.334956288337707520e-02,-6.652751937508583069e-03,-2.081438526511192322e-02,-2.220151945948600769e-03,-5.288043990731239319e-03,3.217802569270133972e-02
8.689753711223602295e-03,1.704477146267890930e-02,-2.406434714794158936e-02,1.085318624973297119e-02,-1.670908741652965546e-02,-9.108442813158035278e-03,-7.895680144429206848e-03,2.648490667343139648e-02,-2.937509119510650635e-02,-9.251257404685020447e-03
2.910359576344490051e-02,-2.939115837216377258e-02,1.858536154031753540e-02,-2.349376864731311798e-02,9.033959358930587769e-03,-2.386418730020523071e-02,-1.119358092546463013e-02,-2.035260573029518127e-02,3.366556018590927124e-03,2.693724259734153748e-02
1.796626672148704529e-02,1.448922976851463318e-02,-6.779015064239501953e-03,-3.148669376969337463e-03,-3.187849745154380798e-02,2.130465582013130188e-02,1.457888633012771606e-02,-2.811332792043685913e-02,2.174094319343566895e-03,-7.727423682808876038e-03
-1.261594705283641815e-02,-2.348603308200836182e-02,-9.690266102552413940e-03,-2.934804372489452362e-02,3.764528781175613403e-03,-2.827529422938823700e-02,1.348806917667388916e-02,-2.208198606967926025e-02,-2.643028832972049713e-02,-3.085816837847232819e-02
-2.500839158892631531e-02,2.794257923960685730e-02,-8.280839771032333374e-03,-1.790948957204818726e-02,2.081120386719703674e-02,1.268637925386428833e-02,-7.599040865898132324e-03,1.612498238682746887e-02,3.450609743595123291e-03,-1.156730018556118011e-02
2.860577777028083801e-02,2.933067455887794495e-02,2.964399382472038269e-02,-2.162822149693965912e-02,-1.501544192433357239e-02,-1.163246296346187592e-02,2.757932618260383606e-02,-2.396794781088829041e-02,-2.451725304126739502e-04,-2.034687623381614685e-02
1.620768010616302490e-02,-1.168878749012947083e-02,2.404302358627319336e-03,1.874537765979766846e-02,-5.616301670670509338e-03,-1.173140853643417358e-02,-9.980849921703338623e-03,3.204845264554023743e-02,1.255942508578300476e-02,2.351254224777221680e-03
-6.535796448588371277e-03,1.877301931381225586e-02,-3.052715770900249481e-02,1.665519922971725464e-02,1.436031609773635864e-02,-3.113976493477821350e-02,-1.809589937329292297e-02,9.528908878564834595e-03,1.940656825900077820e-02,3.194240853190422058e-02
-1.784182712435722351e-02,-1.062095537781715393e-02,7.061887532472610474e-03,2.988484129309654236e-02,-1.189295388758182526e-02,-8.927054703235626221e-03,8.593071252107620239e-03,3.061820194125175476e-02,-2.541894093155860901e-03,2.231508120894432068e-02
1.262554898858070374e-02,1.175265759229660034e-03,-7.160732522606849670e-03,2.775050327181816101e-02,1.586537808179855347e-02,-2.036955952644348145e-02,6.445523351430892944e-03,-1.173163950443267822e-02,-1.329938881099224091e-02,2.786625921726226807e-02
1.535098999738693237e-03,-1.404945179820060730e-02,2.535137161612510681e-02,-1.738788001239299774e-02,2.330505475401878357e-02,-2.951764315366744995e-02,-5.523785948753356934e-04,1.443729922175407410e-02,3.171984478831291199e-02,-3.291090205311775208e-02
1.238885894417762756e-02,2.225014939904212952e-02,-2.029343321919441223e-02,-8.840184658765792847e-03,2.811573445796966553e-03,-2.256096713244915009e-02,2.201019972562789917e-02,-3.251029551029205322e-02,-1.977287046611309052e-02,-1.877107471227645874e-02
-5.954965949058532715e-03,-3.343727439641952515e-03,6.945576518774032593e-03,7.761683315038681030e-03,4.903946071863174438e-03,9.419865906238555908e-03,6.936632096767425537e-03,-2.186457812786102295e-02,-2.056992053985595703e-02,1.330766826868057251e-03
7.699813693761825562e-03,2.389233559370040894e-03,-1.534130051732063293e-02,-1.777104847133159637e-02,4.331987351179122925e-03,6.500266492366790771e-03,6.531536579132080078e-03,-1.175645738840103149e-02,1.961703598499298096e-02,-2.234235405921936035e-03
1.297942176461219788e-02,-3.155981004238128662e-02,2.176257595419883728e-02,8.088424801826477051e-03,-9.775096550583839417e-03,-1.817232929170131683e-02,2.931499108672142029e-02,1.708228141069412231e-03,-3.484264016151428223e-04,2.869926765561103821e-02
-2.642587758600711823e-02,2.058380469679832458e-02,-2.862626500427722931e-02,-1.605950295925140381e-03,9.598150849342346191e-03,1.950501650571823120e-02,-1.075767539441585541e-02,-1.204562187194824219e-02,1.976302266120910645e-02,-1.593956165015697479e-02
6.639987230300903320e-03,-2.846395783126354218e-02,-1.559349335730075836e-02,-3.477606922388076782e-03,2.218076586723327637e-02,-1.951258629560470581e-03,-2.593616209924221039e-02,1.806834712624549866e-02,-1.781182922422885895e-02,-1.362629234790802002e-03
4.702772945165634155e-03,-1.885114610195159912e-02,-2.406018227338790894e-02,-2.731405571103096008e-02,-1.927647367119789124e-02,-2.745747379958629608e-02,-2.572059258818626404e-02,1.959080621600151062e-02,3.078306838870048523e-02,-2.639377489686012268e-02
-7.575580850243568420e-03,2.831282094120979309e-02,-3.301994130015373230e-02,9.291220456361770630e-03,9.525142610073089600e-03,-2.756040915846824646e-02,1.407051831483840942e-02,-1.017428375780582428e-02,-1.433117501437664032e-02,7.119696587324142456e-03
-2.570399455726146698e-02,-2.982703968882560730e-03,2.616810053586959839e-02,2.063726261258125305e-02,-2.629885263741016388e-02,2.573401108384132385e-02,1.509496569633483887e-02,6.585605442523956299e-03,4.598796367645263672e-03,-1.743294484913349152e-02
1.974213495850563049e-02,2.890694141387939453e-02,1.035820320248603821e-02,-1.288534887135028839e-02,-1.023513823747634888e-02,-1.637173071503639221e-02,-3.082383796572685242e-02,1.672867685556411743e-03,9.194314479827880859e-03,-3.442570567131042480e-03
3.031694516539573669e-02,2.991474047303199768e-02,5.908496677875518799e-03,2.675718069076538086e-02,-1.829078420996665955e-02,-9.919924661517143250e-03,4.487965255975723267e-03,-1.450968347489833832e-02,-3.148056566715240479e-02,-1.344566047191619873e-02
4.683818668127059937e-03,-8.015001192688941956e-03,-3.471076488494873047e-04,-1.292445510625839233e-02,7.174197584390640259e-03,-1.887010782957077026e-02,-5.262354388833045959e-03,4.991967231035232544e-03,1.269341632723808289e-02,-5.168540403246879578e-03
1.173843815922737122e-02,3.109633922576904297e-03,-3.696611151099205017e-03,3.035727888345718384e-03,-2.908706106245517731e-02,1.170806586742401123e-02,-2.522469684481620789e-02,3.242832049727439880e-02,-7.268004119396209717e-04,-2.230576798319816589e-02
-3.831975162029266357e-03,2.113419026136398315e-02,1.571532338857650757e-02,-5.289869382977485657e-03,-2.854778245091438293e-02,-5.789589136838912964e-03,-2.281728573143482208e-02,-1.163132116198539734e-02,-2.095469087362289429e-02,9.683538228273391724e-03
-3.227254375815391541e-02,-8.966321125626564026e-03,1.123963296413421631e-02,-3.270992636680603027e-02,-1.134619303047657013e-02,-2.380253002047538757e-02,3.010973334312438965e-03,1.481064036488533020e-02,-2.499791793525218964e-02,-2.120412886142730713e-03
-1.531442068517208099e-02,1.757505163550376892e-02,1.370247453451156616e-03,-1.596680842339992523e-02,-2.124976739287376404e-02,-1.641044951975345612e-02,2.156235277652740479e-04,2.314086258411407471e-02,-1.365850865840911865e-02,1.084607839584350586e-02
-2.617260441184043884e-02,-7.426753640174865723e-03,-3.127537295222282410e-02,5.996938794851303101e-03,3.307687863707542419e-02,-2.781420573592185974e-02,2.263746038079261780e-02,-6.786743178963661194e-03,2.691663056612014771e-02,5.962956696748733521e-03
3.155141696333885193e-02,1.380146294832229614e-02,-2.478426136076450348e-02,1.154716312885284424e-02,-2.112645655870437622e-03,-7.900372147560119629e-04,-1.756715029478073120e-02,-3.183769434690475464e-02,1.751215755939483643e-02,-2.217011153697967529e-02
-1.698563806712627411e-02,2.415533363819122314e-02,1.023065298795700073e-03,2.734353020787239075e-02,-2.827717363834381104e-02,2.129312604665756226e-02,-1.956742629408836365e-02,2.498419955372810364e-02,-2.311797067523002625e-02,-1.594609953463077545e-02
-2.936038188636302948e-02,-1.476518437266349792e-02,1.830011606216430664e-02,-2.402562089264392853e-02,-7.823226973414421082e-03,-1.335286349058151245e-02,-1.966308616101741791e-02,2.079893648624420166e-02,-4.200266674160957336e-03,-1.964625716209411621e-02
1.714906468987464905e-02,4.270371049642562866e-03,-1.494105905294418335e-03,1.327648386359214783e-02,-4.355339333415031433e-03,9.453114122152328491e-03,2.113392949104309082e-02,-4.316572099924087524e-03,-2.347643300890922546e-02,2.457547932863235474e-03
-2.931803464889526367e-04,2.702586725354194641e-02,2.993355318903923035e-02,1.366741955280303955e-02,-2.050239965319633484e-02,3.260324522852897644e-02,1.815522462129592896e-02,-2.597876079380512238e-02,2.486034855246543884e-02,1.512278243899345398e-02
2.761121839284896851e-03,-2.732177637517452240e-02,2.478640526533126831e-02,-2.893395721912384033e-04,-1.158799976110458374e-02,-8.410347625613212585e-03,-1.401259750127792358e-02,7.956314831972122192e-03,2.149120718240737915e-02,-1.627536490559577942e-02
2.773728221654891968e-03,-1.436859183013439178e-02,-7.516281679272651672e-03,1.308808848261833191e-02,2.166026085615158081e-02,-3.272562846541404724e-02,-1.521917246282100677e-02,3.263326361775398254e-02,-7.546700537204742432e-03,-2.609428018331527710e-02
1.225083693861961365e-02,8.578922599554061890e-03,6.870295852422714233e-03,2.557934448122978210e-02,1.672907546162605286e-02,8.119080215692520142e-03,1.542802155017852783e-02,1.939585804939270020e-02,-2.700458839535713196e-02,-6.887998431921005249e-03
2.876414358615875244e-02,-5.073618143796920776e-03,3.068165108561515808e-02,1.552223786711692810e-02,-1.251928694546222687e-02,1.657797768712043762e-02,1.061114296317100525e-02,1.298688352108001709e-03,-2.506365999579429626e-03,8.523233234882354736e-03
-2.724744193255901337e-02,1.409055665135383606e-02,2.089218422770500183e-02,-6.427004933357238770e-03,-3.326036036014556885e-02,1.455444842576980591e-02,8.398700505495071411e-03,-2.666331268846988678e-02,1.448883116245269775e-02,3.224779292941093445e-02
-2.575528994202613831e-02,2.433203533291816711e-02,-8.418845012784004211e-03,-1.915742456912994385e-02,-2.567203715443611145e-03,-2.254424989223480225e-02,-1.249305531382560730e-02,7.914081215858459473e-04,-1.666175387799739838e-02,-6.732378154993057251e-03
1.743450015783309937e-02,-2.452457882463932037e-02,2.155733108520507812e-02,-6.756110116839408875e-03,-6.341736763715744019e-03,-9.205985814332962036e-03,-1.752238720655441284e-03,9.961880743503570557e-03,-1.874079927802085876e-02,-9.175391867756843567e-03
2.656422182917594910e-02,-2.837121486663818359e-03,9.178921580314636230e-03,1.752868667244911194e-02,-1.934937387704849243e-02,-1.888594403862953186e-02,-2.824798412621021271e-02,-5.449915304780006409e-03,-1.794413104653358459e-02,-3.112810850143432617e-02
-2.186182513833045959e-02,-2.405240759253501892e-02,-2.440440282225608826e-02,8.865837007761001587e-03,-1.305389963090419769e-02,-2.074581012129783630e-02,5.371566861867904663e-03,-1.721193455159664154e-02,2.562386170029640198e-02,-3.236360102891921997e-02
3.183156624436378479e-02,-2.168991044163703918e-02,-2.432002313435077667e-02,-2.688379213213920593e-02,7.739521563053131104e-03,-3.174654766917228699e-02,-9.815806522965431213e-03,-1.637169905006885529e-02,-1.810457929968833923e-02,1.469344273209571838e-02
3.057625144720077515e-03,-3.273003175854682922e-02,9.358227252960205078e-04,-2.249508351087570190e-02,-1.606664247810840607e-02,2.627131342887878418e-02,1.108909770846366882e-02,3.084122762084007263e-02,-2.006694674491882324e-02,-3.281808272004127502e-02
2.498869970440864563e-02,-1.234439574182033539e-02,2.295171096920967102e-02,-2.784479036927223206e-02,-2.788680233061313629e-02,2.545711025595664978e-02,5.737017840147018433e-03,2.499227598309516907e-02,1.529697328805923462e-02,5.876142531633377075e-03
-2.626303769648075104e-02,-1.316253095865249634e-03,-2.337440848350524902e-03,1.653830707073211670e-02,-2.818361483514308929e-02,-1.582030579447746277e-02,7.601305842399597168e-04,1.633628830313682556e-02,9.868137538433074951e-03,4.370033740997314453e-03
-2.960214763879776001e-02,3.301945701241493225e-02,-2.852148003876209259e-02,2.031089738011360168e-02,2.839084714651107788e-02,2.652893215417861938e-02,-2.750978991389274597e-02,-6.077736616134643555e-04,2.970788627862930298e-03,-3.198694810271263123e-02
-3.018018603324890137e-02,-2.831570245325565338e-02,-2.248182520270347595e-02,8.983157575130462646e-03,-1.591998897492885590e-02,1.644503325223922729e-03,-2.142366021871566772e-03,-1.130305603146553040e-02,-2.810292690992355347e-02,6.342284381389617920e-03
1.720330864191055298e-02,2.415497228503227234e-02,1.838061586022377014e-02,1.630950719118118286e-03,-2.464982680976390839e-02,2.319723367691040039e-02,4.667408764362335205e-03,-1.521261781454086304e-02,-1.212224178016185760e-02,1.392814144492149353e-02
-1.588090509176254272e-02,2.429003268480300903e-02,-7.041061297059059143e-03,2.018418908119201660e-02,-6.156953051686286926e-03,-2.278735116124153137e-02,1.065611839294433594e-02,-1.664329133927822113e-02,-3.278223797678947449e-02,1.475846394896507263e-02
3.372672945261001587e-03,-2.364679425954818726e-02,-3.661885857582092285e-04,-1.256136037409305573e-02,7.395431399345397949e-03,-9.321076795458793640e-03,1.852137967944145203e-02,2.700359746813774109e-02,-1.263922639191150665e-02,1.503240317106246948e-02
-1.904256269335746765e-02,1.250546425580978394e-02,-1.116663776338100433e-02,-1.491722464561462402e-02,-2.298963814973831177e-02,1.850132271647453308e-02,-1.339293830096721649e-02,1.645296812057495117e-02,1.248694583773612976e-02,9.743940085172653198e-03
-4.367018118500709534e-03,1.758586615324020386e-02,1.812265440821647644e-02,2.252420783042907715e-02,1.325846463441848755e-02,-5.588196218013763428e-04,1.535421982407569885e-02,-2.117724902927875519e-02,-7.387336343526840210e-03,6.025888025760650635e-03
1.832363381981849670e-02,1.343809068202972412e-02,-2.469801902770996094e-02,1.658312603831291199e-02,-6.428146734833717346e-03,2.832780778408050537e-02,-3.030698746442794800e-02,2.074272185564041138e-02,2.994911000132560730e-02,-2.660629712045192719e-02
2.275571599602699280e-02,2.867916226387023926e-02,-3.065142221748828888e-02,-1.566559076309204102e-03,-1.074139587581157684e-02,1.561896130442619324e-02,-9.583789855241775513e-03,-2.826834283769130707e-02,1.235684379935264587e-02,9.717963635921478271e-03
9.573373943567276001e-03,1.305889710783958435e-02,-3.030571900308132172e-02,3.099038079380989075e-02,2.655044943094253540e-02,1.879716292023658752e-02,7.895022630691528320e-03,-1.746788620948791504e-02,-2.449160441756248474e-02,3.159061074256896973e-03
1.481004431843757629e-02,3.122478723526000977e-03,-8.115358650684356689e-04,3.100511804223060608e-02,1.795093715190887451e-02,-1.443844288587570190e-02,2.583450451493263245e-02,-3.295972198247909546e-02,-1.459568925201892853e-02,2.989646047353744507e-03
2.200456708669662476e-02,2.117988467216491699e-02,2.065058797597885132e-03,-3.670573234558105469e-03,-2.162347733974456787e-02,-2.047241851687431335e-02,2.938133105635643005e-02,5.128752440214157104e-03,1.792160421609878540e-02,2.885892242193222046e-02
-5.320161581039428711e-03,-6.602894514799118042e-03,2.301038429141044617e-02,-2.900935336947441101e-02,-1.476790569722652435e-02,-4.262620583176612854e-03,2.209186553955078125e-03,1.707542687654495239e-02,-1.094956137239933014e-02,1.166824623942375183e-02
-2.576427906751632690e-02,2.461372688412666321e-02,-2.076178789138793945e-02,-2.558106556534767151e-02,-1.533470861613750458e-02,-7.244730368256568909e-03,8.224040269851684570e-03,-7.615687325596809387e-03,-7.585622370243072510e-04,-8.112439885735511780e-03
3.103546798229217529e-03,-2.153028361499309540e-02,2.520735561847686768e-02,1.038092002272605896e-02,-1.134003698825836182e-02,1.913630217313766479e-02,-2.084775455296039581e-02,-3.391101956367492676e-03,3.109614923596382141e-02,-2.400412783026695251e-02
2.430722489953041077e-02,-1.289479061961174011e-02,1.267150789499282837e-02,-2.937197312712669373e-02,2.111152186989784241e-02,-2.853790298104286194e-03,2.855233848094940186e-03,-1.671545952558517456e-02,-1.555963046848773956e-02,1.887872815132141113e-03
1.594424247741699219e-06,-3.072470054030418396e-02,-1.828332617878913879e-02,2.739203348755836487e-02,-2.606811374425888062e-02,-2.734590321779251099e-03,-2.027289941906929016e-02,-2.165788039565086365e-02,-2.346081845462322235e-02,3.225173428654670715e-02
-1.109363697469234467e-02,-2.517223730683326721e-02,-1.967164874076843262e-02,-3.099817223846912384e-02,-1.281521096825599670e-02,2.368877083063125610e-02,1.406457275152206421e-02,1.889243721961975098e-04,2.428341656923294067e-02,-1.818688958883285522e-02
1.640541851520538330e-02,3.323102369904518127e-02,1.539449766278266907e-02,1.184135302901268005e-02,-1.834731549024581909e-02,-2.753826603293418884e-02,5.187995731830596924e-03,-2.688165754079818726e-02,-1.479705609381198883e-02,-4.051415249705314636e-03
-2.082294598221778870e-02,-2.701004967093467712e-03,-2.061859518289566040e-02,2.282706648111343384e-02,2.672734856605529785e-02,-2.905217371881008148e-02,-5.207942798733711243e-03,-3.331223502755165100e-03,-2.495249547064304352e-02,2.590555697679519653e-03
1.872219145298004150e-02,5.561303347349166870e-03,3.286482766270637512e-02,-2.788244560360908508e-02,-2.866150811314582825e-02,1.112174615263938904e-02,1.712558045983314514e-02,7.325999438762664795e-03,2.064655348658561707e-02,-2.090936340391635895e-02
2.856821939349174500e-02,4.605326801538467407e-03,2.936206385493278503e-02,3.047138825058937073e-02,7.816825062036514282e-03,6.285857409238815308e-03,-5.189899355173110962e-03,6.313934922218322754e-03,2.315745875239372253e-02,3.139124438166618347e-02
1.611951366066932678e-02,3.131205961108207703e-02,1.699497550725936890e-02,9.218752384185791016e-03,-3.216291964054107666e-02,-1.751628518104553223e-02,-2.375879883766174316e-02,-3.061218000948429108e-02,4.435218870639801025e-04,-2.982405573129653931e-02
6.124772131443023682e-03,-9.308660402894020081e-03,-1.920584589242935181e-02,-5.105568096041679382e-03,2.136057242751121521e-02,-4.930907860398292542e-03,1.699296012520790100e-02,-2.858725376427173615e-02,-2.066022530198097229e-02,-3.611717373132705688e-03
-3.107338026165962219e-02,1.028338447213172913e-02,1.491793245077133179e-02,-1.082128286361694336e-02,2.099337056279182434e-02,1.790623739361763000e-02,-3.149939328432083130e-02,1.656870171427726746e-02,9.520698338747024536e-03,3.185189142823219299e-02
6.764296442270278931e-03,-1.741752028465270996e-03,-4.991222172975540161e-03,-2.132548950612545013e-02,-1.971545815467834473e-02,1.430726796388626099e-02,1.044565066695213318e-02,8.995588868856430054e-03,1.714600995182991028e-02,-2.626728266477584839e-02
-1.530096493661403656e-02,-3.167584538459777832e-02,1.919531077146530151e-02,2.459417656064033508e-02,3.155215457081794739e-02,1.911770552396774292e-03,7.643971592187881470e-03,-2.278733439743518829e-02,-7.392065599560737610e-03,1.888457313179969788e-02
-2.791261859238147736e-02,3.281147405505180359e-02,-1.158931665122509003e-02,7.309280335903167725e-03,2.741686627268791199e-02,-2.401350624859333038e-02,2.818699926137924194e-03,-1.292874850332736969e-02,3.838278353214263916e-04,-2.648231945931911469e-02
-2.407113090157508850e-02,-1.326687447726726532e-02,1.847879961133003235e-02,-5.723450332880020142e-03,-1.976948231458663940e-02,-1.528064534068107605e-02,2.807050570845603943e-02,4.832074046134948730e-04,-1.933653652667999268e-02,2.945935353636741638e-02
9.356804192066192627e-03,2.480364590883255005e-02,1.893211901187896729e-02,1.564759016036987305e-02,1.513259485363960266e-02,-1.918244734406471252e-02,-1.098183728754520416e-02,3.906086087226867676e-03,3.060549870133399963e-02,-2.774181403219699860e-02
-1.114685088396072388e-02,-6.780728697776794434e-03,2.726000174880027771e-02,1.117461174726486206e-02,1.178055256605148315e-02,-3.224509209394454956e-02,-3.415705636143684387e-03,2.181874215602874756e-02,-1.341044157743453979e-02,3.111443296074867249e-02
2.237124741077423096e-02,-1.955798268318176270e-02,-9.533202275633811951e-03,-2.833112515509128571e-02,-5.139248445630073547e-03,-1.712961867451667786e-02,-1.287876255810260773e-02,-1.123879104852676392e-02,-2.375552058219909668e-02,-2.544535323977470398e-02
1.205606386065483093e-02,-8.564792573451995850e-03,2.065195143222808838e-02,-2.391828224062919617e-02,-5.743945017457008362e-03,1.169065013527870178e-02,1.669335365295410156e-02,-2.282355353236198425e-02,-4.234438762068748474e-03,-2.431400865316390991e-02
1.858766376972198486e-02,-3.074667789041996002e-02,-1.633092574775218964e-02,6.262380629777908325e-03,-2.716095373034477234e-02,2.704400569200515747e-02,-2.287697419524192810e-02,-2.408763393759727478e-02,7.696092128753662109e-03,-1.628531329333782196e-02
2.427530661225318909e-02,2.475458011031150818e-02,-4.641013219952583313e-03,3.026269003748893738e-02,1.214278116822242737e-02,1.556981354951858521e-03,-2.917987294495105743e-02,1.032964140176773071e-02,2.214017510414123535e-02,1.528231054544448853e-02
-2.742750570178031921e-02,-8.877411484718322754e-03,2.744405716657638550e-02,-1.927753165364265442e-02,-1.334074884653091431e-03,1.736091077327728271e-02,-2.257122658193111420e-02,-2.893270924687385559e-03,2.079270780086517334e-02,-7.851812988519668579e-03
-7.118491455912590027e-03,-7.395675405859947205e-03,3.318293765187263489e-02,2.262894809246063232e-02,1.896172761917114258e-06,1.449102908372879028e-02,2.238159999251365662e-02,-8.036494255065917969e-04,-2.864101529121398926e-02,-5.567951127886772156e-03
-2.138259075582027435e-02,8.721642196178436279e-03,-1.616220735013484955e-02,-3.286146745085716248e-02,1.578160375356674194e-02,3.151418641209602356e-02,-2.710209786891937256e-02,1.515392214059829712e-03,-3.015059977769851685e-02,-1.619630120694637299e-02
3.264639154076576233e-02,-6.786862388253211975e-03,1.963827759027481079e-02,-2.043578587472438812e-02,2.912807092070579529e-02,-3.252074494957923889e-02,-2.945571020245552063e-02,-6.547158583998680115e-03,2.121638879179954529e-02,-7.417052984237670898e-06
-3.029741905629634857e-02,-2.969055809080600739e-02,8.137915283441543579e-03,-3.266807645559310913e-03,-6.331501528620719910e-03,-2.092907950282096863e-02,-1.431054621934890747e-02,-2.726582624018192291e-02,-1.397673040628433228e-03,1.715272665023803711e-04
-2.210185304284095764e-02,1.173124834895133972e-02,-2.667501568794250488e-02,-2.129771187901496887e-02,-1.795493625104427338e-02,2.005293592810630798e-02,-2.851903438568115234e-03,-2.423120103776454926e-02,3.207240626215934753e-02,3.173107281327247620e-02
2.372608706355094910e-02,2.568564191460609436e-02,-1.010935939848423004e-02,-1.932391151785850525e-02,3.310431167483329773e-02,2.870246767997741699e-03,-1.056724973022937775e-02,1.436681300401687622e-02,2.344218268990516663e-02,6.191149353981018066e-03
1.288011297583580017e-02,-2.537855878472328186e-03,-1.960228756070137024e-02,-3.511097282171249390e-03,-2.716882340610027313e-02,6.781887263059616089e-03,2.511095255613327026e-03,3.231473639607429504e-02,1.287388429045677185e-02,2.305367961525917053e-02
-5.540356040000915527e-03,2.071390673518180847e-02,-1.052688248455524445e-02,-2.643216028809547424e-02,1.719763502478599548e-02,1.468045637011528015e-02,-1.833012327551841736e-02,-3.082213178277015686e-02,-2.290173619985580444e-02,-2.075725793838500977e-02
-1.344261318445205688e-02,-1.519526727497577667e-02,-9.135896340012550354e-03,1.811057701706886292e-02,1.552562415599822998e-02,-5.513926967978477478e-03,-3.214617073535919189e-02,-2.121607959270477295e-02,-5.710026249289512634e-03,5.701281130313873291e-03
-1.674201525747776031e-02,2.709268778562545776e-02,2.710406482219696045e-02,5.840755999088287354e-03,-7.612189278006553650e-03,-2.196764200925827026e-02,-1.905370131134986877e-02,1.075812056660652161e-02,-2.584622986614704132e-02,-1.351326704025268555e-02
-2.165936306118965149e-02,-1.964585483074188232e-02,3.012807294726371765e-02,2.994739636778831482e-02,5.554907023906707764e-03,9.662058204412460327e-03,-1.190153136849403381e-02,3.183823451399803162e-02,2.993597462773323059e-02,-2.692358940839767456e-02
3.070001676678657532e-02,1.472411677241325378e-02,8.574377745389938354e-03,-8.631439879536628723e-03,2.122355252504348755e-02,1.440745964646339417e-02,2.988911047577857971e-02,-1.707316748797893524e-02,2.123112976551055908e-02,-4.705199971795082092e-03
1.256219297647476196e-02,7.222354412078857422e-03,-2.120306715369224548e-02,5.906417965888977051e-03,-5.210053175687789917e-03,7.716190069913864136e-03,2.205084636807441711e-02,-6.398076191544532776e-03,-5.482817068696022034e-03,1.590745151042938232e-02
-7.133580744266510010e-03,-2.566942572593688965e-02,1.476045697927474976e-03,2.023745328187942505e-03,1.275410130620002747e-02,-9.603323414921760559e-03,9.191282093524932861e-03,-6.624491885304450989e-03,9.354345500469207764e-03,-5.004789680242538452e-03
3.299882635474205017e-02,1.213883236050605774e-02,2.762208878993988037e-02,1.541234925389289856e-02,-2.190416119992733002e-02,2.035225555300712585e-02,-5.633406341075897217e-03,7.689315825700759888e-03,-7.210262119770050049e-04,3.263531997799873352e-02
2.304064482450485229e-02,-1.249831169843673706e-03,-2.225827425718307495e-02,5.039699375629425049e-03,2.708408981561660767e-03,1.097605377435684204e-02,-3.989109769463539124e-03,-3.277400881052017212e-02,-7.310392335057258606e-03,-1.067461445927619934e-02
1.628902554512023926e-02,-3.318455815315246582e-02,1.567653194069862366e-02,-9.021176025271415710e-03,2.871258929371833801e-02,1.630516350269317627e-02,-2.436481788754463196e-02,2.740071341395378113e-02,-2.744560316205024719e-02,-2.230338007211685181e-02
2.451623976230621338e-02,2.516381815075874329e-02,-1.030404493212699890e-02,-2.263142913579940796e-02,1.391857117414474487e-02,5.940780043601989746e-03,-6.744898855686187744e-04,2.708154916763305664e-02,-3.074929118156433105e-03,-7.982844486832618713e-03
-1.243716105818748474e-02,-1.822043210268020630e-03,9.291142225265502930e-03,2.929138019680976868e-02,-2.918263897299766541e-03,-3.080613538622856140e-02,2.951091155409812927e-02,4.779174923896789551e-04,2.137900516390800476e-02,2.818810567259788513e-02
-1.887071132659912109e-02,2.999312058091163635e-02,-9.180827066302299500e-03,2.868686616420745850e-02,2.113834023475646973e-03,1.403631269931793213e-02,-3.260639309883117676e-02,1.078892871737480164e-02,9.354408830404281616e-03,-2.379823103547096252e-02
3.746580332517623901e-03,-2.275084704160690308e-02,1.841096207499504089e-02,2.422523498535156250e-02,3.062409535050392151e-02,-2.813452668488025665e-02,8.065953850746154785e-03,-1.092855259776115417e-02,-1.390182971954345703e-02,2.505264058709144592e-02
8.130583912134170532e-03,2.146673947572708130e-02,1.220128685235977173e-02,-6.300035864114761353e-03,-2.135613933205604553e-03,-1.449107006192207336e-02,-1.739094965159893036e-02,1.767572015523910522e-02,-2.745153009891510010e-02,-8.423589169979095459e-04
-8.696911856532096863e-03,3.063556924462318420e-02,1.019753143191337585e-02,-2.426019310951232910e-02,1.377700269222259521e-02,-7.571097463369369507e-03,6.511501967906951904e-03,-2.158615551888942719e-02,1.350135728716850281e-02,-2.959210425615310669e-03
-7.957851514220237732e-03,-2.232334949076175690e-02,3.717850893735885620e-03,-1.867007464170455933e-03,8.110567927360534668e-03,2.583182230591773987e-02,-2.049285545945167542e-02,-2.278278023004531860e-02,1.572857797145843506e-02,-1.313521713018417358e-02
3.801371902227401733e-03,2.797183021903038025e-02,1.314334198832511902e-02,-2.154801599681377411e-02,2.181871235370635986e-02,7.206279784440994263e-03,-5.943812429904937744e-04,2.986325696110725403e-02,2.799191325902938843e-02,4.667725414037704468e-03
2.099706605076789856e-02,-5.761709064245223999e-03,2.444866672158241272e-02,-3.028558939695358276e-02,2.648220956325531006e-02,-2.639086917042732239e-03,-7.201837375760078430e-03,-2.739534154534339905e-02,2.148191630840301514e-02,-9.744629263877868652e-03
-1.137205027043819427e-02,-1.580539718270301819e-02,-2.311687916517257690e-03,-2.716074697673320770e-02,8.873261511325836182e-03,2.933509275317192078e-02,-2.866856195032596588e-02,-9.236516430974006653e-03,-3.262584656476974487e-02,1.719573885202407837e-02
